εἶμι saw 1.40636e-08
ἕ nostrils 1.63355e-09
πανάργυρος silver 1.30911e-05
χέω mighty 2.08698e-07
θωρήσσω themselves 6.00071e-07
πολυήρατος both 1.08871e-05
ἐσθής blazing 1.82386e-06
μή full 6.48603e-08
θεειόω sulphur 8.82207e-06
νέκυς forward 2.89018e-07
πω strength 5.28249e-08
βαίνω pass 6.23667e-08
παγχάλκεος well 5.50798e-06
ἀτάρ king 6.80376e-09
ἀποίχομαι while 2.58791e-06
ἄντηστις NULL 0.00188777
οἰμωγή wailing 1.41523e-06
χαλκοῦς slay 7.19687e-07
καί still 5.9697e-09
καί fatted 2.75882e-09
μοῖρα shame 1.74805e-07
εἰς which 6.08852e-09
ὑπεκπροφεύγω escape 4.16629e-06
αἶσχος feet 1.89483e-06
ἄπειμι presently 8.1199e-07
ἀνέζομαι charge 1.09811e-05
ὅτι when 3.34852e-05
ὡς master 2.64744e-09
ἱερεύω aye 2.63446e-05
παραγίγνομαι present 1.47999e-05
κεῖνος new-born 1.41387e-07
ἐρύκω am 6.80684e-07
ἐκ aretias 8.99871e-10
ἐπί nowise 2.1114e-09
ἔδω heaped 1.51605e-07
ὅδε long 1.79358e-07
νοῦσος any 1.04331e-05
μάλα whosoever 1.60439e-08
παρά alone 1.49075e-08
ἐπεί hereafter 8.1425e-09
ἠθεῖος lord 3.87422e-06
υνκνοων great 7.83936e-07
πολεμίζω so 3.11874e-06
κάτειμι my 2.79975e-05
εὐρύς utterly 8.03437e-08
ὅσος which 9.8155e-08
γε earnestly 2.19113e-08
θνήσκω fate 1.97278e-07
δίδωμι wooers 3.92558e-08
ἄνευθε converse 2.10064e-07
μενεαίνω her 3.96639e-06
ἁμαρτάνω sight 9.57097e-07
Κύκλωψ called 6.206e-07
ἄλλως entertainment 5.77811e-07
ἑός sweeter 3.34349e-09
φιλόξενος who 0.000127839
ὅς whither 3.13299e-09
μέν beholds 3.27891e-09
ἱκάνω cyprus 4.50339e-07
ἱκάνω laughter-loving 6.065e-08
λάινος enquire 8.14476e-07
ὁ journey 5.81126e-10
ἵνα quickly 1.12498e-07
κατῶρυξ earth 2.18175e-05
καταχέω shed 2.28637e-05
ἄρα palace 1.1685e-08
ἀκτίς bright 8.27134e-06
θύραζε way 5.46241e-07
μεταβουλεύω purpose 2.0232e-05
ἀνά sit 3.8931e-08
ἀπάλαλκε their 0.000156025
ἄν year 4.67258e-09
βαίνω so 3.91166e-07
συμφράζομαι took 4.91352e-06
προβλώσκω and 0.000266388
ἤ knows 8.66239e-09
εἰμί fair-tressed 1.23815e-09
ἀγείρω called 2.12147e-07
πῦρ it 2.30228e-06
πῦρ upon 2.65461e-06
πῦρ come 5.12096e-06
πῦρ had 2.30176e-06
πῦρ far 3.4631e-07
ζῶ back 6.36939e-05
καί ready 7.75986e-09
τάφρος watchers 1.48589e-07
κυδιάνειρα glory 1.43459e-06
προφαίνω forth 7.40467e-06
ἡμιόνειος mules 0.000140411
ἡμιόνειος drawn 0.000150475
παρά voice 2.09903e-08
παρά uttered 2.85339e-08
παρά nigh 2.8831e-07
παρά messenger 1.19632e-08
σφεῖς parted 3.83447e-09
κλέπτω corpse 2.78321e-06
αἰσχύνω hast 1.12806e-05
σύ sheep 4.35876e-09
ἤτοι all 3.14215e-06
ἤτοι antilochus 1.91737e-07
μέν achaea 7.99592e-09
πήγνυμι thee 6.50315e-06
δείξω thy 0.00011014
ἐπόρνυμι rushed 1.21682e-06
ἀντιβίην man 5.05087e-05
πρίν pent 2.02297e-07
αἱρέω lycaon 2.23901e-08
θυμός days 1.97397e-08
τοσόσδε with 4.37551e-05
ἀτάρ helm 4.75149e-09
βρῶσις seeing 3.05041e-06
βρῶσις pass 3.92902e-06
ἦ hephaestus 2.46898e-08
πολύχρυσος gold 1.04454e-06
πολύφρων setteth 2.09072e-06
θέω aiantes 1.1662e-07
ἐπίσχω hold 1.76976e-05
εἶθαρ straightway 4.39309e-06
ὑποτρέω howbeit 5.662e-06
δεύω vessels 4.44122e-07
Πηλιακός spear 6.18952e-05
κελητίζω chosen 4.91371e-05
ἀπό foemen 6.5008e-09
ἵστημι his 1.23136e-06
ὁμῶς methinks 3.38425e-07
ἁνδάνω desire 2.76448e-06
τεός shameful 1.38008e-07
ὅς clear-voiced 1.77038e-09
μερμηρίζω took 9.26034e-07
ἀποπαπταίνω looking 2.30272e-05
μέν achaeans 1.00825e-07
χάρμη more 1.34739e-06
χαλκοκορυστής harness 1.70063e-06
ἀμφότερος parentage 1.88006e-08
παραμένω stand 1.25936e-05
ὄρνυμι conflict 3.75891e-08
γίγνομαι beheld 3.0511e-08
πρόσθεν thick 1.34525e-07
φίλος zeus 1.28982e-07
δαίφρων message 2.03235e-07
βαίνω we 1.66551e-07
εἰσέρχομαι goeth 6.57252e-07
ὅπως when 1.33958e-06
τίθημι setting 1.65673e-08
ὦκα wondrous 1.48402e-07
ὁ armour 6.86571e-10
πυκάζω being 8.05593e-06
ἐνδύω did 6.43334e-05
ὅσος number 5.36941e-08
οτηερ minded 6.61383e-08
κέλομαι silence 1.06465e-07
ἐξεῖπον declare 8.02465e-06
πού NULL 8.99812e-06
ἡμέρα day 5.52788e-06
ἥδομαι ills 3.19726e-05
τεῖχος alike 1.16199e-07
θνήσκω consolation 1.02297e-08
ᾗ even 1.22073e-05
ἕνεκα battle-cry 5.24333e-08
πη prayer 9.32906e-07
πη may 7.95032e-06
εὐφραίνω mine 1.27866e-05
ὅτε over 7.29337e-07
ὅτε passing 8.05775e-07
ὅτε in 1.97206e-06
τοι our 2.52946e-07
φίλος therefor 3.70382e-08
φίλος glad 2.14064e-08
πυκνός war—dark 2.66614e-08
εὔπρυμνος up 4.7589e-05
οὐ cowering 4.10364e-09
λαμπρός warriors 9.47907e-07
μίγνυμι coming 2.07606e-07
μή any 4.9545e-08
ὅτε NULL 9.95526e-06
ἀνά afar 7.31906e-08
νόσφι withdrew 1.27461e-07
μάχομαι wage 3.74527e-08
ὄφρα NULL 3.03764e-06
τίνω let 1.89494e-06
κίω ran 1.3623e-06
ἠδέ thing 1.41831e-08
μή to 1.38599e-06
ἱκνέομαι couch 2.5272e-07
εἰσαφικνέομαι came 7.40589e-06
πίπτω host 1.62362e-07
μέν darting 1.05498e-07
ὠκύμορος death 3.9357e-06
σός people 6.25435e-08
παχύς up 4.07767e-06
γε else 1.35763e-07
τροχός fat 1.19275e-05
ἔμπαιος peace 6.4268e-05
δέ wailing 7.08376e-09
κλαίω weeps 5.17449e-06
μηκάομαι him 7.56585e-05
θυοτε daughters 9.80527e-08
τε blameless 2.31736e-07
ἔτι children 6.21667e-08
ἀπό some 4.09929e-08
εἰσφορέω bearing 1.79942e-05
κατά weapons 3.05542e-08
ἀνέζομαι back 0.00308137
ὦ i 1.85451e-06
ἐύς fair 1.23739e-06
οἴχομαι forth 1.17847e-06
υνκνοων to 8.69865e-06
υνκνοων look 2.21689e-07
χρῆμα wasting 5.96958e-06
σός put 6.83449e-08
ὅδε know 4.53593e-08
ἐπαλάομαι take 1.77355e-05
πάσχω toils 6.81003e-07
κυδρός noble 1.38673e-05
μελέδημα thoughts 4.21651e-06
νῦν were 2.1788e-07
εὔκηλος shields 4.92078e-05
εὔκηλος their 0.000257156
ἀργιόδους chine 1.0238e-05
ἄν sore 2.16499e-08
χράω2 entertainment 2.44156e-06
κερτομέω methinks 6.35911e-06
ἕως wast 5.79247e-06
ἐγώ some 6.16838e-09
φιλόξενος fear 0.000272433
φιλόξενος love 0.000317134
θεώτερος sacred 2.23444e-05
ἔχω wise 5.30496e-08
κατεσθίω devoured 0.000144135
ἔπειτα their 4.10732e-07
ὄφρα mast 1.94785e-07
νέκυς gone 2.80303e-07
οἰκτρός cry 1.38463e-05
εἴβω shed 1.06911e-05
ὅσος who 1.59412e-07
ποντοπορέω sea 3.57062e-05
ἅμα you 5.11775e-08
ἱκάνω immortals 8.45202e-08
ἄρα immortals 1.62415e-08
πούς kept 4.15406e-07
δή fain 2.76057e-08
ἐπιπλέω goodly 6.86703e-06
περιρρέω around 0.000100424
φιλόξενος gods 0.00148279
ἄλυτος loosed 2.94814e-05
δεῦτε now 1.9002e-05
τότε straightway 5.50034e-08
ἐκεῖνος sight 1.35894e-07
κατῶρυξ deep 3.74492e-05
καταπίπτω with 2.22424e-05
μέν thoughts 1.94169e-08
πέμπω but 8.66896e-05
ἑός assailed 4.92489e-08
ὁ right 7.40662e-10
καλός before 1.73839e-07
ἤ stayed 1.69854e-08
ῥέζω any 2.51569e-07
αὖτε antinous 8.18436e-08
μέν soon 2.00096e-08
ἠδέ zeus 1.84375e-08
ὅς more 1.40004e-08
ὅς once 8.25649e-09
γείνομαι borne 2.60791e-06
αὐχένιος neck 3.40148e-05
γεραιός beheld 5.31983e-07
ἤ day 3.05876e-08
ἀνορούω sun 5.48252e-07
τί no 2.23727e-05
ἡδύποτος too 6.89694e-05
δή aught 6.44085e-08
οὐδέ past 6.32302e-07
ἅμα who 1.1446e-07
ἄντα hall 9.45992e-07
ἀπεῖπον slaying 4.27016e-06
ἀπεῖπον word 0.000116246
ἀπεῖπον speak 1.40154e-05
αὖ ships 4.11844e-07
αὖ hollow 8.63104e-06
αὖ these 0.000250749
εἶμι while 5.89992e-08
οὖν gone 2.11143e-07
ἄω3 far 8.55739e-06
δή ransom 4.80399e-08
ποτέ equal 3.17566e-07
εἴβω lying 1.94671e-05
αἱρέω teucer 4.07966e-08
ἀέθλιον seized 1.98844e-05
κατά brought 2.88008e-07
μῦθος while 1.16487e-06
μῦθος smiling 2.9316e-07
δόλος hinder 3.96e-06
αἰσχύνω put 1.05809e-05
πέρ eumelus 1.01507e-07
ἤτοι marked 2.41667e-07
ὁ amid 9.40452e-10
ἐκφέρω brought 4.8847e-06
δέ therethrough 1.8209e-07
τετραίνω therethrough 9.61164e-05
ὀπίσω where 1.06603e-06
ἐγχείη every 2.69757e-06
τῇ thereon 2.56617e-06
ῥεῖθρον rushed 1.98283e-06
αὐτός bed 1.21603e-08
εἴδομαι sending 1.22998e-06
μάλα line 2.27657e-08
οἶδα each 1.41792e-07
μετατροπαλίζομαι look 1.5198e-05
σύ kingship 2.62886e-08
τιμή master 1.4487e-06
ἑτέρωσε part 3.87262e-05
ἑτέρωσε other 1.8517e-05
εἰς podarge 7.72402e-09
καί alcinous 4.37027e-09
ὅς beloved 1.24281e-08
ἰσχανάω beside 3.1238e-06
ἀνήρ wroth 3.15836e-09
οὕτως valiant 1.08916e-07
ἐγώ howbeit 3.50624e-09
μεταπρεπής preeminent 0.000172418
ὑπό life 3.33973e-08
μήστωρ yet 5.63359e-06
αἱματόεις red 4.07513e-06
αἱματόεις tunic 7.25779e-07
ἀσθμαίνω boar 1.14724e-05
ἱππεύς yet 3.61711e-06
μετακιάθω was 5.33979e-05
ὅτε save 1.76767e-07
ἐπί counsels 1.81113e-08
ἀχεύω aid 5.02388e-07
ἀπό yet 8.72576e-08
ἀοσσητήρ stand 6.39886e-06
ἠδέ better 5.92957e-09
ὁμῶς it 2.74603e-05
ἐμπίπτω come 8.09011e-06
μερμηρίζω she 5.43226e-06
ἔνειμι understanding 1.05701e-05
αὐτόθι verily 1.05169e-06
ἄγαμαι years 6.34161e-06
περιωπή toward 2.16805e-05
μίγνυμι foremost 1.30682e-06
βούλομαι so 4.54358e-06
ἤ on 1.87384e-07
μῦθος idomeneus 5.9091e-08
Τρώιος whereof 4.8175e-05
νῦν one 9.3769e-08
πολεμίζω hath 3.49161e-05
πολεμίζω strong 3.37652e-06
σύ no 2.84286e-08
δικλίς gates— 0.000184042
οτηερ against 2.35058e-08
οτηερ straight 9.16448e-07
διίστημι arrayed 4.90613e-05
διίστημι divided 6.59173e-05
ἐν sleep 4.45241e-09
ἀμογητί easily 3.24275e-05
ἵστημι by 5.42706e-05
ἵστημι hand 0.000186367
ἵστημι took 8.8044e-08
ἔπειτα again 6.74275e-08
εὐφημέω silence 2.19814e-05
ἐξεῖπον whole 9.28202e-05
ὅς devising 7.22448e-09
πέρ trembling 4.71999e-08
ἀντί better 1.2747e-06
παῖς sake 7.38463e-08
δή smiting 7.17372e-07
φίλος prayer 1.1823e-07
βάλλω artemis 1.03805e-07
ἀπόερσε or 0.000160451
ἔτης friends 2.76199e-06
κατά beneath 1.59611e-08
ἐρεθίζω sought 3.23554e-05
ἰθύνω spear 2.74456e-06
αὔτως am 6.13482e-07
γάρ let 5.56182e-08
ἵστημι feeding 2.25344e-07
ἄγνυμι or 8.67726e-06
ἄγνυμι heifer 0.00110538
εἰμί howbeit 3.76802e-09
ἐσθλός mighty 1.85274e-07
αὖ fall 2.8253e-07
λάζομαι his 4.26519e-05
ὄρνυμι battle 1.92304e-07
ὅτι2 Now 1.67268e-05
διαμετρητός together 0.000103351
πολύμυθος speech 4.84614e-05
ἀμφί for 9.91466e-07
σύμπας but 5.07713e-05
σπάρτον tackling 8.73095e-05
πάρος his 4.05505e-06
ἤδη when 8.53122e-07
οὕτως NULL 1.95672e-05
κρυπτάδιος pondered 3.81821e-05
μετά set 6.61121e-08
ἤ warlike 4.21185e-08
ἀνίστημι assembly 1.27572e-07
μέγας black 4.41334e-08
ἤτοι he 2.78644e-05
δι~ος goodly 1.49712e-05
ἀνά eupeithes 1.54469e-06
ἐπεί old 3.38119e-07
ἐξαῦτις more 1.91844e-06
θυοτε down 2.0019e-08
δμώς whose 6.58532e-05
ἀπονίζω blood 4.51634e-06
μή cried 8.3166e-07
οὖλος took 0.000948204
σύν him 3.21663e-07
γῆ sight 9.89563e-06
εἰσοράω fail 9.9459e-07
πολυιδρεία great 5.45633e-05
φέρω cleanse 4.59249e-06
εἴκω before 4.35236e-06
εἴκω odysseus 2.5896e-05
ἴσκε so 0.000522507
παχύς nostrils 6.48675e-05
ἐφορμάω minded 2.68738e-05
ἤ you 1.92278e-07
θύραζε else 6.60105e-06
γάρ you 1.75743e-08
ἄντηστις over 0.000245331
χαλκοῦς even 0.000170592
εἰς lying 1.72124e-06
μελιηδής sweet 0.00651644
γε sleep 6.03072e-08
μηκάομαι life 1.13746e-05
αἶσχος their 2.91015e-05
ἐπιήρανος give 6.20742e-05
ἠέλιος wroth 2.6791e-07
ἄρα elder 5.19359e-07
ἀνήρ fear 6.13682e-09
εἰσφορέω within 4.70813e-05
αἱμασιά gathering 0.000100088
γέλως making 0.000411102
ἐρῶ since 1.19286e-06
θυοτε scare 7.46558e-06
θυοτε strip 3.43119e-07
ἀνία our 2.20284e-05
κατά fate 7.83817e-08
μέμαα accursed 1.57124e-05
μετά let 2.63784e-07
βίοτος much 1.39566e-06
ὑψόθεν sides 0.000389011
στείχω path 3.44767e-06
στείχω they 0.000136259
ἐν thicket-lair 1.01253e-07
ὀρίνω seeing 6.79209e-06
καταλέγω sight 1.93626e-07
σύ myself 5.17783e-09
κέλομαι charge 2.41074e-06
χρῆμα substance 1.25214e-05
σός let 6.70951e-06
σός despite 5.75005e-07
οὐ house 4.71755e-08
ἀπαγγέλλω told 6.30488e-05
θέμις answer 1.41298e-06
ἠπεροπεύω minds 0.00324638
ἠπεροπεύω beguiles 0.03569
πέλω wretched 1.42425e-06
κηρόθι heart 1.69911e-05
φιλέω heart 6.11928e-06
ὅς endure 3.40809e-08
εἴθε grievous 1.1752e-06
ἀέκων keep 9.12952e-06
ἐκ our 7.42873e-09
ὡς desires 2.38104e-07
ὀπτάω roast 0.0433366
πορθμός between 0.000354721
κείω sleep 2.27348e-06
χλαῖνα swineherd 2.09304e-07
τρίχα watch 0.000333424
πρός some 5.86229e-08
εἰς returns 5.81144e-09
χρῆμα along 8.34652e-06
αὐτόθι years 1.60263e-05
παρέχω might 1.04059e-05
γάρ nine 1.40745e-07
ἀγινέω wooers 1.10582e-05
τόσος mainland 1.3268e-07
ἔνθα which 6.72475e-08
ἥκω am 0.000843239
ἥκω think 0.000158366
πολεμίζω land 1.94379e-05
ἕως land 6.18291e-05
πολεμίζω long 1.12035e-05
ὀπάζω gave 4.73265e-06
γῆ people 0.000203385
καταλείβω leave 0.000468881
πρίν unknown 4.04893e-06
πᾶς unceasingly 4.24888e-07
γάρ meat 2.43758e-08
ἔπειτα hear 3.05593e-08
κοῖλος reach 9.4395e-06
οτηερ found 1.02006e-08
ἔπειτα plain 3.2747e-08
ἧμαι giving 1.33409e-06
προθέω front 0.000518103
αὖτε art 1.9479e-06
αὖτε thou 3.46396e-06
πιφαύσκω thoughts 4.58184e-07
οἰκτρός NULL 0.000375694
αὐτόθι further 1.04932e-05
ἐν ended 8.49728e-07
Ἠέλιος helios 0.576486
Ἠέλιος flocks 1.70666e-05
ἀργύφεος long 2.0733e-05
ἔπειτα before 3.66262e-07
ἠδέ won 4.55243e-07
ἠδέ yet 7.50798e-08
ἐπιβαίνω into 9.42875e-07
πῶς2 hast 7.87993e-06
μέρμις cord 0.00302882
ἄψορρος again 1.09459e-05
ἤ coming 3.63423e-08
ὅς other 4.42314e-08
θαῦμα wondrous 3.30659e-06
ἐρυθρός some 4.11129e-06
γάρ lay 4.20549e-08
μέν therefore 9.98247e-08
μιν themselves 6.35139e-08
σύ or 1.17036e-07
ἀτάρ famous 3.6409e-08
οἴκοι house 1.32712e-05
θῆλυς now 9.36446e-06
εἴσω ares 1.50482e-06
ἄλυτος lovers 0.00324986
δήμιος people 4.33265e-06
τοσοῦτος presently 3.53744e-05
ἅλις plenty 1.69539e-05
πέλω which 1.46351e-06
στυγερός nothing 6.00894e-06
καί straightway 1.17198e-07
ἔνθα phaeacians 1.64552e-08
Ὀδυσσεύς no 1.49292e-07
αὐτός curved 1.70295e-07
ἐλπωρή that 0.000146593
ἐλπωρή sight 8.71605e-05
ἡμέτερος far 4.89016e-07
ἡμέτερος art 2.8938e-07
ἡμέτερος though 1.43084e-06
πέλω though 6.84915e-07
εἰσφορέω bore 0.000123243
διαφράζω word 1.2522e-05
παρέχω those 1.45976e-05
παρέχω garments 0.00370088
ποτέ bright 3.61186e-07
ἐν shady 1.61551e-08
εἰμί eyes 3.58011e-09
ἄλλως purpose 3.07203e-05
ἵκω if 2.31215e-06
δέρκομαι look 1.25748e-05
καλός she 4.77352e-06
θυοτε hermes 6.96713e-08
ἠδέ grief 1.99865e-09
ἀπάλαλκε ward 0.000211784
ἔτι came 3.34858e-06
ἤ how 1.60439e-07
ἤ here 6.1707e-07
ἤ have 5.26041e-06
ἤ verily 3.51998e-06
ἀέκων freely 9.66304e-06
αὖτε saying 2.50932e-06
ἵζω wait 2.06783e-06
ἐπιβαίνω agamemnon 1.24329e-06
ἔνθεν strife 8.44553e-07
κλισμός below 8.43546e-06
αὖτε these 6.78549e-07
φράζω nestor 6.18447e-07
φράζω son 5.56901e-06
φαίνω that 6.75611e-06
ἄρα peisistratus 7.23757e-07
οἴκοθι home 5.70821e-06
οἴκοθι work 2.633e-05
ἀληθής truly 2.05587e-05
ἀληθής me 0.000195672
ἤ take 1.00864e-06
ἡδύποτος there 0.000203603
ἐγώ labour 6.98168e-08
ἰάλλω fates 9.91572e-07
εὐπλοκαμίς fair-tressed 0.00390504
τί women 4.12372e-06
τί tell 1.94803e-06
ὅτε seeing 2.71501e-07
ἅμα telemachus 7.3856e-07
οὗτος glad 7.37587e-08
εἰσέρχομαι ithaca 5.33348e-07
εἰσέρχομαι will 1.36241e-05
μνηστός killed 0.000178078
πτερόεις beard 3.62624e-05
εἰς strangers 5.00425e-08
ἀνήρ strangers 1.12819e-07
ὦ my 1.21726e-06
ὅς decayeth 8.54968e-09
ἐφέπω ever 4.80419e-06
καί looked 3.25697e-07
γίγνομαι wrought 1.48539e-07
ἀπό and 1.54731e-05
ἀπό accept 4.36609e-07
μέν shall 9.90809e-08
γίγνομαι immortals 4.10589e-08
ἀμείνων profit 8.08673e-06
κλῆρος then 2.971e-05
πολύς handiwork 1.23506e-07
ἤ wiles 7.12521e-08
ἐπιτρέχω behind 5.63188e-06
ἵνα are 1.38943e-06
τεύχω round 4.02574e-06
αὐτός given 2.18649e-08
ἀριστεύς hosts 2.77878e-05
ὁ soon 1.62996e-09
ὅσος whereon 0.000399676
ὅσος place 2.88817e-07
ὅσος covered 5.53424e-07
ὑπό man 2.36044e-07
ἔγκειμαι profit 3.10826e-05
σμύχω utterly 0.000150371
ὀφρυόεις were 0.000175406
κομίζω take 1.5824e-05
γάρ before 3.82285e-08
εἰκός both 1.51087e-06
ἔτι never 2.02515e-07
πέρ so 2.46745e-07
Ἄρης wholly 1.95983e-05
περί shall 1.95202e-07
πούς swiftly 6.11714e-07
ἄρα spear 6.77711e-08
καί achilles 1.36096e-07
πείρω ceaseth 0.00107133
ἐφίζω aphrodite 2.92297e-05
χείρ likened 7.6418e-06
ὄλλυμι troy 6.29849e-07
Αἰακός aeacus 0.000706454
αἰπήεις steep 0.000250746
πού be 1.42528e-06
ὁ lycaon 4.5292e-08
δαίζω back 4.21808e-06
δαίζω himself 7.65437e-06
ἀπό tires 1.4968e-08
ὁ setting 2.85168e-08
πολύς otrynteus 6.19233e-08
τις wherefore 5.81073e-08
εἶδον parents 1.77067e-07
οἶδα others 1.39782e-07
σύ place 1.72083e-08
ἐνίημι go 4.60969e-06
ἑτέρωθεν dread 8.96863e-07
σύ hapless 7.39295e-08
εἶπον amid 1.51271e-07
ἀθρόος throng 4.47694e-07
πότε then 0.000169249
πότε when 0.000134895
ὑποβάλλω speak 5.5871e-05
παρά places 5.40067e-08
μάλα mortal 9.40002e-08
ἡμέτερος come 4.77919e-07
ὁ thus 2.01672e-09
συλλέγω gather 0.000129984
χάζω never 5.17893e-07
αὖτε she 1.3919e-06
αὖτε while 3.39367e-06
ἐκ perish 8.54438e-08
δέμας unto 5.33396e-05
ἐπιλάμπω plain 9.43055e-06
ἀπωθέω plain 0.000286108
ἀπωθέω mist 2.18695e-06
ἐπιλάμπω drave 1.87552e-05
γε weakling 1.50722e-06
ἀπόπροθε from 0.000492367
αἴρω get 3.48515e-05
προλείπω howbeit 7.67796e-06
ὀπάζω himself 2.88868e-06
τις corpse 7.11651e-08
μετακιάθω heart 2.56388e-05
τανύω over 3.76123e-06
δέρμα hung 6.22465e-05
παρθένιος girl 0.000181633
Πολυδώρη spercheius 0.00447423
ἔτι over 4.54379e-07
ἄτιμος wilt 3.69384e-05
κελητίζω well-skilled 0.113034
χωρέω gave 3.79922e-06
ὑποκρύπτω thereof 0.00833865
πρίν Nestor 4.23261e-07
βάλλω and 1.77354e-05
τίθημι horse-hair 0.000366629
ἐγώ broken 2.59762e-08
προβλώσκω came 2.03557e-05
αἴσιμος it 4.63011e-05
ὠκύς slayer 6.40315e-06
τελέω wrought 7.35263e-07
ἵστημι strong 3.93232e-07
ὁμῶς will 0.000117696
ἔρχομαι spake 1.29789e-07
νεφέλη indignation 1.09126e-05
βάλλω whirling 2.08023e-05
ὅδε olympus 2.63961e-08
ἐμβάλλω heart 1.15006e-05
πέρ pleasure 2.25572e-08
ἅλις abundance 2.85063e-07
πολεμίζω soever 2.27896e-06
Ἕλενος valiant 3.42221e-06
νιφόεις loud 0.000170216
ὁρμάω like 3.13006e-06
Μενεσθεύς leader 2.48788e-05
φαιδιμόεις glorious 9.23586e-05
ἐπιδευής done 4.69883e-05
Δηίπυρος close 4.61757e-05
ἀμενηνόω antilochus 0.00380212
στιβαρός vain 1.0008e-05
ἔπειμι2 cometh 0.000153597
διάνδιχα deïphobus 2.0009e-05
γόνος manner 0.000109231
Τρώιος spears 1.45859e-05
ῥήγνυμι foundations 3.1999e-05
μετέρχομαι hosts 3.9696e-05
νεῖκος conflict 3.54415e-06
περιδείδω wondrous 2.34877e-05
δέ wondrous 5.48406e-08
ὁ wondrous 2.75835e-09
ὅμως yet 0.000161471
ἐντός topmost 4.77273e-05
ἤ2 held 6.98156e-06
ἤ2 that 0.000860694
ἤ2 is 0.000189168
μεθάλλομαι seizeth 0.000188452
ἰδνόομαι writhed 8.02358e-05
μαρμαίρω shining 0.000113985
νώνυμνος should 1.606e-05
τρυφάλεια helms 0.0132989
βοάγριον bulls-hide 0.448288
βοάγριον shields 0.0144145
βοάγριον banks 0.0126351
τρυφάλεια heptaporus 5.80785e-06
ὅσος flow 5.02749e-05
ἐνέπω wise-hearted 2.1625e-05
ὄφρα to 6.5488e-06
ἤ warrior 1.1239e-08
Ἰτυμονεύς lifting 0.00370476
νεμέθω while 7.97798e-05
νεμέθω feeding 0.00174185
ἐπιβαίνω let 0.000169336
πλευρά suffered 0.000278802
γυνή wailing 1.99608e-07
ἕ seen 1.73721e-08
ἀνορούω bade 6.626e-06
διέχω through 0.000145194
ὅτε would 7.98347e-07
κακός leapeth 3.59911e-05
ἐπί plain 6.27198e-09
ἄρα still 1.33698e-08
ἀτάρ brother 1.88322e-08
ἐθέλω stand 1.5769e-07
ὀφθαλμός it 1.16989e-05
ἕ slender 2.48137e-07
μετά there 2.61866e-07
ἀπεῖπον wrath 3.94597e-06
μέν accepteth 1.76699e-05
καί mindful 4.75819e-08
ἐθέλω none 8.36746e-07
μῆτις minds 3.92156e-05
εἰ shalt 5.03572e-07
μέροπες these 0.000158046
παριαύω side 0.000142867
ὡς what 2.13698e-08
εὐφημέω our 0.000346752
σύ beside 7.13689e-09
μέλαινα black 0.000174102
θεόδμητος builded 0.00128544
κήδω thought 6.63537e-07
μένος hearts 2.67356e-07
ἔνθα whom 4.43026e-08
ἕζομαι those 2.65713e-06
ἕζομαι earth 3.566e-06
ἐμβάλλω herald 3.37215e-06
ὑποδέχομαι meet 3.60535e-06
ἄνθρωπος many-benched 2.76971e-07
Ἑκάβη hecabes 0.0015344
ἠδέ art 3.24506e-07
ἐφορμάω thee 0.00419157
ἐφορμάω set 0.00437872
ἐπείγω beside 6.26573e-06
πρός gone 1.41537e-07
ἤ gone 7.26201e-08
ἧμαι serving-women 1.42356e-06
τίθημι lay 3.56026e-08
πη befouled 0.000677933
ἀείρω bring 1.09511e-05
αἰσχύνω race 0.000426056
γίγνομαι she 1.0907e-05
γίγνομαι not 1.4907e-06
ἔναρα eager 2.38728e-06
ὑφηνίοχος car 0.00016879
ὑπέκ thrust 1.97147e-06
πη son 1.19622e-05
ὡς meshes 1.29579e-07
ἐρεθίζω son 0.000318416
ἐρεθίζω anger 5.19464e-05
ἕ ambrosial 2.19129e-07
ἐνθάδε land 7.74379e-07
ἐκνοστέω welcome 1.27823e-05
γιγνώσκω joined 5.00626e-05
ὄρνυμι sent 4.18879e-06
γε stretched 7.94924e-08
ἔχω grasped 2.27585e-07
ἕτερος bronze 8.60463e-07
διομήδης word 0.00187572
ἀλλά they 5.14059e-06
ἀλλά and 1.23074e-05
γάρ may 2.30994e-08
ἐρύω fashioned 1.24446e-06
τανύω leaning 1.87863e-05
πρός chest 1.69093e-07
πρέσβυς daughters 2.04938e-05
αὖ any 1.81527e-07
πη yet 9.71037e-06
αὖ friendship 1.53057e-06
αὖ may 4.87966e-07
ἀπό NULL 3.23316e-06
στιχάομαι achaeans 2.21722e-05
ἁνδάνω pleasure 1.31234e-06
ἔλπω waxed 4.66012e-05
πέλεκυς unyielding 5.69885e-05
εὐειδής comely 0.00150153
μίγνυμι comely 6.3384e-06
συμμίγνυμι silver 6.79953e-05
ὅς dwellings 2.70609e-08
ἐγχεσίμωρος raged 0.00140436
περιίστημι stood 1.35708e-05
νηπίαχος after 3.66508e-05
τίθημι turned 2.39128e-07
σεύω their 3.94351e-06
ὑπένερθε rushed 1.03913e-05
πα~ς throughout 3.70402e-06
γάρ who 1.07371e-07
κατακείω set 0.000491336
ἀπατηλός false 0.00384866
γάρ word 1.71141e-08
μέν heads 4.73323e-06
καί victims 2.44635e-06
ἤ2 why 8.0768e-06
γε called 1.25726e-07
γάρ give 1.59716e-08
μεθίημι your 3.14961e-06
προσεῖπον son 5.58029e-06
μάλα flee 3.2602e-08
στρατός missiles 1.28996e-06
νόσος an 0.00135479
ἵημι through 2.87471e-06
ἐσείδω saw 0.000223129
μέλλω come 0.000103066
μέλλω more 0.00243874
μέλλω avenge 1.50937e-05
ἐπισπαστός brought 0.000160033
ἐπισπαστός shall 0.000140705
καθάπτω said 0.000576805
γόος grief 7.39729e-06
ὀπάζω bestow 0.0143563
ἠδέ nor 5.81104e-07
δόμονδε thereafter 0.00555079
κτεατίζω days 0.230513
ἐνίσσω steadfast 0.000327621
θυοτε shewn 0.000141093
ἀλλά refused 1.55954e-05
κεῖνος seen 0.000360825
κεῖνος hadst 0.00166202
ἐάω both 1.01237e-06
γάρ hearts 1.98365e-07
οἶδα stayed 4.48766e-06
βαίνω rushed 1.21421e-06
κείρω shore 1.07458e-05
ὀπίσσω days 0.000425303
ἔντεα them 0.000189196
πᾶς destroyed 2.10989e-06
εὐνάζω down 2.3098e-05
εὐνάζω themselves 0.285141
δαίς light 3.22996e-05
θυοτε wiles 2.12548e-07
εὐνή folk 0.000781595
ἐκτίθημι stout 0.000540277
εἰσοράω know 1.55423e-06
οἴκαδε more 2.44801e-06
ἕπομαι hearts 3.37783e-05
ἔτυμος very 9.30325e-05
θείνω strike 8.1786e-05
ὀλολύζω thyself 0.000107492
εἰ go 1.96193e-06
προσφωνέω who 5.17182e-06
πρός well-built 1.22361e-07
ἐπισεύω set 0.000151539
ἐπισεύω those 7.19734e-06
σύν terror 1.424e-05
φράζω see 9.96454e-07
εἰσαφικάνω himself 0.000115857
εἰσαφικάνω all 0.209892
εἰσαφικάνω then 0.413626
εἰσαφικάνω came 0.000315814
κυνέη thick 4.19452e-06
κατόπισθεν behind 0.000241338
κατόπισθεν smote 2.94558e-05
αὐτός odysseus 6.7851e-07
φάσγανον your 3.13169e-05
χατίζω desire 2.81712e-05
χατίζω through 0.00123544
ἐπιάλλω set 0.00251772
μέν deeds 1.42292e-07
ἦ raising 3.40814e-06
ἔχω bow 8.54106e-08
ποιέω minded 1.461e-07
φάτις talk 6.18252e-05
ἐπεί sit 3.79955e-07
ἧ verily 0.000289712
εἰσείδω two 6.29708e-06
ὀρύσσω trench 0.106051
γωρυτός together 0.0134666
ἀποθνήσκω his 0.00640209
ἄντηστις against 0.000806089
ἄντηστις beautiful 0.00125269
ἄντηστις her 0.00144687
θυοτε fashion 8.50917e-06
νοστέω might 2.21096e-05
γείνομαι given 5.87452e-07
μέν beasts 8.20276e-06
οὐκέτι plain 0.00186089
καθεύδω blankets 0.00367655
ἐθέλω sleep 9.76815e-07
ἔργον stature 0.00290533
πρίν have 4.03548e-05
μιν sun 2.13452e-07
ψυχρός plenty 0.0368068
ἔπος hearken 4.07333e-07
ἕ furthermore 5.43674e-06
μεταλλάω city 4.37486e-06
εἴσω idomeneus 5.2138e-05
ὀαριστής converse 0.000165593
πολύς counting 6.90184e-06
δίκη so 8.33834e-06
δακρυπλώω because 0.0069377
ἱκάνω fame 0.00571113
μήποτε lest 0.000508952
ἀπό beware 5.48814e-06
ἄλλος piled 0.000740446
ἀπό began 3.96022e-05
λάμπω down 4.8136e-05
λάμπω lie 0.0207501
αἶψα said 2.42924e-06
δμωή wouldest 7.87027e-05
ἐπιφροσύνη thought 0.0106771
ἆρα rest 2.99822e-07
παγχάλκεος bronze 0.0013289
βαίνω who 9.14046e-06
ἄναξ necklace 0.000370245
πολυδαίδαλος another 1.16001e-05
ἀνέζομαι or 0.000294014
θυοτε deem 6.92119e-08
κεῖνος departed 1.74945e-05
κεῖνος my 2.8388e-05
κεῖνος when 9.15887e-06
κεῖνος day 0.000800279
ἶφι telemachus 5.4481e-05
φίλος amphinomus 2.12971e-05
ἐύς dulichium 0.000418686
μεταδαίνυμαι feast 0.00630465
μεταδαίνυμαι furthermore 0.00127074
ἀεί furthermore 0.000422346
πανθυμαδόν right 0.000142797
ὑποστρέφω return 4.54485e-06
ἡσυχία so 0.0044411
ἀγορεύω word 0.000112486
ἀλυσκάζω insolence 1.04601e-05
ἀλυσκάζω seeking 0.000187644
θυοτε doom 5.43733e-08
ἐπέχω rest 2.26479e-06
περί all 0.00276038
υνκνοων divine 0.0117417
νόσφι odysseus 0.000171659
μένω stood 1.97522e-06
ὅς stand 3.84677e-08
ὑψόθεν above 0.000208622
ὑψόθεν flowed 0.00600855
καλλίρους wherefrom 0.0228491
στείχω fair-flowing 0.000866852
στείχω well-wrought 0.00476357
στείχω went 0.213643
στείχω as 0.000129164
βούλομαι farmstead 0.0239752
βούλομαι keep 2.19804e-06
ἱερεύω slaying 0.0737757
ἱερεύω fell 1.24542e-05
ἄρα present 1.90806e-08
τεύχω wailing 1.55089e-05
ποθι day 3.19816e-05
ἵστημι tall 1.02279e-05
ἡμέτερος harbor 1.20858e-05
ἀπονέομαι given 1.70579e-05
υνκνοων bear 2.12239e-05
ἆρα devour 0.00283287
ἆρα utterly 5.05664e-05
ἆρα violence 0.0119368
ἆρα life 1.63164e-06
ἆρα take 4.06869e-07
ἆρα slay 2.20728e-06
νόσφι from 6.42779e-06
μηδέ let 0.00267503
παρέρχομαι sight 0.238214
ἁλιεύς rowers 0.10218
φίλος pylos 1.34883e-07
τοι yet 0.00750703
δεῦρο manner 0.000326553
ἐπιμαίομαι this 5.55615e-05
ἀντίθυρος door 0.685254
ἀντίθυρος against 0.105024
ἔρχομαι wretched 5.04568e-06
ἔδω quickly 4.78609e-07
γε telemachus 1.24779e-07
ὁράω after 1.42426e-05
ὅδε shouldest 9.88276e-08
τηλέμαχος though 3.78212e-05
τηλέμαχος telemachus 7.32254e-05
ὅς bear 2.81631e-08
δή hollow 2.50873e-08
γάρ nurse 1.5498e-07
γάρ master 3.84243e-07
γάρ noble 2.14909e-08
ἐθέλω gladly 1.98986e-05
ἔπειτα goods 0.00204995
ἐν death 5.42545e-09
προσαυδάω if 7.33923e-06
προσαυδάω speak 2.8997e-05
γε yourselves 0.000127799
ἕπομαι home 1.73525e-07
ναυσικλυτός phoenicians 0.00213142
δίχα between 0.232408
δίχα cities 3.89131e-06
νοῦσος fall 0.00350304
ἤ sacked 0.000600137
ἤ broad-wayed 1.64432e-06
ἤ was 5.86443e-06
ἤ truly 0.00024297
τυτθός child 6.47096e-06
ἀγρόνδε fields 0.58072
δαίφρων death 0.00267396
εἴθε eumaeus 8.67254e-05
καί carving 0.000223386
ἅμα send 4.43631e-07
θοός sharp 1.48327e-07
ἔπειτα aye 7.36233e-08
ἐν bitter 0.000219457
ἀτάρ departed 1.84181e-08
ἀτάρ hands 4.21088e-08
λίαν fostered 2.47905e-06
ὦ well 2.44472e-06
προτέρω through 0.000127226
ἠέ cauldron 0.00831257
οἶδα toward 6.03841e-06
περί eumaeus 6.51095e-07
ἀλλά away 1.41172e-06
ἀλλά lay 4.97954e-08
κοιμάω bed 9.11978e-06
ὄρομαι arise 0.00533935
ἐπί swineherd 2.91985e-08
νῦν young 1.28151e-07
ναός ships 6.16667e-06
ἔχω devised 1.43133e-06
δή stars 5.40448e-05
τρίχα third 0.0526425
θυοτε plight 1.13668e-07
θυοτε albeit 2.81306e-08
χρῆμα treasure 0.000100276
αὐτός regarding 0.000776834
ἀναβαίνω place 0.00484526
περιμηχανάομαι about 0.00026642
περιμηχανάομαι bring 0.00533733
περιμηχανάομαι sought 0.639805
ἕζομαι convey 0.00142915
ἕζομαι having 0.00131161
ἕζομαι bound 3.58327e-06
ἵζω took 1.08489e-06
ἐκεῖνος may 6.10042e-07
ἐκεῖνος will 6.7328e-06
ἔισος spirit 1.08179e-05
μέν name 1.85281e-06
δίδωμι booty 0.000751047
ἀντίος odysseus 9.53696e-07
οἶδα towards 0.00348685
εἰσαφικνέομαι swineherd 0.0196662
εἰσαφικνέομαι go 0.241226
τοιοῦτον such 0.0328296
ἥκω come 0.00591043
βροτός far 0.00014048
αὔτως forth 0.00823262
αὔτως were 0.0877297
αὔτως supper 2.45692e-07
τοι isle 8.10629e-08
τηλόθεν far 1.75869e-05
ἤ clear-seen 1.29507e-05
εἶδον go 1.07459e-07
νοήμων wholly 0.000170645
ἄρα where 2.40048e-06
ἤ cruel 0.00130114
πρίν nor 0.000332761
πόλις lofty 2.22941e-06
ἀνήρ returning 5.82341e-07
ῥαίω hereafter 0.120693
πόποι wide 2.6062e-06
πόποι earth 2.13886e-06
πόποι shaker 2.21898e-05
οὐδέ have 0.000563626
οὐδέ than 1.67313e-06
οὐδέ more 0.000750996
οὐδέ raiment 6.28368e-07
ἔπειτα ship 3.19296e-07
ἄν point 1.12388e-06
πολύς would 1.2715e-05
ἐπί assembly 4.07385e-08
νεφέλη black 5.53749e-06
ἀποθνήσκω already 0.0035205
ἀπέχω hands 9.91902e-06
μῦθος them 4.59903e-05
οἴη either 0.000227993
οἴη slay 0.000137889
ἀναβαίνω into 4.93131e-05
φάσκω said 0.000297566
τίθημι thereafter 1.8154e-07
γάρ right 5.08893e-09
ἀποστείχω departed 0.0037423
εἰ thee 9.07855e-05
περιμήκης long 0.0667206
περιμήκης necks 0.0020929
ἀφικνέομαι shalt 2.32664e-06
προσλέγω hand 0.0263332
ἠδέ declare 3.94534e-08
ἀπό oceanus 3.76628e-08
πρόσθεν old 7.04362e-05
πρόσθεν days 0.00372386
πρόσθεν died 0.000253735
τελαμών whereon 0.113593
ἄνω2 hill 0.123258
χέω apple 0.00351939
κατέχω over 1.59283e-05
θυοτε nay 4.69471e-08
οἰκτρός daughter 0.000885538
οἰκτρός but 0.00262917
οὗτος begrudge 9.4168e-07
μάλα hall 1.36027e-07
ὅσος should 9.11491e-07
σκοπός thought 0.000627368
ἀπό wide 2.09327e-07
βοῦς broad 0.00167645
ἑπτάπυλος walls 3.15281e-05
Θήβη seven-gated 0.000397212
Θήβη established 0.0542206
δίκη appointed 0.00566127
χαλεπός heavy 0.000187322
δαῖς feasts 0.000261355
ἄρα aye 0.00448381
ἕδνον wooers 4.29678e-05
ἀναχάζω thrust 0.067336
δοῦπος moved 2.9606e-05
ἀργύφεος white 0.264113
βαθυδίνης but 0.00132148
βαθυδίνης deep 2.96605e-05
βαθυδίνης willows 0.0217199
περάω stream 0.00182774
διά stream 0.000118144
ἕπομαι you 9.87984e-07
ἕτερος up 8.25798e-05
ἕτερος drew 0.000143453
φάσκω golden 0.00353399
εὐνάω seized 0.0086622
δῆνος wiles 0.00275134
δέρκομαι my 0.0299832
δέρκομαι midst 0.0582124
ἐκπεράω through 1.73668e-05
ἀντικρύ right 1.19623e-05
κόπτω cables 0.0142243
ἄφαρ once 0.000242632
μέν fair-flowing 0.000147163
τίμιος honored 0.0350757
μέλλω bring 2.2011e-05
μυρίος boundless 2.24104e-05
ἔνθα gave 1.02318e-07
ἐκ come 4.47881e-06
Ἰθάκη laertes 7.86144e-07
Ἰθάκη sacker 0.00306426
κατά hurled 1.62354e-07
ἔπειτα heart 2.83559e-07
οτηερ distress 1.47412e-06
ἰάχω rang 0.000644855
μέγας cry 2.31053e-06
ἐίσκω looked 0.002111
οὔτε thy 9.1065e-06
βαρύς deep 2.84295e-06
ἄμαξα stout 5.86038e-06
ἀτάρ goat-skin 4.77418e-05
ἐρυθρός left 8.36736e-05
ἐκφθίνω left 0.000622828
ἐρυθρός still 0.000564925
ἐκφθίνω still 0.00420505
ἐκφθίνω some 2.6295e-05
ἐκφθίνω NULL 0.00139703
δολίχαυλος arrayed 0.00488618
ποίμνη flocks 0.0038753
φυτεύω nothing 2.36487e-06
ἀνθινός food 0.0016883
ἧμαι steered 2.24426e-07
ἧμαι seats 0.00825423
ἧμαι hoisted 1.02019e-06
μῆλον2 slew 6.49284e-06
διερός gave 4.96871e-05
ὑστάτιος shall 0.000148433
ἔνδοθι ilios 1.16484e-06
φιλόξενος strangers 0.612757
τρίχα ways 0.347325
λίαν truly 1.01855e-05
οἰνοποτήρ wine 0.999668
κάλλιμος raiment 0.0469831
κάλλιμος goodly 0.00526978
θυοτε goodly 1.5108e-08
δείκνυμι and 0.509309
γε palace 1.34661e-07
ἕ twelve 3.5328e-08
ἀριπρεπής glorious 6.43319e-06
ἐπεί alone 1.11961e-05
ἐπεί dance 0.00036462
Θρῄκηνδε thrace 0.999038
καθεύδω together 0.00039331
καθεύδω sleep 0.000230349
ἀρτίπους strong 6.63875e-05
δεῦρο love 9.04182e-07
ἐρισθενής mighty 0.0321304
ὕστερος far 1.76549e-06
τοσοῦτος after 0.00024583
τοσοῦτος methinks 0.000604938
θαμίζω captain 1.2414e-05
δαίφρων herald 8.40054e-05
οὗτος that 5.41149e-05
γαμβρός wife 2.10007e-05
ἐμός could 6.60936e-05
διηνεκής o 0.000537011
πέλω belly 0.00218705
στυγερός more 0.00405613
πέλω nothing 7.47725e-05
κοῖτος rest 0.000660718
κοῖτος go 1.55966e-05
κοῖτος minded 0.0412583
κοῖτος wine 0.101827
ἔνθα sit 4.89167e-07
ὄλλυμι destruction 3.1218e-06
μέν destruction 2.9051e-06
ἡγεμονεύω turn 1.13183e-05
αὐτός chosen 1.35933e-07
ἀκούω prayer 0.00374934
ἀγλαός goodly 9.58372e-06
τότε saying 1.09281e-07
στίλβω gleaming 7.26672e-06
καταχέω goddess 0.000405425
μετέρχομαι fair-tressed 5.18849e-05
κρείσσων greater 0.068354
αἰνός greatly 0.0087389
παρθένος shone 0.0440759
γε amid 6.8782e-07
σεύω wagon 2.81231e-06
μαστίζω mules 0.00045145
αἴθρη hovers 0.00010894
Ὄλυμπόνδε olympus 0.999806
κλυτός noble 0.000110402
παρέχω such 1.84477e-05
παρέχω other 0.000674632
παρέχω NULL 0.000203969
ἱκάνω after 3.42807e-05
πέτρα stones 7.59425e-05
ὀδύσσομαι wrath 3.73695e-05
ὀδύσσομαι filled 0.00256553
ἀποδύνω strip 0.2506
εἷμα strip 0.00227535
καθίζω escape 2.59899e-06
γε died 0.000268307
αἰθρηγενής heaven 0.0823448
αἰθρηγενής bright 0.00728982
αἰθρηγενής born 0.0314942
ἀμφιάζω clothed 0.000312174
πέλω blessed 7.35876e-05
ὅρκος most 0.00042085
ἐπικλύω heard 0.000454335
δή heard 9.88167e-08
πη give 0.00291857
νημερτής my 5.7877e-06
οὐ unknown 3.5968e-06
καλός went 9.72654e-06
μέγας fragrance 0.000119257
μεσσηγύς between 0.0833715
μεσσηγύς midway 0.91076
διηνεκής whether 0.194713
ἵνα men 2.36337e-06
ἐκ ship 4.27438e-08
ἀπόπροθι far 7.52128e-05
ἀφορμάω hear 1.59825e-05
ἐάω abide 6.23612e-08
πρίν i 1.78151e-05
ὅς long 9.25754e-08
ἤ antinous 6.05065e-06
σύ gifts 2.05885e-06
ὦ shouldst 5.61698e-08
τάχα about 2.60692e-06
οὕνεκα within 0.00035433
βία courage 0.000208479
πῶυ shepherd 3.13525e-05
παρά hast 0.00173132
λίγα women 4.74613e-05
ἴκελος likeness 0.0347327
ὑποτίθημι some 0.000497384
τίθημι alcandre 0.000352135
μιμνήσκω or 1.29368e-05
ἠχήεις flashing 0.29797
ἅπτω take 6.59023e-06
ἤ shall 1.97215e-05
ἵστημι spoke 4.14925e-06
φαίνω more 0.00011074
γυνή car 5.48268e-08
Ἄρητος water 0.000139081
αὖτε slept 4.06927e-07
σός shall 3.14546e-06
ἐπεί space 2.07775e-05
τοι funeral 0.0022012
ἀλύσκω escaped 2.25027e-05
μέν ships 1.14432e-07
ἔνθα menelaus 1.01649e-07
ὅδε guess 1.06408e-08
ὅδε thine 1.01972e-07
ἀληθής tell 0.123108
αὖτε said 8.85149e-07
αὖτε spoke 0.000120539
ἤ deeds 1.40457e-06
νόσφι though 0.00189193
νόσφι off 0.000563568
νόσφι you 0.000381235
οτηερ from 1.87413e-07
ὅσος heard 2.56753e-07
στόρνυμι smooth 0.00498971
πάσχω abide 1.10548e-06
ἰθύς straightway 3.87509e-05
ὅπου where 0.00105611
ὑποδέχομαι heart 0.000129639
τί hast 0.172679
τετίημαι within 2.78918e-06
τοῖος friend 1.27981e-07
μῆτις failed 0.00222566
πάγχυ failed 1.37634e-05
μῆτις wisdom 0.000505502
πάγχυ wisdom 0.0327539
χρῆμα possessions 0.00029316
μάλα words 6.3383e-07
ἀπονέομαι go 8.19703e-06
νέμω dwell 0.0367239
οὗτος keep 1.14736e-07
οὗτος livelihood 0.00145123
μιν whomsoever 7.47528e-06
εἶμι pass 8.18922e-06
τί anywise 1.2383e-06
τί who 0.000416063
αὖ evil 0.0048661
αὖ there 2.1358e-06
εἴθε some 2.2554e-05
νόος heart 1.17875e-05
οτηερ dulichium 0.000449788
εἰς friends 1.3236e-09
ἐγώ truth 2.26215e-08
οἰνόπεδος plot 0.563834
πάσχω attended 0.00428409
μεθέπω hither 0.00207052
θεῖος2 sing 0.413243
ὄλλυμι gone 0.00422245
πετάννυμι linen 0.00124132
πετάννυμι spreading 0.00122413
ἄγω spreading 0.000412974
ἐγγύθι near 4.57258e-06
φρονέω sitting 7.93259e-05
θέω set 0.0301092
περιφράζομαι may 0.00351709
περιφράζομαι are 7.73269e-05
ὅστις does 0.000279733
ἐπικλώθω ordained 0.0269902
ἔπειτα together 5.35427e-07
γε bones 3.2599e-07
πέραν beyond 0.0187406
ἤ riding 0.000575578
τίλλω themselves 0.000343517
ζῶ yet 1.65412e-05
ζῶ while 9.44128e-06
ἀμφιέπω ready 2.5439e-05
πολυδάκρυτος tears 9.60987e-05
ἐγώ escapeth 0.000124583
λύω mine 3.94308e-05
κατακείω lie 5.72061e-05
σύν wherewith 2.92335e-08
αὔτως first 3.61743e-06
εὖτε glory 1.29675e-05
ὀρθός confounded 0.00333747
μετά hellespont 9.54634e-05
προφαίνω came 0.00523123
κελεύω drave 2.01693e-05
ἀείρω mules 5.16914e-05
ἀείρω drawn 1.84949e-06
ἀείρω waggon 0.0135898
ἀείρω light-running 6.48624e-05
ἱππιοχάρμης charioteer 8.64343e-05
τε charioteer 7.87209e-08
τάρβος fear 0.20626
βέομαι life 1.90554e-05
τίθημι like 1.95727e-06
ὁμός gods 0.0148175
ἔνθα pleasing 1.90139e-06
ἔνθα yearning 7.18935e-06
δή teucer 2.10608e-05
αἱρέω bronze 0.000398569
κλῆρος bronze 0.00361669
ἀγελαῖος whirling 0.143561
ἤτοι him 7.56107e-05
μέλεος prize 0.000917355
λοισθήιος last 0.00148456
λοισθήιος appointed 0.00156187
ἠεροειδής murky 0.0691942
πολύς deft 9.38447e-06
πολύς skilled 4.61525e-06
πολυμήχανος many 0.00339722
βία craftsman 0.00345339
ἀλεγεινός sight 3.59413e-06
κατά ordained 7.41828e-05
δείκνυμι NULL 0.000349005
ὀρθόω set 1.45365e-05
ἄρα methinks 2.92831e-07
παρακαταβάλλω cast 0.00194769
ἐκφέρω when 0.000377031
ἐπικλύω hearkened 0.00531372
ἐνηής friend 4.25096e-06
ἀναείρω up 0.000232908
ἀναείρω took 0.0750505
ἐπιπλήσσω danaans 0.000403243
ἀναιρέω even 0.000126813
ἀναιρέω take 0.0188246
ἀναιρέω hereafter 0.0644149
οἰκτείρω swift-footed 0.000182378
λόφος flowed 0.00061961
λεπτός light 2.01281e-05
ἄμφω lead 8.80285e-06
ἄμφω which 0.000818688
ἀνασταδόν stand 0.417226
εἶδον stand 1.89484e-07
μιν hurled 9.00314e-07
μιν must 2.39798e-07
πίπτω cars 1.00709e-07
πίπτω well-plaited 0.00169016
ὀρέγω speed 9.26208e-07
ὀρέγω given 1.17699e-06
ἐμβαίνω now 8.65814e-05
ὁμοκλέω yoke 2.56585e-06
αὖτε albeit 7.89353e-07
σῆμα Now 5.2897e-05
μητίομαι counsel 8.35365e-06
κλέος lost 0.000656608
κλέος they 0.000134091
ἀπόλλυμι glorious 1.96834e-05
ἱζάνω gathering 0.0004667
ἱζάνω made 0.000739966
ἱζάνω were 8.49152e-05
δεύτερος gone 0.0369606
δεύτερος am 0.000479285
τύμβος howbeit 0.0013652
ἀριστεύς achaea 0.000190009
ἄλαλκε kept 0.147673
Σπερχειός whereof 0.331004
ὑπό his 4.56221e-05
ὑπό to 0.00020183
φίλος yet 9.90416e-06
ἀμφιβάλλω about 0.000227173
ἀμφιβάλλω clasp 0.013131
ἐπιείκελος doomed 0.0523029
ἐπιείκελος birth 0.000763303
ἐπιείκελος appointed 0.00919383
ἐπιείκελος opened 7.79642e-05
ἀπό backward 5.90649e-07
ὄνειαρ women 5.0389e-05
ἄλγος others 1.69043e-05
τεύχω peleus 1.79421e-05
τεύχω as 0.0176975
κονίσαλος either 0.001018
ἐκεῖθι there 1.01394e-05
ἐμπίμπρημι burned 0.000365257
ὁ unseemly 5.90309e-08
Δηίφοβος shield 8.29282e-05
Δηίφοβος white 5.33913e-05
ἔκπαγλος unto 4.25476e-05
γάρ achilles 1.75613e-07
μητιάω take 1.61221e-05
χάλαζα cold 0.00106223
φοβέω fear 4.07994e-05
αὐγή gleam 0.0476087
ἤ meet 1.00613e-06
ποτέ haply 3.88236e-07
λαθικηδής pain 0.274503
λαθικηδής gave 0.0564474
Ἄρης beseemeth 0.000480196
ἔπειτα ransom 0.000101101
παρά toward 1.18454e-07
δόλος apollo 3.46013e-05
ἡσύχιος sent 9.67746e-05
ἀλλά agenor 0.000311597
ὧδε war 2.70707e-06
πείρω she 0.000861263
ὑποκλονέομαι before 0.00877022
ὑποκλονέομαι be 0.00288959
ὑποκλονέομαι leave 0.000162151
ἀνίημι aroused 0.00581235
συναίνυμαι hither 0.000144109
ἤτοι good 5.44642e-07
πότνια queen 3.3261e-07
ἤ wherefore 1.14431e-08
ἐπιφράζω learned 0.163046
πέλεθρον stretched 0.0115238
ὅτε rememberest 1.87693e-06
ἴσος minded 2.93543e-07
ὑψόσε crest 0.0357671
ὅδε shall 0.00579248
ὅδε he 0.000269572
ἔοικα clasped 1.0292e-07
ὁρμάω swift-footed 1.35483e-05
ἀπορούω rushed 0.00794256
αὐτός within 2.72544e-07
ὄλλυμι slay 3.77279e-07
πρόσφημι semblance 6.24832e-06
κατά asteropaeus 9.28752e-06
ἐνστηρίζω spear-point 2.60992e-05
ἐφάλλομαι asteropaeus 0.0241406
ἐφάλλομαι leapt 0.176856
πού hated 2.98748e-05
πού am 0.000180388
θυμός amid 0.000109586
τύπτω fight 2.72111e-06
ἐξαίνυμαι took 9.09639e-06
αὖ make 2.21664e-06
ἐπορούω swift-footed 0.00197545
ἔρχομαι strode 0.000962437
αὐτός spear-point 2.1792e-07
Τμῶλος cities 0.0269364
ἐφέπω many 5.4203e-05
ὑπέκ forth 2.1838e-05
ἀνέχω seized 0.000328582
ἀνέχω being 0.0113273
νοέω knew 0.00310512
σμερδαλέος others 8.08766e-05
σμερδαλέος against 3.34035e-06
ἀποτρέπω seeing 0.000109951
θείνω slay 2.84717e-06
θείνω fury 4.77647e-06
βάλλω gathereth 0.000285247
ἐναντίβιος shall 0.00216198
ἀνδρόμεος pierced 0.015531
τις Nay 0.000277457
αὖτε bright 3.01585e-06
νεφεληγερέτα within 0.000160313
νεφεληγερέτα sate 0.000618294
ἔμπας i 2.57536e-05
ἔμπας howbeit 3.96994e-07
ἶφι fight 5.80835e-06
ὅμιλος host 0.00143468
ἠλέκτωρ bright 5.95114e-05
Ἄλκιμος alcinous 0.0036298
ἄρα against 2.85519e-07
ἄρα wrath 3.98354e-07
ἄρα fierce 0.000952563
οἴχομαι achaeans 0.00908305
οἴχομαι sire 0.000373899
ἐκκαταπάλλομαι heaven 0.000614264
ἐκκαταπάλλομαι leapt 0.000313063
ἐκκαταπάλλομαι wide 0.021026
ἦ no 1.88183e-05
μέγαρον home 0.00371749
μέγαρον what 2.44799e-07
ἀγαυός proud 1.95782e-05
ποτέ wrath 3.16532e-06
ἀπό throat 0.000746621
μέλω set 1.13065e-05
ἀνά toward 0.00419929
ἀνά feet 4.01602e-07
τέως here 0.000374614
ἀνίστημι gone 1.37993e-06
ἀνίστημι never 2.36784e-07
ἐπιμένω abide 8.12127e-06
περικτίονες about 0.00531965
περικτίονες dwell 0.447584
ἡμέτερος escape 0.000175134
μετά they 1.52379e-05
αὖτε shed 3.2184e-05
λεύσσω glory 1.33445e-06
ἐκφαίνω flame 0.000448456
ἰότης will 7.00244e-06
ἅμα beside 1.84686e-06
ἔπειμι2 each 9.3035e-06
παρά among 0.000979078
ἧμαι set 4.24927e-06
ἀποφθίνω slain 0.0818196
γίγνομαι among 2.10315e-06
γίγνομαι bear 8.54124e-05
κατά thetis 4.45952e-07
ὑπό swiftly 9.11542e-07
ἡμέτερος NULL 1.62696e-05
προβλώσκω come 5.04796e-05
πρόσω on 0.0144018
πρόσω her 0.0327772
καθύπερθε thereover 0.0500029
τίθημι linen 4.42462e-07
τίθημι covered 1.35671e-06
ἀνιάζω together 3.05503e-05
ἀνιάζω gather 0.00512208
ἀνιάζω distressed 0.0059319
ὑπηοῖος coming 1.08169e-05
νῦν shall 2.07496e-07
σφός amid 4.53621e-05
περιπέλομαι foemen 5.57239e-06
αὔτως thou 3.76155e-06
μέλλω aid 3.29898e-06
οὐ abide 4.97774e-08
ἔνειμι sorrows 2.52913e-06
κυδάλιμος mightily 5.86357e-05
κυδάλιμος noble 1.24524e-05
σφεῖς conflict 0.000290844
ἰάχω trojans 2.19768e-05
ἐπιπροίημι forth 0.000444452
ἀπωθέω drave 0.0535234
ὑπό hands 3.98427e-05
βαίνω within 4.48658e-07
ἀπόπροθε horses 0.0002183
ἀπόπροθε hold 0.000345831
ἀπόπροθε thou 0.0174294
ἀπόπροθε afar 0.00344573
μήστωρ while 1.04139e-05
ὡς sufficeth 9.19925e-07
ἔρις raged 0.0154031
ἔρις through 8.56624e-07
ἔρις day 1.12873e-06
καταθνήσκω slain 1.07941e-05
μάλα ranged 0.000246975
παρά beneath 2.8924e-08
αὐτοσχέδιος hand 0.020041
μιν foemen 1.32725e-07
χαλκήρης bronze 7.56927e-05
ὀξύς2 clearly 0.0364971
πέπων menelaus 0.00379534
ἐνθάδε thereof 0.00246017
ἐνθάδε need 3.93167e-06
ἐποίχομαι heartened 5.83522e-07
ἔπος going 2.93199e-05
ὀτρύνω going 1.7342e-07
ἀριστεύς before 1.80358e-06
ὑπομένω stood 0.000241897
ἤ2 hast 0.456461
πυνθάνομαι twain 4.96101e-06
πυνθάνομαι we 2.6256e-05
πυνθάνομαι might 0.0160022
πυνθάνομαι then 0.000258853
πυνθάνομαι war-cry 8.78024e-07
πυνθάνομαι find 5.22223e-06
ἐπόρνυμι aroused 0.0706666
ῥήγνυμι howbeit 7.76567e-06
φέρω queenly 0.00149863
ὅς home 3.80192e-09
ἁρπάζω forth 0.000884942
μέλινος drawn 1.15485e-05
ἁρπάζω drawn 0.0954907
τότε already 0.00110143
τότε twenty 5.7448e-07
ἀνήρ dardanian 0.000135336
τερμιόεις tasselled 0.00154676
μετακιάθω greatly 0.000359448
μετακιάθω lycians 0.00071817
ἐκεῖνος even 0.00251521
τοι for 2.82566e-06
αὖ armour 2.25643e-05
τότε when 1.58374e-05
Βούδειον well-peopled 0.00146664
κέλομαι call 0.00241248
ἀμφιμάχομαι fight 0.000391523
κτείνω shieldmen 0.003462
οὐ hearken 0.000442749
ἐπιχράω fell 0.00251754
ὀρίνω shining 2.65627e-05
ἔχω rouse 7.91794e-07
ἀποτίθημι away 0.00262047
ἔχω each 3.70096e-07
δηιόω hills 9.55841e-05
ὑπάγω beneath 0.00614742
ἕ breathing 0.000154115
ἔτι rest 0.000726742
κλίνω scant 0.0251678
γάρ great 3.29154e-07
ἐκκλύω thyself 0.000620707
πήληξ wondrously 5.04794e-06
ἕρκος defence 2.81326e-05
πλείων vouchsafed 0.00156247
βάλλω hearts 8.59443e-06
ἀποσταδόν with 0.000204121
ἀποσταδόν we 0.000667345
ἕ this 6.06796e-08
χατέω albeit 0.000384309
ἐρείπω full 1.00469e-05
ἐρείπω trench 2.42218e-05
ταχύπωλος aegis 0.000744677
ταχύπωλος shook 9.75979e-05
ταχύπωλος horses 0.0484619
ταχύπωλος swift 0.088255
εἷος time 0.00169
μεταστρέφω wilt 3.02043e-06
στεφανόω fragrant 0.0100567
θυόεις fragrant 0.0265804
ὁμῶς whether 0.00136192
ὁμῶς like 3.76899e-06
πέλω for 1.98321e-05
ἐάν anywise 2.93416e-06
ἐάν whether 1.44155e-06
ἀνάγω brought 2.79024e-05
γῆ strength 2.98393e-05
νεφέλη throughout 1.17864e-06
ὅπη how 6.60822e-05
ὅπη see 4.49351e-05
τῷ this 0.000834969
ποτέ manner 9.59176e-06
θήν us 7.27665e-05
ἀπειλή rage 2.19652e-05
ἐνέπω good 2.34172e-06
πέρ earth 1.95488e-06
πέρ reach 3.45303e-05
ἀνίημι bear 1.51364e-05
ἀνίημι poseidon 1.28884e-06
Ἀχαιός word 7.22527e-08
φράζω go 1.20334e-06
ἔραμαι love 0.278238
ἄρα thebes 1.08134e-05
ὁρμάω but 4.18469e-05
ἵημι wine 1.91872e-06
νιφόεις horsemen 0.0938751
εἰσοράω seated 7.81715e-06
αὐτός behold 6.25081e-08
ἐφοράω behold 0.0437801
οὕνεκα wroth 1.78848e-06
ἄν right 5.75308e-08
ἐνέπω mine 2.383e-05
πρίν even 4.42426e-06
σφεῖς grieved 3.1217e-07
μετά into 2.11676e-05
ἀεικής achaeans 2.28683e-06
ὑψιπέτης flight 0.000526091
ὑβριστής wantonness 0.0405734
λάξ foot 9.82602e-05
πόλεμος conflict 0.00604518
μέσος deïphobus 0.000170788
ἐπαμύνω alcathous 0.000475964
γόνος am 8.99086e-05
καλύπτω or 0.000420399
καλύπτω night 9.07428e-06
μάλιστα beyond 0.00284978
ὑπό straightway 6.28654e-06
στρέφω aimed 6.71107e-07
στρέφω turn 6.6177e-05
προβλώσκω forth 8.37761e-05
ἔχω head 2.54409e-08
ἔχω would 2.38784e-07
ὅς winds 8.86879e-08
ἐπεί methinks 2.00906e-07
γε hearken 1.33719e-07
ἄρα yet 2.86638e-05
ἐν resteth 9.07943e-09
παρά besides 3.99207e-07
εὔτυκτος well-built 0.00796724
κεῖνος more 3.70679e-06
κεῖνος any 0.0174489
κεῖνος never 1.38135e-06
μετέρχομαι yet 0.000479111
μετέρχομαι them 0.000113735
μετέρχομαι light 0.000535597
δή fighting 1.43733e-07
ποιέω yet 3.36443e-07
ἐθέλω defend 0.00161097
δέρκομαι beheld 0.000317449
σεύω swift 1.37958e-06
κόπτω staff 0.000629188
ἀμφότερος shaker 0.00013142
δή wondrous 7.93381e-07
δή nay 2.53304e-07
ἄμοτον shouts 0.000225717
ἀμφί groaned 1.52672e-05
ποιέω children 2.24833e-07
ποιέω rout 1.30692e-07
ἵνα secretly 0.000730073
ᾗ where 0.0036768
μέγας topmost 0.000313354
φίλος you 2.21815e-06
τῇδε here 0.00265181
ἀρή would 3.54326e-05
ἤ2 it 0.0252222
ἤ2 wherefore 0.000591523
πωτάομαι flew 0.938484
ὅτι2 therein 8.35123e-07
χέω sheddeth 0.00371842
ἀμύνω fight 7.92201e-05
εἴτε or 9.03831e-05
εἴτε sun 1.04067e-05
εἰ seeing 8.76787e-06
ἐπασσύτερος other 0.0143151
ἐπασσύτερος after 0.00366668
ἐπασσύτερος these 0.0079541
Ἀντιφάτης fight 0.00447527
Ἀντιφάτης close 0.00223265
Ἀντιφάτης sheath 0.000671495
νίσσομαι plain 1.74649e-05
νίσσομαι wont 0.000835113
τρυφάλεια bulls-hide 9.26158e-05
εἰσάγω bringing 0.112629
ἀέκητι howbeit 5.07105e-06
χρῄζω wounded 0.00130915
τείρω take 3.31603e-05
ἐίσκω aloof 0.000228993
ἐίσκω hold 0.00107069
ἐίσκω so 0.000108139
εἰς seized 4.62316e-09
ἠδέ menoetius 6.58365e-09
βαίνω drave 0.000250734
ἄλλυδις here 0.051013
ἄλλυδις fled 0.000113736
δι~ος bright 0.0486833
ἀποκρύπτω myself 0.00368839
ἔννυχος nowise 0.135154
ἔννυχος battle 0.822316
ἔννυχος us 0.00167751
ἔννυχος array 0.000699523
ἔννυχος message 2.29279e-05
ἔννυχος night 2.75817e-05
τέσσαρες our 3.69627e-06
ὁδεύω furiously 0.00561568
ὁτέ would 0.000108431
νύσσω gathered 0.0290547
λήιον grain 0.0407502
βαίνω drive 6.21799e-05
βαίνω thee 0.000138237
ἐπιβαίνω chariot 0.000244106
μονόω alone 1.44795e-05
γε gave 3.82577e-06
παραμένω abide 0.188472
πού so 0.000126557
πλάζω turned 8.00912e-05
φίλος until 2.74414e-07
Ἀΐδης fate 1.47612e-06
τρέπω lead 2.19623e-06
πεζός himself 1.14354e-05
εἰς agamemnon 3.1113e-08
ὅτι2 them 0.000457378
ἐξεναρίζω antiphus 0.00103318
ὅτε now 7.30726e-05
οἷος every 0.000141471
αὐτόφι into 0.000988475
ἤ2 gods 1.63164e-05
ἐπί leapt 7.93979e-09
μή thither 3.4638e-06
ὅπως mind 4.31971e-06
τίθημι gathering 4.17638e-05
ἐπί gathering 4.81419e-08
τίθημι see 2.43599e-07
τίθημι plain 2.61309e-05
τίθημι mark 5.01244e-06
ἐλαύνω shore 2.38885e-05
θέω greatest 9.95228e-06
κιχάνω shall 2.3915e-05
κιχάνω i 0.000106192
μή those 0.00138713
μέλλω holding 1.39105e-06
κικλήσκω together 0.000296898
ὀφθαλμός night 1.71441e-05
πυκάζω thereon 0.0085668
μοῖρα us 1.66106e-05
μοῖρα alone 0.000487632
δείδω since 3.14441e-07
βραδύς slender 0.118419
ποδηνεκής grasped 5.88766e-05
ποδηνεκής feet 0.190182
ποδηνεκής reached 0.0225454
ποδηνεκής skin 0.471428
ἔρχομαι from 0.00159422
μάλα nowise 1.29009e-06
ἀπεῖπον nay 0.17394
μῦθος methinks 2.12662e-06
μείρομαι honour 0.000113917
οὗτος see 4.54877e-08
σύ friend 2.81485e-07
τελέω gracious 1.46306e-05
οὐκέτι not 6.6428e-05
ὅσος come 1.00132e-06
Φοῖβος child 2.21645e-06
Φοῖβος snatched 0.0242526
Φοῖβος worketh 6.43265e-05
Φοῖβος old 1.27228e-06
Φοῖβος fair-ankled 5.86324e-08
ἤτοι marpessa 3.325e-08
πάλαι days 0.0561784
πάλαι old 0.00497025
πάλαι mind 0.000350998
πάλαι bear 0.000548951
ἀρτίπος wherefore 9.07025e-05
μέν hearts 8.49295e-08
στρεπτός very 4.3381e-06
ὀπάζω people 0.00345895
ἐξικνέομαι came 0.00981525
ὡς wherefore 7.06928e-05
δίω fear 5.18834e-05
κατακοιμάω down 2.40506e-05
κατακοιμάω lay 0.00359981
κατακοιμάω here 0.0126995
ἄκοιτις fitting 0.00382105
θήν methinks 4.41463e-05
ἦ then 2.3667e-06
παριαύω take 3.63104e-05
πεζός land 0.021318
υνκνοων bested 0.00110441
ὁ patroclus 3.35683e-09
ἀτάρ down 1.46203e-05
πέρ come—sore 2.2447e-06
ὡς persuade 2.48358e-06
φέρω great 4.24924e-07
Δηίοπιτης deïpyrus 0.00147066
ἀπόλεμος war 1.30824e-05
τότε old 2.31293e-07
φόβος handmaid 2.62952e-07
μῦθος sound 4.72323e-05
πύργος builded 0.00111479
διά by 9.39327e-07
ὄχος fodder 0.00445971
ἔμπας so 0.00149045
πάντως seeing 5.95451e-05
πάντως what 5.65459e-06
χολάω wrath 0.568873
φίλος call 0.000574775
ἐπαλέξω send 9.38528e-05
ὀτρύνω eager 2.69825e-05
ἀπό where 2.42028e-07
ἄλλος he 1.36062e-06
ἄλλος see 0.00143503
Νεστόρεος Nestor 0.059035
ὑπερθρῴσκω leap 0.00541778
ἐναντίβιος NULL 0.000276002
οὗτος horses 1.42971e-07
μένω aiantes 2.69528e-05
οτηερ so 4.94933e-07
καί brazen-coated 5.81202e-06
ὑπό gave 3.76888e-08
χωρίς sons 0.000384768
χωρίς unto 0.000388047
τοι brought 6.66952e-07
πόποι me 0.000378478
ἕτερος others 7.92614e-05
ἀποδίδωμι will 1.5397e-05
οἶδα wield 0.00250993
σκυτότομος far 0.0596433
σκυτότομος toil 0.0122304
ἐπιγράφω marked 4.06694e-05
ἀνίστημι stood 2.27192e-06
πολύς then 6.91324e-07
ἐρῶ asked 0.000188975
γίγνομαι turn 3.46447e-05
γάρ host 2.22101e-08
ἤ mayest 7.8431e-08
ἀειγενέτης bowl 0.525572
ἀειγενέτης ever 0.00245807
βαίνω shining 0.000241313
῎ἴλιος ilios 0.000196508
ὅδε ilios 1.05608e-07
μάχομαι above 3.43171e-07
βάλλω slew 2.05483e-06
μένος doom 2.68359e-07
ναιετάω well-built 0.0454395
πέλω yet 1.23405e-06
πέλω are 6.91365e-06
πέλω may 6.91141e-07
πάρος ever 1.24042e-06
εἰς me 2.61881e-08
εἰς storm-wind 5.85097e-08
αὖθι straightway 1.00322e-06
πη any 6.3791e-06
τείρω evil 1.66242e-05
μιν hither 4.48014e-08
μηδέ not 0.0996499
σῆμα received 0.0163555
ὅς tale 5.32059e-07
βροτός men 0.00693186
βουλευτής counsel 0.0289618
βουλευτής give 0.0028141
εἶπον elders 3.40707e-05
τάχα menelaus 4.10074e-06
ἔπειτα clasped 6.02637e-07
ἐκ curved 0.000165033
ἐν became 2.00353e-05
ὑφηνίοχος driver 0.457408
῎ἄρης ares 0.135039
ἐπερείδω mightily 0.0612328
ὑπέκ above 0.135888
χαμᾶζε earth 0.000557698
κεῖνος they 0.000275858
εἴλω horses 2.43134e-05
ἀγρέω come 0.247046
τετραφάληρος wrought 0.000734032
τετραφάληρος four 0.00428484
τετραφάληρος horns 0.000221226
φέρω haply 4.09168e-06
ἅλιος2 naught 0.00871207
λείπω depart 0.00032456
λείπω let 5.24192e-07
λείπω need 0.00504986
μή helm 1.97085e-06
διασεύομαι howbeit 3.62543e-06
διασεύομαι through 0.00974535
διασεύομαι sped 9.88149e-05
διασεύομαι sarpedon 0.0012052
μακρός sarpedon 0.000151752
Ἄιδης hades 0.0122863
αὖ sarpedon 1.77597e-07
χηρόω waste 0.00467904
πρόμος foremost 0.15174
ὄρνυμι glory 9.01038e-08
μετέρχομαι therefrom 0.0167638
φρονέω be 5.43844e-05
υνκνοων NULL 2.04386e-05
καταρρέζω achaea 2.40193e-05
καταρρέζω women 3.06818e-05
πωλέομαι enter 6.34595e-05
ἀντιτορέω pierced 0.0232043
ἐρύκω single-hooved 0.0102584
ἠμί saying 6.71163e-05
οὖν or 2.87245e-05
οὖν one 5.47427e-06
ὀκνέω mind 1.48922e-05
σθένελος sthenelus 0.00790907
ἵστημι barley 1.50462e-07
γε diomedes 2.39524e-07
ἐξερύω through 2.64573e-05
Θεανώ carefully 0.00140876
μέν howbeit 5.7361e-06
μέν after 4.51671e-08
κατάγω bring 8.42403e-06
ἕ diomedes 1.73372e-07
ἰδέ glorious 2.88685e-05
ἄχρι utterly 0.00110811
ἕτερος out 1.06535e-05
λελίημαι speed 7.82961e-06
λελίημαι all 6.58548e-05
λελίημαι fain 0.0466673
λελίημαι missiles 0.0139771
οὗτος NULL 1.50268e-05
ἑπτάπυλος gathered 0.00163701
ἑπτάπυλος seven 0.201683
διομήδης diomedes 0.431594
τε mighty 9.87367e-08
μέλαινα dark 0.000184277
ἐρύω stayed 5.12939e-07
ἅλιος2 hither 0.00014999
ἅλιος2 even 0.0100408
εὐφυής shapely 0.00277618
ἄρειος leap 0.000866133
στῆθος rock 1.27614e-05
ἤτοι us 3.49489e-06
ἤτοι let 0.000321086
ἤτοι then 9.56926e-06
βιβρώσκω devour 0.00689884
μακρός devour 3.03681e-05
ἐναντίον thee 0.000302955
ἐναντίον dear 2.99745e-06
ὅτι2 they 4.1655e-05
ὅτι2 NULL 0.00243194
ἤ olympus 4.55228e-06
ἤ back 0.00253075
ἤ bear 1.28542e-07
δούλη NULL 0.00235885
κατά howbeit 4.32195e-08
ἔχω came 2.18896e-06
θωρήσσω strode 0.000910789
ἀραρίσκω greaves 0.00779211
δύω2 his 8.57391e-06
δύω2 shoulders 5.17754e-06
σφεῖς brains 9.83328e-05
ἀπό throats 0.000536208
μετά abide 1.56582e-05
ὄρνυμι straightway 1.31161e-06
στιχάομαι NULL 0.017272
ἀνά then 0.000317783
καταδύω into 1.45446e-05
ἐθέλω no 5.01004e-05
αἰολόπωλος glancing 0.912666
ἐφορμάω against 7.14436e-06
ἐγώ methinks 2.85744e-08
νῦν methinks 3.73745e-07
συμμαχέω dear 0.00193896
ʼἀφροδίτη aphrodite 0.239588
ἔνθα clear 1.62911e-06
τις failed 1.78357e-06
πέρ captain 4.46955e-08
νέμω land 3.77442e-05
αὖ wrath 3.93097e-06
αὖ warriors 0.000115722
οἰκίον dwellings 0.000658301
ἔχω crags 2.61424e-07
μέλλω were 0.00056047
εἴδω well-skilled 0.0112063
εἰμί lost 4.53113e-09
πολύμηλος flocks 0.2351
πολύμηλος rich 0.00531535
ἐγχεσίμωρος warriors 0.000358726
Νιρεύς moreover 0.0485027
ναιετάω well-peopled 0.0205144
ἀμφινέμομαι isles 0.00482189
ἀμφινέμομαι shores 0.130433
Ἀγασθένης captain 0.0064632
ἄρα cteatus 1.60823e-07
ἡγέομαι all 9.03297e-05
ἡγέομαι over 0.000117128
σύμπας over 6.36284e-05
μέν stature 6.90608e-05
Φωκεύς leaders 2.95309e-05
δεύω pails 0.0147869
διασεύομαι throughout 2.22614e-05
πρίν NULL 0.000274934
θεσπέσιος heaven 0.000817057
ἄλλος fate 8.26774e-06
ἔοικα holding 4.58454e-05
τίθημι sparrows 0.000237396
πρωιζός before 0.00163598
μαντεύομαι true 0.0231356
μαντεύομαι calchas 0.000141403
πολύζυγος benched 0.000164742
αὐτός merry 1.19336e-05
αὐτός broke 4.18345e-07
οἶδα revilings 1.18865e-07
λείπω boast 0.00211024
σεύω beneath 0.00762538
ἄμφω ourselves 7.94239e-06
μέγας above 3.84625e-06
Πυλοιγενής Nestor 0.000438673
ἐκεῖνος NULL 4.16577e-05
ἀνίημι go 3.20219e-06
μελίφρων whenso 0.000591023
ἀναβαίνω went 0.00941378
πάρος took 0.000297484
ἕκαστος rest 0.00327082
τότε long 3.68498e-05
οἰνοχοέω right 2.40056e-06
ἔτι life 6.25725e-07
ἤδη this 5.72118e-05
ἤδη before 8.62105e-07
ἐπίηρα pleasure 0.000291831
κυάνεος assent 3.55301e-05
τις bow 1.1091e-06
δέος afraid 0.00370358
τότε NULL 5.11718e-05
κατά covered 4.07814e-09
ἐκτέμνω thighs 5.28109e-05
ἵστημι NULL 6.17269e-06
ὀφείλω remain 0.0237226
ὀφείλω lot 3.66331e-05
ἕκατος declared 0.000228956
κεύθω your 0.00209256
ἄφαρ tears 0.000569808
μοῖρα sure 3.8399e-05
ἐπιχθόνιος these 9.65358e-06
ὁμιλέω warlike 3.52656e-05
ἤ NULL 0.00239169
ἐπίσταμαι soever 0.000105724
προσεῖπον atreus 1.49234e-06
σύ but 1.12383e-06
πρό you 0.000609077
πρό cares 5.63836e-08
πρό the 0.899171
πρό NULL 7.10431e-05
ἐναρίζω slay 0.0916169
ἀλεγίζω care 0.00354711
μάλα then 4.1635e-05
ἐν quickly 0.000150771
ὅδε NULL 7.84962e-06
οὔτε or 0.00234641
ἀποδέχομαι who 0.0355625
ἀποδέχομαι accept 0.228837
φράζω say 0.000241472
ἦ NULL 3.37899e-06
ὦ NULL 0.000168733
ἐρέφω pleasing 0.546976
παρά hollow 1.6518e-08
κιχάνω NULL 0.000355965
νόσος dishonour 0.21178
νόσος wrought 1.76035e-05
νόσος against 0.000492119
νόσος anger 9.93512e-05
τίθημι hades 2.68645e-08
ἐλέγχω brings 0.00075578
λευγαλέος wretched 0.000165448
εὐνάζω sleep 0.0447642
ἄρα eurymachus 0.00120146
κεῖνος lord 0.0159215
εἰσέρχομαι go 2.58569e-05
προσφωνέω spoken 1.20853e-05
αὖτε meanwhile 9.09846e-05
καλλιρέεθρος beautiful 3.01133e-05
ἀπόλλυμι slew 0.00256635
μῆλον2 sheep 0.000825766
εἰ woeful 1.52335e-06
εἰ me 7.2334e-07
εἶπον brought 3.80403e-07
πάρος length 0.000355093
ἵνα whom 3.26778e-06
ἀμνίον blood 0.000377046
λωίων eyes 0.00284042
νέος hither 9.30224e-05
πάρος until 0.00397408
αὐτός thereover 1.89216e-07
ἐδωδή meat 0.000327175
ἕ honour 8.34852e-08
λύω then 3.81944e-06
ἱζάνω sit 0.568771
πανόψιος sight 0.00497784
ὁ shaker 1.58719e-09
ὅρκος oaths 0.0197223
δαίζω blood 0.00072332
ὁμοκλέω apollo 2.52198e-06
γίγνομαι sarpedon 9.03988e-07
ἐγγύθεν battle-axes 0.000536525
κάπετος dashed 0.000374657
ὀπάζω giving 0.00267576
ἀφίημι deïphobus 1.53645e-05
κατακοιμάω sleep 0.542115
πα~ς be 3.64864e-05
ἐνόρνυμι roused 0.0550843
ἐπεί whither 2.41774e-06
ἐσσύμενος forthwith 5.17828e-06
ἐσείδω hand 3.39592e-05
ὧδε promise 0.000459509
τίνυμαι taken 0.00137894
εὐνή another 2.44235e-05
ἔχω sprang 5.49085e-07
μυχοίτατος innermost 1
αἱρέω may 3.04453e-07
ἀτασθάλλω wantonness 0.00852599
αἶσα hope 1.19503e-06
περί most 0.000713087
σύ left 6.43932e-06
εἶπον swineherd 1.27448e-07
ἀίω shouting 3.6224e-05
πρῶτον first 0.0589092
οἴη sheep 0.0208312
αὐτός anointed 2.06478e-07
ἐκπεράω right 4.02792e-05
θερμός heated 0.0269446
ὄλλυμι slew 4.01165e-07
εἰ tell 2.82197e-05
εἰ but 4.10234e-07
ὀπάζω wrought 0.0362937
τόφρα against 6.06997e-07
ἀποβαίνω leave 0.00170727
τίθημι hold 1.83882e-06
ἄλλοθι other 0.00177998
δῆμος throng 4.0681e-05
ὁράω glory 4.98275e-06
πίπτω hurled 3.64172e-05
παλάμη fathers 0.0529592
ἐκχέω filled 0.00346966
ὁ doth 9.17888e-08
ἐκκαταπάλλομαι shrill 0.0115336
αὐτός wheeling 1.26481e-06
ναίω maidens 3.54461e-07
τῇδε pitiless 0.0642688
ἀμφί stand 9.8345e-08
ἀνέχω clean 2.03101e-06
εἶδος fair 0.0034459
αὐδάω straightway 2.40324e-06
γε menelaus 4.0103e-05
σχεδόθεν hand 0.000238423
ἐρύκω held 9.00568e-05
ὠκύμορος swift 1.10192e-05
ἐνόρνυμι labour 0.000112559
Φόβος rout 0.62615
λευγαλέος grievous 0.104155
εἰς another 8.82341e-08
ἵημι foes 4.31601e-07
νέος now 1.14853e-05
αὐτός beauteous 1.41191e-07
κλυτός goodly 1.5099e-05
ἀπόφημι declare 0.0203888
ἀμύνω save 6.08876e-05
μεταφωνέω among 0.000128518
μεταφωνέω spake 0.000447943
σπεύδω pursuit 4.20173e-05
χωρίς alone 0.000125753
πέλω song 1.58862e-07
προκαλίζομαι vanquished 0.000941922
πελάζω reached 3.40699e-07
πρόμαχος warriors 9.96199e-07
ἑπτάπυλος gates 0.00280153
μέτειμι youths 6.10656e-06
βίοτος antilochus 1.65746e-06
ἐπισπαστός himself 0.00107313
γάρ though 4.77392e-08
πάμπαν ever 0.000165455
πως odysseus 2.36022e-05
παρίστημι stretching 1.22239e-05
παρέχω men 0.00653767
παρέχω give 0.18629
ἵστημι odysseus 1.99376e-05
ἐρύκω left 8.32032e-06
ἀνήρ entertainment 9.83729e-09
ἐξέρομαι enquired 0.0300377
πᾶς shore 8.40337e-05
ἀτάρ pleasant 5.69349e-09
μῆρα thighs 0.0143742
νῦν wave 2.93051e-07
στάζω saying 0.000119634
ζωός life 3.92263e-07
δέρκομαι saw 0.00248927
ὀιζυρός rest 2.26286e-05
ἀτάρ me 3.32231e-08
βροτός place 0.0217591
ἄλλος often 0.0010952
ὀιζύς grief 0.0262761
ἕπομαι gone 0.00580008
μέλλω mayest 7.67742e-06
μάλα ships 2.15361e-07
ἀνάπτω reproach 0.0177248
μῶμος reproach 0.00915247
ὅσος wherewith 0.000193375
ἐρῶ declare 0.00816987
ἐρῶ well 0.000157062
κλέος charioteer 5.54876e-06
σύ appointed 1.14161e-08
διίστημι stand 6.77604e-06
ὁ earth 3.11027e-06
ποτέ utterly 1.6767e-05
ἐρητύω back 4.4973e-06
δινεύω whirling 0.0840873
ἠδέ wish 2.84306e-05
μεταφωνέω achilles 0.000628159
ἐξαπόλλυμι perished 4.87839e-05
ἐν hither 1.3712e-07
αὐτός nymphs 6.88664e-06
βρίθω live 3.12378e-06
ὅτι2 pass 8.47739e-07
ἀμφί beside 1.11065e-05
πόποι good 0.000538956
ἐξερύω sarpedon 1.74146e-06
ἐκφέρω bear 0.000208657
ὅστις case 3.26854e-06
φύζα send 0.000423755
ἐκτός forth 5.1843e-06
τότε peneleos 0.00212443
ὁρμάω hereafter 0.0266203
Δηιφοβος deïphobus 0.00177508
ἄρειος valour 0.0385391
ἀμφάδιος poseidon 1.47525e-05
ὧδε hard 1.04363e-06
ἀναπετάννυμι open 0.117598
χρῄζω need 0.0584839
ὁτέ again 0.878202
ὁτέ now 0.00392873
Ὀδυσσεύς whomsoever 7.12302e-08
ἠέ stand 7.98866e-06
διά even 6.44687e-05
πα~ς shall 0.000178752
πα~ς things 0.571059
φύγαδε sooth 0.000275416
περονάω pierced 0.00055355
γάρ achaeans 7.93226e-06
γάρ whole 1.34775e-05
χρυσήνιος daughter 2.12869e-05
ἐπικουρέω bear 0.0951167
τυτθός scant 0.000337669
πέπλος raiment 0.0200326
ἰδέ winged 3.38679e-06
μιν benched 0.000356609
βαίνω took 1.0371e-07
ἀναδύνω came 1.22224e-05
ἤτοι when 0.00152844
σύν some 3.37342e-07
βρότος blood 0.273319
μή how 1.85904e-07
πυθμήν elsewhere 7.9946e-05
ἄψ then 0.00769984
κατά finished 6.60879e-08
περί lived 2.03987e-07
μενοινάω minded 0.0446781
μενοινάω deeds 2.28815e-05
καίω melanthius 0.0115147
μενεαίνω sword 0.0296523
βουλή liking 1.57176e-05
μετά herd 0.00152661
μαῖα mother 0.0924891
εἶμι followed 0.000145782
αὐτός wonder 0.000484026
δμωή since 0.0272119
κεῖνος so 2.51938e-06
δέρκομαι behold 0.0105534
τανύω cheeks 0.0267983
δυσμενής ambush 1.41368e-06
ἕπομαι me 0.000145041
θυοτε then 3.00546e-07
πόσις2 therefore 0.0283596
εἰσερύω dragged 8.97735e-06
κῆδος dear 6.60581e-05
ὄψ piteous 0.0213723
μάλα longing 0.000463785
τανυήκης long 9.21505e-05
φίλος each 0.000232179
οτηερ didst 1.38651e-06
ἀπείριτος boundless 1
ἀπέχθομαι immortals 0.0033108
θεός immortals 0.00010615
ἐκ sight 3.06835e-06
ἐκ lose 1.78884e-08
αἶψα surged 1.09696e-06
ἀτάρ silver 1.30556e-07
οὐ endure 0.000322404
ἄνωγα others 3.08473e-05
ἀσπάσιος glad 4.25479e-06
θοός indeed 0.00641502
θύραζε father 4.37053e-05
ἀλεείνω escape 1.0688e-05
ὑπόβρυχα wave 0.000285296
εἴδω odysseus 7.15642e-05
νημερτής speak 5.36531e-05
πρίν long 3.81414e-05
ἀπάγω led 0.0191721
ὧδε another 0.0144145
αἰψηρός soon 0.456479
ἐπί aegisthus 9.64911e-07
φαίδιμος famous 0.0138514
πατήρ sire 0.00424533
δύναμαι marry 1.60001e-06
φαεσίμβροτος mortals 8.40226e-06
μεταυδάω spoken 0.0259742
εἰμί self-same 3.29135e-07
ὀφθαλμός within 2.14983e-06
οὖν others 1.66025e-06
μετά quickly 0.00101499
πρίν mine 1.27574e-07
ἁπλόος coverlets 0.023882
εἰς worsted 3.14909e-05
ὀρθόω feet 0.0212408
ἐρύκω bid 2.33556e-05
αὐτοῦ windy 0.00309463
ἀναλέγω gentle 0.743886
συμπλαταγέω together 1
φίλτερος pleasure 0.278354
νοέω deem 0.0087644
αἴσιμος raised 1.94421e-06
πέρ cruel 0.000916268
ἐπέοικε wholly 0.000523907
ἐπέοικε beseemeth 0.0137233
συναίνυμαι arrows 9.07272e-05
τοξοφόρος shouldst 1
στυφελίζω smite 0.132275
ἀποπαύω save 2.74413e-05
ἤτοι lycaon 0.00792428
μάλα straight 0.00170461
ἔκγονος daughter 4.47602e-05
ἔξοχος far 2.2834e-06
φίλος sate 3.49769e-08
μή sate 0.00142737
ἐκ daughters 0.000136962
ἐπιπροίημι sent 0.347536
αὖτε wounded 0.000133371
ἄγχι stood 1.78786e-05
πόποι friend 0.000127158
πρίν master 0.00505465
διίστημι reared 7.84384e-06
καρδία divided 1.72704e-07
φύλοπις look 0.0495207
ἀποσταδόν fight 0.325814
λιάζομαι fell 3.61448e-06
ἐνόρνυμι send 3.44132e-06
εὐνάω couch 0.00153441
ἆρα helenus 0.00793055
ἕ stricken 0.000136282
γηθέω joy 0.0274821
ὅτε soon 0.00168414
ὡς share 3.90981e-05
ποικίλος bright 0.0455279
νίσσομαι return 0.234568
ἵημι minded 0.00591647
κελαινός sprinkle 0.000557921
ἆρα zeus 0.011549
νεῖκος fight 8.20898e-06
ἀίω call 1.33805e-05
εὐράξ took 4.06803e-05
θείνω smitten 4.11453e-06
ἐλαύνω diomedes 5.75604e-07
κιχάνω reach 1.13537e-06
φθέγγομαι speak 0.0722945
ἀχαιός achaeans 0.681973
ἴσος king 0.00102057
υνκνοων yet 0.00910758
αἰνός great 0.0101213
δι~ος sacred 0.052729
κλέος glorious 0.00352975
πρός wooing 0.000799853
πείθω follow 0.00461852
καίω build 0.00922494
καίω folk 1.61777e-05
μετάφρενον diomedes 0.000518667
οτηερ swift-footed 0.000300986
πᾶς goddesses 0.000574162
περονάω unawares 0.215863
ἐν whole 8.66905e-09
ποδάρκης swift-footed 0.999008
ἀφικάνω beside 7.679e-05
τρώς trojans 0.806474
ἴσος been 0.000728931
τίκτω father 2.18199e-06
μήτε not 6.94313e-05
λοιγός destruction 0.0126959
ἐπαίσσω leapt 0.0516018
μετά took 1.93041e-06
ἐρείπω knees 5.47379e-06
τυδεύς tydeus 0.0023743
μεθίημι holding 0.0057053
ἐρύω flashing 0.00297485
σφός atonement 0.0597378
ἄρειος warrior 0.0333941
γίγνομαι strife 0.00221216
θοός straightway 0.00586284
ὁπότερος soever 2.10898e-06
συνάγω offerings 0.10579
συμμαχέω battle 0.000207412
σημαίνω therefore 0.0942863
ἀρχός Now 9.53027e-06
μετάφημι spake 0.000143133
ἐπιβάσκω bring 0.559619
ὑπό beyond 3.93038e-07
βαίνω woman 2.54744e-07
ἐξάγω bring 0.000289867
πέλω NULL 1.72196e-05
κεῖνος these 0.0202952
θυοτε master 2.59604e-07
παρέξ sorrow 0.0357234
θυοτε knees 8.95062e-05
ἐπισεύω others 0.0399846
θυοτε armour 8.22841e-06
φάτις dread 0.679156
ἔπειτα penelope 2.1858e-06
ἐμμενής since 0.00455963
δίκη ever 0.078206
δαιμόνιος woman 0.054991
ἄψ so 0.00749434
πάντοσε beginning 0.053074
πρός swineherd 2.27672e-05
τοιγάρ well 5.30855e-06
λίαν king 0.000324744
τέως until 0.103697
μενέλαος menelaus 0.837961
ἐναντίον chariot 0.0423309
ἤδη strength 0.000138526
μέλλω hadst 1.70616e-06
ἐξοπίσω thereafter 3.87657e-05
πατηρ father 1
χρή right 2.03234e-05
αὐτίκα answered 0.00482792
φαίνω coming 0.0102972
στάζω stood 0.417165
ἄνω2 crest 0.693401
ἕνεκα still 0.00060715
ἔξοχος wickedness 0.0275316
ἐκεῖνος drunk 3.57665e-06
μάλα sleep 7.21976e-07
ἄνειμι hither 0.0237163
κατακλίνω left 1
ἀλλά again 1.01304e-07
ἐποτρύνω shoved 0.00449252
ἐξερέω tell 0.0696266
ἄγε minstrel 3.82674e-07
ἔχω gifts 0.000922622
προφερής best 0.431284
κεῖμαι stranger 0.00214426
οὕνεκα maidens 0.0166053
ἀμφίς poseidon 0.0256112
πρίν since 0.0104586
μιν swift-faring 0.000124088
μιν board 0.000686143
θυοτε NULL 0.0117618
δῖος peerless 3.70759e-08
ἐάω weeping 0.000154365
ὅσος tidings 2.72549e-05
ἵστημι devised 0.001175
θέσπις icarius 0.40005
ἀνίστημι howbeit 0.0141104
μετά man-slaying 6.90784e-08
τοι tears 4.10408e-07
δοιώ goddess 0.231475
πῶς2 unhappy 0.0110903
μιν achilles 0.00127347
εἴσειμι within 0.000174915
τοῖος great 0.00961299
ἐφίημι bid 0.0315267
ἐφίημι send 4.24863e-05
ἀπό give 0.000115711
ἔπειτα well-balanced 0.000771471
ἐνηής gathered 0.301728
λιπαρός gleaming 0.00752481
αὖ thereafter 0.00405708
ἐκθρῴσκω achilles 0.333418
παρά weapons 0.000404804
μάλα pallas 0.00118812
εἰς bitter 5.10881e-09
ἀνήρ father 7.07248e-06
τείνω outstretched 0.029713
ἐξαπονέομαι return 0.514817
ʽἁλοσύδνη daughter 5.87644e-05
ὕστερος thereafter 0.0299812
ἐύς great 0.0969036
βριαρός mighty 0.138328
ἰαίνω rise 8.00271e-07
ἀείρω armour 0.0172777
μή selfsame 0.00103496
ὀρθός feet 0.0577185
ἀνήρ ceaseless 0.000142065
ἴσος fierce 0.0103057
ἀνά destruction 0.00298417
μήστωρ counsellor 0.0436611
κατατρύχω substance 0.000117072
κατατρύχω wasting 0.399272
τότε warriors 1.06576e-07
τανυήκης drawing 0.175031
ἕ patroclus 0.000276756
πᾶς recompense 0.00048374
ἐμπίμπρημι mans 0.396971
ἀίω hearest 0.0363617
τώς this 0.368501
ἐκ foremost 1.02725e-07
κατά menelaus 3.6175e-05
ἑταιρίζω comrade 7.16267e-06
πρός idomeneus 1.60306e-08
πέτρα foundations 9.17892e-08
προπάροιθε ere 0.00221137
πεύθομαι tumultuously 0.0346125
σχεδόν car 4.5031e-07
πάρα beside 0.628722
ἀνήρ contrive 0.000112486
οὐ achilles 2.85696e-07
πούς hither 0.000793428
ἐπισεύω choose 7.80289e-05
ἐπισεύω whomsoever 0.014913
Ἀργεῖος achaeans 0.0126805
εἰσακούω heard 1
τοι naught 0.00449425
δαιμόνιος wife 0.0011051
δαιμόνιος dear 0.0538606
πρός shrank 4.56348e-06
ʼἀχαιός achaeans 0.347695
μαίνομαι beside 6.70776e-05
ἐμμεμαώς battle 7.25123e-06
ἐμμεμαώς eager 0.108491
φρονέω spirit 0.00733709
ἀεί still 0.00384614
ὅς stroked 6.40629e-08
ἀγορεύω flight 1.90185e-07
ʼἀτρείδης atreus 1
αἰχμή spears 3.18964e-06
αὖ lot 0.000195531
ὅς achaeans 0.000150507
δαίμων goddess 0.0157242
χαλκός spear 0.00592527
δύω2 ankle-pieces 0.00860604
δεύτερος beautiful 0.0238395
μετάφημι saying 0.0105886
ἠμύω head 0.459998
ἠμύω bow 0.0136813
κρείων king 0.0148827
πρότερος whether 0.000390932
ἤδη ward 0.00612625
ὦ comrades 0.00232614
φόβος she 0.133837
μήστωρ she 0.337522
κρατερός hope 0.00608442
χαίρω pallas 0.000696828
δείλομαι sun 1.55229e-05
νότιος streams 0.268987
αὖ return 0.0101237
πιφαύσκω one 0.203909
ναί Nay 0.0596889
ἐπερείδω sped 0.00444014
τόφρα give 0.0265049
ῥῆσις speech 1
θυοτε followed 0.000104918
μογέω borne 2.28239e-06
θυοτε cup 8.69476e-06
ἀγχίμολος up 0.479243
ἰότης woman 0.0738217
δυσκηδής keep 0.0127549
παρίζω beside 1
ἀρχή nay 0.151431
ἀφικνέομαι peleus 0.000141935
ὑπερβάλλω gathering 0.419927
πλήθω lo 0.207703
σύ fair-flowing 1.03574e-06
ʼἀχιλλεύς achilles 1
κατακείω drink 0.122012
σπιδής wide 1
οὖν follow 4.93572e-05
δυσκηδής throughout 0.144727
Αἰακίδης achilles 0.0472967
βρεχμός head 1
εἰσαφικνέομαι hades 0.104953
πη wilt 0.0171395
ἀφικάνω come 0.100892
ἔπειμι more 0.315039
οὔτε not 7.37045e-05
δέρκομαι earth 0.143409
ἀρήγω hand 0.0653647
ἀμφότερος covenant 0.00274196
κατόπισθεν covenant 0.13028
αὖ covenant 0.00222263
οβριμοπάτρη sire 1
ἀφίημι flaming 0.0671049
τότε moment 0.00209528
ταχύς bloodshed 1.2211e-05
ἄνοστος returning 1
τύπτω double-pointed 0.0123577
χαλκοπάρῃος cheek-piece 0.352634
δολιχόσκιος aloft 0.0530324
προίημι aloft 0.0113706
ἀναπάλλω aloft 0.108798
μάλα aloft 0.00158442
θυοτε hurl 4.78294e-05
ἔχω vying 0.000272024
ἀρετή vying 0.0154958
ἠνορέη valor 0.170299
γένος disgrace 0.0174633
κρίνω disgrace 0.0116976
μάρναμαι disgrace 0.0041873
πολιός grey-headed 0.0069421
εἰς donned 7.19111e-05
ἐσείδω close 0.71525
κίω drawing 0.00866995
οὖν honey-hearted 0.00347957
ἔκλησις forgetting 1
αὖ forgetting 0.000697624
ἐγώ forgetting 2.31295e-05
ἀεί forgetting 0.0004844
βασιλεύω forgetting 0.0193052
ὡς fitting 0.000188289
κεῖνος vengeance 0.000878259
ἀμφότερος establish 0.00171353
μετά establish 0.000459397
τεύχω establish 0.00148144
ἤ establish 7.58219e-08
ἀλαλητός cries 0.156747
τοτέ scaring 0.228587
μέσος released 0.00254567
ἐκεῖνος cross 0.0039145
περαιόω cross 1
φονεύς slayers 0.325158
ἔπειτα disgraced 0.000809455
δι~ος elis 0.203189
ἐναίρω comfortless 0.0206836
στοναχή wailings 0.0925194
μυχμός moanings 1
ἄλλος moanings 0.000146226
ἄλλοθεν moanings 0.0119132
ἀίω moanings 0.0094231
στυγερός rumor 0.00985856
πάντῃ rumor 0.01487
οἴχομαι rumor 0.00340411
ἤδη wiles 0.0029534
οὔλω happiness 1
ἀνάγω happiness 0.04544
οἴομαι happiness 0.00429243
νοστέω longed 0.0142834
ἀπεκλανθάνομαι dinner 0.999367
μογέω sicilian 0.00726252
ἐπιχειρέω sicilian 0.33317
δεῖπνος sicilian 0.0210437
ἀμύνω beaten 0.00691349
ἐφίστημι beaten 0.0299542
τοι yesterday 0.00234052
ἐυκτίμενος nericus 0.0117911
ἐναλίγκιος presence 0.0559086
ἐφοπλίζω prepare 0.0406137
προπέμπω prepare 0.207251
ἐγγύθι orchard 0.0767038
θυοτε cephallenians 7.76906e-05
ἀγγελία messengers 0.0102744
θυοτε weighed 4.71046e-05
ἐπιβρίθω weighed 0.168677
διατρύγιος severally 0.726319
διατρύγιος ripened 0.273681
παιδνός garden 0.629893
αἰτέω garden 0.059081
εἶπον garden 0.000910849
ὑπέχω agreed 0.0394593
βλώσκω agreed 0.0281522
ὄφρα agreed 0.000217341
ἀριφραδής maybe 0.0449084
τίνυμαι insolence 0.00536602
ἴσχω lamenting 0.0230494
ἐφάλλομαι kissed 0.0695273
προτύπτω pang 0.046398
μένος pang 0.00102623
ἤδη nostrils 0.00405353
ἠδέ guest 1.19712e-07
δύσμορος country 0.197684
ἀπό sicania 3.0896e-06
Ἐπήριτος eperitus 1
Ἀλύβας alybas 1
βαίνω passenger 0.000670326
ἐκβαίνω passenger 0.0736773
ἔμπορος passenger 0.190572
κωκύω bewail 0.0786804
πολύδωρος wooed 0.388056
ἐκεῖνος begins 0.000697857
ὅτε begins 0.000244489
ἔτος begins 0.00983182
δή begins 0.000233002
τις ample 6.72647e-05
ξενία ample 0.168146
ὀπάζω gavest 0.000340415
χαρίζομαι gavest 0.0310908
ὑβριστής reckless 0.303643
ἐρεείνω reckless 0.0584507
εἴβω weeping 0.090561
εἰδάλιμος comely 1
ἁπλοίς flowers 1
φάσκω arceisius 0.0292911
εὔχομαι declared 0.0065022
ἐπεί deigned 0.000211672
μάλα deigned 0.000498414
δούλειος seem 1
τις slave 2.68301e-07
αὐχμέω bearest 1
κομιδή enjoyest 0.159571
κῆπος lacks 0.211744
πρασιά garden-plot 0.306688
ἄμπελος fig 0.350018
συκέα fig 0.5
πάμπαν fig 0.031034
τοι garden-plot 0.000812699
εὖ garden-plot 0.000452451
ἔχω garden-plot 7.02009e-05
ἔχω tend 0.00047047
ἀδαημονία skill 1
κατέχω digging 0.0311881
ἵκω returned 0.0142902
βάτος thorns 1
βόειος stitched 0.33049
ἀεικής patched 0.0101437
ῥαπτός scratches 0.666648
ἕρκος chanced 0.0261027
ἆσσον fruitful 0.0170585
ὀφθαλμός recognize 2.49363e-07
ἐπιγιγνώσκω recognize 0.294272
ἱερεύω dinner 0.0156056
εἴσω dinner 0.00885558
υνκνοων servants 0.00629553
νόσφι farm 0.000560433
Σικελός sicilian 0.788615
ἐργάζομαι bondsmen 0.0131914
ἰαύω bondsmen 0.00688859
σιτέομαι bondsmen 1
θέω sheds 7.49609e-06
κλίσιον sheds 1
τεύχω well-ordered 0.00365856
κεῦθος depths 0.423091
θυοτε uprightly 2.90387e-05
θῆλυς womankind 0.014141
ἀρετή virtue 0.00745489
εὖ loyally 0.00209202
κτάομαι excellence 0.109016
σύν excellence 0.00026098
σφός fury 0.0860744
παπταίνω glaring 0.0476782
ἵημι hen 0.00526328
ῥᾴδιος ease 0.0326719
βιός stretch 0.000303093
ἀέθλιον ill-fated 0.163137
αἰνόμορος ill-fated 0.459802
πολυκέρδεια bolts 1
κλείω bolts 0.0901968
ἠδέ assailed 0.000120466
ἐνίσσω assailed 0.232808
προφαίνω suddenly 0.0703488
κακός somewhere 0.00149555
μερμηρίζω refused 0.013456
φρήν refused 0.00122819
ὅδε refused 0.000660113
δόλος refused 0.0108056
ἕπομαι benched 5.19359e-07
κατέρχομαι remember 0.0196076
ἄλλως pick 0.0245502
ἀγακλυτός melaneus 0.000664649
κατάγω spirits 0.105422
ὑπό accursed 0.000940895
ἦδος skein 0.151496
κατατίθημι honor 0.00943551
ἐπεντύνω gird 0.372855
ἀποφθίνω gird 0.0487275
ποτέ gird 0.00149762
μίγδα mingled 0.00992364
μίγδα bones 0.837899
ἀμφιφορεύς urn 0.105314
λέγω unguents 1.84992e-05
ἀνύω flame 0.18767
πίων well-fatted 0.00432516
ὑπόρνυμι move 1
τοῖος deeply 0.00985645
νοέω couldst 0.0051771
τις couldst 0.000282953
ἀντιάζω sea-nymphs 0.0299051
κατερύκω wisdom 0.0457431
ἅλιος sea-nymphs 0.0336975
λιαρός ointment 4.20807e-05
θεός fortunate 0.000382085
θυοτε fortunate 5.4872e-05
ἁλίσκομαι decreed 2.17662e-05
ἀνάσσω pride 0.0114788
ὀφείλω pride 0.0209526
ὁμιλέω goodliest 0.0442402
ἠδέ leucas 7.98485e-05
Λευκάς leucas 1
ἅμα gibbering 6.75427e-06
ἀποπίπτω bats 0.111169
τις bats 5.88653e-05
ὅτε bats 0.000182578
κινέω spirits 0.0442695
ὑπνάω wakens 0.3335
ἐκκαλέω cyllenian 0.235494
δύω2 girt 0.00568819
ἔπειμι2 well-wooded 0.0327232
ἔπαυλος folds 1
κλαίω troublous 0.00439333
πολυκηδής troublous 0.538541
κορέννυμι trials 1.96465e-05
εὐνή judged 0.00337823
τρέφω tended 0.0183213
κατερύκω yearning 0.0420598
ἀλύσσω fates 0.245541
ἀπό thunders 0.000377207
ψολόεις thunderbolt 0.999672
κατέπεφνον helios 0.0645299
Πλαγκταί rocks 5.70881e-05
Πλαγκταί wandering 0.735829
πᾶς telepylus 0.000113336
ἀφικάνω laestrygonians 0.0743998
Λαιστρυγονίη telepylus 1
ἐσθίω eaten 4.31251e-05
ἀτάρ overcame 2.20685e-08
πάρος tale 4.07055e-06
λέγω3 recounted 0.0218268
πάντῃ recounted 0.0126425
τίθημι recounted 0.000104967
ὅσος recounted 0.00130405
ἐρατεινός tales 0.0376982
εὐνάζω shadowy 0.00592185
ἔχω torch 0.00037908
λέχοσδε bedchamber 1
ἡγεμονεύω bedchamber 0.00450554
κείω bedchamber 0.0212636
ἐσθής coverlets 0.0568026
ἐντύω coverlets 0.424834
ἰδέ eurynome 0.0322665
ἐλπωρή happier 0.0708784
μάλα fan 0.000214025
πᾶς fan 7.85445e-05
φαίδιμος fan 0.00181398
ἔχω fan 0.000180488
ἀθηρηλοιγός winnowing 0.799999
ὀτρύνω urgently 0.00361283
αὖ urgently 0.00210256
ὄπισθεν whit 0.00875126
ἆθλος whit 0.0271432
δίζημαι concerning 0.105676
ἔρχομαι trials 0.000223609
ἆθλος trials 0.0178119
ἐπί trials 6.27772e-05
ὦ trials 0.000583024
ἄγω colts 0.00054305
πῶλος colts 0.117685
Φαέθων phaethon 1
περάτη colts 1
ἀφίημι gazed 0.0387098
πάμπαν gazed 0.0206982
πω gazed 0.00236183
ἐπιβαίνω crusted 0.00272986
ἅλμη crusted 0.0261536
ἐπείγω swollen 0.0301208
γῆ swim 0.0556154
ἄν swollen 3.70727e-09
θυμαρής true-hearted 0.13134
μάλα unbending 0.000927151
ἐρύω convince 0.000975614
ἔτι convince 0.000466555
Ἀκτορίς actor 1
μόνος actor 0.0384495
ῥέζω prompted 0.00188533
ἀλλοδαπός lain 0.0896663
ἐκγίγνομαι lain 0.0526992
κέρδος devices 0.0990778
ῥιγέω always 0.0360369
τέρπω enjoy 0.00875755
ὀιζύς begrudged 0.0296721
πέπνυμαι wisest 0.00194403
ἄνθρωπος wisest 0.000925123
μάλιστα wisest 0.00207024
πέρ wisest 0.00015989
ἐπεί wisest 0.000154375
ἠδέ kissed 0.000101532
ἄλλοσε stump 0.599947
γλυκερός unguents 0.0346876
δαιδάλλω inlaying 0.666667
ξέω hewed 0.119071
λέχος hewed 0.00788859
ἐκ beginning 0.000122523
τέρετρον augur 0.500167
ἰθύνω bed-post 3.23998e-07
προτέμνω trimming 0.186117
κορμός trimming 1
κόμη trimming 0.0135068
ἀποκόπτω trimming 0.0488523
ἀμφιβάλλω built 0.309227
πάχετος girth 0.795556
ἕρκος growing 0.0146833
φύω bush 0.0228976
ἀμφότερος trials 0.00131423
κάμνω built 0.0268337
ἄλλοσε elsewhere 0.400053
ἐκτίθημι bedstead 0.99946
ἀθερίζω scorn 0.59872
Ὀλύμπιος softened 0.00439459
ἀτέραμνος softened 1
ἀντίον opposite 0.00695743
εἰσείδω taller 0.0907966
παίζω dancing 0.358176
περιστεναχίζομαι resounded 1
ἀμφιέννυμι tunics 1
θυοτε advantage 3.93672e-05
ἄν advantage 8.32744e-05
ἔπειτα afterwards 0.00169525
ἔξω well-wooded 0.056672
γίγνομαι abroad 0.00150716
περιναιετάω wedding 0.244286
ὁδός2 passer-by 0.0010926
ὡς passer-by 2.95689e-05
φιλοπαίγμων passer-by 1
ἡγέομαι passer-by 0.0028582
ἀμφιάζω yourselves 0.214002
ὡς quote 0.000206218
ἐγώ combines 1.40196e-06
ἐγώ wrongly 3.51149e-08
πηός exile 0.166802
ὀπίσω exile 0.00420686
ἀοσσητήρ exile 0.069465
πεῖραρ trials 0.0224401
φράζω certain 0.00583462
θυοτε signs 0.000240799
λωίων certainly 0.138742
πρόσφημι power 0.00376988
θυοτε harder 6.2664e-05
στερεός harder 0.0633121
καρδία harder 0.00567275
τλάω harden 0.0143785
γε harden 1.81564e-07
νοσφίζομαι aloof 0.171823
κάτω pillar 0.463877
ἔπειτα opposite 0.000914544
πολύιδρις comprehend 0.357487
ἐξαπαφίσκω deceive 0.394002
ἔνδον saidst 0.00730105
θυμαλγής insolence 0.117831
ἄγαμαι insolence 0.0312091
ἐτήτυμος tellest 0.0230794
καγχαλάω laughter 0.194935
εὐφροσύνη enter 0.363572
περικαλλής purging 0.00819732
ἀθρόος purging 0.0018804
αὔλειος purging 0.00224927
ἀτύζω terror-stricken 0.0408394
θάλαμος terror-stricken 0.0063668
πυνθάνομαι asked 0.0139916
ἔνδον ago 0.0175428
ἔσω sorry 0.108588
στυγερός sorry 0.0230387
ἀνεγείρω sorry 0.149651
ἀγγέλλω told 0.0393619
καταδαρθάνω sound 0.479501
φίλος slumber 0.0012586
λωβεύω mock 1
πέρ marred 0.000161434
ἐπιβαίνω simple-minded 0.00296225
πέρ simple-minded 0.000106676
ποιέω simple-minded 0.00064131
θυοτε oppressed 8.61972e-05
βιάω oppressed 0.0812638
κτῆμα devoured 0.0139463
ἔλδομαι desirest 0.0327582
ὑπέρ ladys 0.00750059
ἔνδον mistress 0.00043453
κλαυθμός weep 0.000349461
καί embraced 0.000127485
μέν embraced 2.19295e-08
διαθειόω purged 1
εὖ throughly 0.00407254
θεειόω purge 0.685884
ἄκος pollution 0.771109
κακός pollution 0.00111196
γραῦς pollution 0.000239211
θέειον pollution 1
φέρω pollution 3.56759e-07
δόμονδε done 0.161074
οἴκτιστος nooses 0.0254408
βρόχος nooses 0.333235
κεφαλή nooses 0.000794252
γε nooses 0.000242911
κοῖτος resting-place 0.0500101
αὖλις resting-place 0.347784
ἐμπλήσσω thrushes 0.1817
ἕρκος long-winged 0.0182552
κίχλη long-winged 1
ἤ thrushes 0.000232051
ἐπεντανύω cable 1
ὑψόσε cable 0.0151238
περιβάλλω cable 0.122966
πεῖσμα tied 0.198547
παρά reproaches 0.000259589
εἴλω shut 0.0351879
θύραζε scrapings 0.000272994
δμωή scrapings 0.00804542
φορέω scrapings 0.006268
δάπεδον scraped 0.00475462
λίστρον scraped 1
ἐκφορέω bodies 0.799001
ἐρείδω propping 0.0174893
ἀλλήλων propping 0.00189743
τίθημι well-fenced 7.65814e-08
οὖν bodies 0.0049994
ἐξαφαιρέω dome 1
ψυχή dome 0.00296561
τανυήκης swords 0.121162
θείνω fence 0.0115893
θόλος dome 1
δμωή dome 0.01175
δμωή order 0.0282428
κατακοσμέω dome 0.183865
θυοτε begin 0.000112951
τίω regard 2.0027e-05
κτείνω unholy 1.00741e-06
ὅσιος unholy 1
οὐ unholy 0.000169954
οὖν welter 0.00083913
κικλήσκω calls 0.0415826
δμωή servants 0.0391389
κινέω shaking 0.0249753
πολυωπός net 1
ἐξερύω net 0.0196869
δίκτυον net 1
κέρδος advantage 0.0217779
θάλασσα net 0.00126982
εἰς meshes 2.90698e-05
κοῖλος meshes 0.00901638
ἁλιεύς meshes 0.188156
μάλα meshes 0.000598234
εἶδον meshes 0.000805289
ὑποκλοπέομαι hiding 1
ὅστις songs 0.00639993
πονέω songs 0.022237
εἰς slaughter 3.607e-08
θύραζε outside 0.0106388
μέγας doing 0.000928538
εὐεργεσία doing 0.723573
κακουργία doing 1
οὗτος delivered 0.0011688
θυοτε trials 4.03315e-05
ἀποδύνω ox-hide 0.371437
εἶπον witness 0.000952629
ἔοικα worthy 0.00622799
ἐμφύω lays 0.338371
αὐτοδίδακτος self-taught 1
θείνω slayest 0.0117168
ἰδέ mixing-bowl 0.0221981
τοι mixing-bowl 0.00182361
ἦ mixing-bowl 0.000485447
προσαίσσω forward 0.999998
ἑρκεῖος slip 1
ἐκδύω slip 0.134322
Τερπιάδης terpes 1
προφεύγω grievous 0.0116865
γίγνομαι removed 0.000251235
γλυκύς removed 0.015088
τηλοῦ joyous 0.0936035
θυοτε gratitude 4.38864e-05
κεῖμαι wrong 3.3092e-08
οὐδείς soothsayer 0.0604829
ὅστις check 0.0110173
τις wronged 0.000121282
ἐπιστροφάδην right 0.687579
φυγή pounce 0.0705748
γίγνομαι pounce 0.000359139
οὐ pounce 8.4882e-05
ἐφάλλομαι pounce 0.014292
πτώσσω pounce 0.0200865
ἐν scour 4.94095e-05
μέν scour 0.000375246
οτηερ scour 0.000131867
θρῴσκω smaller 0.0235129
ἀγκυλχείλης beaks 1
ὥρα gad-fly 1.57333e-05
οἶστρος gad-fly 1
τε gad-fly 1.52399e-08
ὀροφή roof 1
ἀνέχω roof 0.00812181
φθισίμβροτος roof 0.824679
διαπρό groin 0.232974
κενεών evenor 0.181735
οὐτάω leiocritus 0.00355797
Λειώκριτος leiocritus 0.169613
Εὐηνορίδης leiocritus 0.537694
αὐτοσχεδόν damastor 0.110094
ποτέ gavest 1.22259e-07
ξεινήιον hoof 0.0671533
μέγας lover 0.000487146
ἡμέτερος recognize 0.00154312
φιλοκέρτομος polytherses 1
θυοτε polytherses 3.27735e-05
μυχόνδε innermost 1
ἄρα euryades 0.000666209
κακός wrongs 0.00113659
ἐπί addition 7.2184e-05
μέμαα addition 0.00163899
θυοτε wrongs 8.06735e-05
τοῖχος ashen 0.0959915
ἄλλος anothers 0.00188656
οὗτος fallen 0.000775138
ἐφίημι hurl 0.0364775
ἅμα hurl 0.00100587
εὖγμα boasts 1
ταρφύς swiftly-falling 0.0559465
βιός swiftly-falling 0.0148901
δαμάζω swiftly-falling 0.00178091
ἤδη swiftly-falling 0.00133778
τε eurynomus 9.06861e-08
ἄντην swallow 0.0118409
ἀναίσσω swallow 0.0132884
ἀνά smoky 2.60618e-07
αἰθαλόεις smoky 0.374305
ἠμέν valor 0.0086282
πειρητίζω valor 0.029961
νίκη valor 0.0144474
ἑτεραλκής valor 0.146802
θυοτε repay 6.57558e-05
Ἀλκιμίδης alcimus 1
εἰμί shrinkest 2.46696e-05
ἄντα shrinkest 0.00383731
λευκώλενος high-born 0.0114576
θυοτε valor 0.00025814
πολεύω large 1
ζώω daughters 0.0258485
θύρῃφι mingle 1
ὁπόσος mingle 0.247089
ἀφαιρέω mingle 0.0666648
οἴομαι deeming 0.00669116
ῥέζω befriended 0.00218548
δύω2 closed 9.71371e-07
θυοτε prepare 0.000123099
δόμος prepare 8.89207e-08
ἀγινέω she-goats 0.137342
ἡνίκα she-goats 0.999879
ἡνίκα hour 0.000121046
ἠριγένεια golden-throned 0.0204852
καταλέγω befits 0.00189568
πάγχυ befits 0.00588574
μάλα befits 0.00024906
ἐπικερτομέω mock 0.378897
οτηερ enduring 0.000197534
διαμπερές galling 0.00367856
ἀποστρέφω galling 0.0334504
μάλα galling 0.000166455
εὖ galling 0.000452505
δάπεδον galling 0.0126687
κουρίξ galling 1
ῥαφή seams 1
κεῖμαι seams 0.000509041
γε seams 0.000384841
ἥρως rust 0.00140384
ἄζα rust 1
παλάσσω rust 0.0151121
ἐρευνάω innermost 0.372292
κατά innermost 2.80197e-06
ἐρύω hoist 0.00121766
ὑψηλός hoist 0.00270232
πειραίνω rope 1
πλεκτός rope 0.313885
μίμνω remained 0.0219527
οὗτος crimes 1.15336e-06
ὅσος crimes 0.000429467
ἀποτίνω crimes 0.00667661
ὑπερβασία crimes 0.0510645
φυτόν digging 0.000141219
ἵνα crimes 0.000629621
ἄγω crimes 0.000362308
θυοτε suspect 6.53804e-05
οἴομαι suspect 0.00688335
ῥέζω melanthius 0.00453701
ἁμαρτάνω fault 0.0439538
ἐποτρύνω rousing 0.0227845
περιβάλλω donning 0.367975
θάλαμος store-rooms 0.0053094
ἐρύκω bar 0.0110085
ἀργαλέος passage 0.00575869
θύρετρα passage 0.170381
θύρετρα door 5.99738e-05
ἀνά postern 9.37872e-06
ἐφορμή single 1
γίγνομαι single 0.0029503
ἀραρίσκω folding 0.00628516
θεειόω purging 0.314107
εὖ folding 0.00135754
ἔχω folding 0.000210586
ὀρσοθύρη postern 1
κράς four-fold 0.00802827
τετραθέλυμνος four-fold 0.478415
τόφρα aim 0.0105775
δύω2 girded 0.0086214
εἰσαφικάνω girded 0.000519529
εἶμι store-chamber 1.17454e-05
ἀποκινέω door 0.637899
τετευχῆσθαι clothed 1
ἀγχοῦ started 0.0124558
εἰσαφικάνω started 0.180718
μάλα started 0.000652476
προπρηνής stab 0.122091
ἤ stab 0.000146295
δολιχόσκιος stab 0.00809959
ἀνέλκω stab 0.0712003
εἴκω door 0.0923597
τινάσσω spurned 7.36206e-07
λακτίζω spurned 0.239672
θρόνος spurned 0.00117294
ἔραζε spilt 0.0249651
ἀπό spilt 0.000176542
καταπίπτω spilt 0.0091742
ἁμαρτῆ instant 0.212879
ἅλλομαι two-edged 0.000759718
ἀκαχμένος two-edged 0.090466
ἀμφοτέρωθεν two-edged 0.0496721
βοή alarm 0.00923567
ἀντέχω tables 1
παράκειμαι open 0.373118
ὑπερβασία transgression 0.0613738
λήγω transgression 0.0154115
ποθεν add 0.0545667
ἀμφίς eaten 0.0191232
σός spare 0.00132045
βασιλεύω settled 0.119073
ἐπιάλλω deeds 0.997306
πέλω blame 0.0111614
θυοτε fast 0.0012299
θυοτε cords 2.24227e-08
ὑπομνάομαι covertly 1
βίαιος maidservants 0.146796
δμωή maidservants 0.00472486
ὑπότροπος covertly 0.0506137
ὀδύρομαι arisen 5.06622e-06
φάσκω covertly 0.0219599
νοέω cords 0.00345044
κατακτείνω willfully 0.00033481
ἐθέλω willfully 0.000788853
ἴσκε willfully 0.707107
ἀντιάω contests 0.0390735
παπταίνω gazing 0.0612409
πάντοσε gazing 0.0381348
ὅπως uproar 4.94419e-07
ἔραζε spilled 0.124274
χέω kick 0.00140888
πλήσσω kick 0.00448854
ἀπό kick 0.000220077
ἀνδρόμεος jet 0.069919
παχύς jet 0.0165073
αὐλός nostrils 0.16334
δαιτυμών think 0.124241
ἄμφωτος two-eared 1
ἀναιρέω two-eared 0.0218137
ἦ two-eared 2.29666e-08
πόρω strike 0.00590713
τυγχάνω strike 0.0192518
ἔμπλεος poured 5.9032e-06
ἅλλομαι rags 0.0203052
βάλλω girt 0.00102326
φίλος girt 0.000975613
δαίτη accompaniments 0.0183917
γίγνομαι alarm 0.00190683
ὄνομαι scornfully 0.0345683
τανύω stringing 0.00468967
κάμνω stringing 0.00415835
δήν stringing 0.00335033
οὐδέ stringing 0.000655417
ἁμαρτάνω stringing 4.87478e-07
τις stringing 9.24608e-05
ἐλέγχω sits 0.410782
χαλκοβαρής weighted 0.0185663
ἀμπερές weighted 0.0422728
στειλειή weighted 1
πᾶς weighted 6.8726e-05
στοναχή wail 0.0779612
πῆχυς bridge 0.05474
ἆρα bridge 0.00344871
καίω quiver 0.00911695
καίω stored 8.39337e-06
ὅτι2 crooked-counselling 1.20262e-07
τρέπω color 0.00427515
πᾶς changed 0.000458219
ἄρα color 0.000423609
εἴκελος tone 2.38584e-05
εἴκελος swallow 0.0283906
χελιδών swallow 1
σπουδή effort 0.0307615
ἔντερον sheep-gut 0.0299872
ἀμφοτέρωθεν sheep-gut 0.00725191
χορδή sheep-gut 1
πάντῃ scanned 0.0108938
βαστάζω scanned 0.466172
ἀντιάω measure 3.08735e-06
ὄνησις just 1
θυοτε vagabond 9.78479e-05
κακός rascally 0.000445762
νωμάω rascally 0.0107227
ἐφορμάω rascally 0.0191878
οἴκοθι bows 0.259048
θηητήρ shrewd 1
ἀποίχομαι eaten 0.0569706
ἔδω eaten 0.0249618
ἶψ worms 0.997049
ἔνθα trying 0.000506814
πειράω trying 0.00315138
ἀναστρωφάω trying 1
πάντῃ trying 0.00992958
εἰσοράω gazed 0.0187304
εἰς byblus 5.35807e-07
θύρα byblus 4.86803e-08
ἐπιδέω byblus 0.194808
ἆρα byblus 0.00333847
ὅς byblus 7.02078e-08
ἔπειτα barred 0.000841069
θύραζε barred 0.00646935
ἅλλομαι barred 0.0126445
κλείω barred 0.211002
ἄρα barred 1.81684e-06
χαλεπός bitterness 0.00402071
χαλεπός relaxed 1.74495e-07
ὁπλότερος pelt 0.102917
ἀπειλέω threateningly 0.489662
αὖ swine 0.00441844
θυοτε authority 7.44635e-05
καθάπαξ outright 1
οὔτι islands 0.0282655
ἀρνέομαι deny 0.134905
εὐκλεής report 0.149958
ἔλεγχος reproach 0.311661
ἵημι iron’ 0.00134319
ἀσκητός fashioned 0.72305
ἄγνυμι think 0.0572557
χείρ strings 0.000625076
ἐντανύω strings 0.0367894
κουρότερος younger 0.312195
μηδέ strive 0.0558287
ἐπητύς kindness 1
οἰνοβαρείων being 0.00165328
ἀνήρ feud 3.96037e-05
ὅς feud 4.10113e-05
ὀχέω curse 0.0378984
ἑός curse 8.6025e-05
ἀναίσσω shorn 0.0199207
κατά peirithous 0.000292836
μαίνομαι madness 0.0365302
ἔρχομαι lapithae 0.000331196
Λαπίθαι lapithae 0.336144
εἰς lapithae 1.05326e-05
Κένταυρος centaur 0.142973
πίνω drinks 0.00316257
αἴσιμος drinks 0.0133424
αἱρέω gulps 0.000224864
μιν gulps 6.0021e-05
τιτρώσκω wounds 0.312779
ἀμέρδω lackest 0.231438
ἐγώ undisturbed 4.67123e-05
μετά undisturbed 0.000440605
ὑπερφίαλος feastest 0.00805615
ἕκηλος feastest 0.0158042
ἀγαπάω feastest 0.172765
δείδω fearing 0.0083034
ἀκομιστία destroyed 1
οὖν libations 1.32787e-07
οὖν poured 0.00669591
μέγας herds 4.70402e-06
κατατίθημι pour 0.0192975
κατατίθημι quietly 0.00187813
τιταίνω bend 0.0493956
ἑορτή to-day 0.671073
μέν to-day 0.000477289
βία short 0.00360761
τοσοῦτος mourn 0.200131
ἄχος grieved 0.0134316
ἧ grieved 0.99971
σέλας warming 0.0251842
νωμάω warming 4.06756e-05
πέρ risen 0.000767571
κλείς fasten 0.0215937
αὐλή fasten 0.00956696
θύρα philoetius 0.0106066
ἀκήν remain 0.157448
προβλώσκω rush 0.383541
θύραζε rush 0.0388173
ἀραρίσκω close-fitting 0.0710695
εἶπον known 0.00161585
εἰσείδω seen 0.148438
θυοτε scar 0.000150033
ὀδούς tusk 0.0793562
ποτός ago 0.127732
ἐν scar 7.97874e-06
πιστόω assured 0.207642
ὀπάζω built 0.0282503
δμῶος desired 0.000147839
οἶος thralls 7.73334e-08
νημερτής certainty 0.00853195
νόος certainty 0.00202023
ἐπιβουκόλος herdsmen 0.0122771
μάλα suddenly 0.0010028
κεύθω something 0.0189246
μυθέομαι something 1.17016e-06
φθέγγομαι outside 0.0430905
ἠδέ outside 1.60783e-08
ἆρα outside 0.00825361
ἠδέ neatherd 0.000548108
ὁμαρτέω neatherd 0.191047
ἀρχός persisting 5.07878e-07
θάλπω warmed 0.474685
στέαρ cake 1
θυοτε cake 6.17411e-05
θυοτε melanthius 0.00024642
ἆρα goatherd 0.00504304
ῥυτήρ shoot 0.296806
γείνομαι honored 0.0311619
ηψπηεν forsooth 0.0075688
γέγωνα threateningly 0.0204864
λειώδης leiodes 1
ἠδέ desires 6.17108e-07
ἁμαρτάνω expectantly 0.0147128
ἄτριπτος unworn 1
Οἴνοψ oenops 1
αὖθις bow-tip 0.00115998
κορώνη bow-tip 0.068937
προσκλίνω bow-tip 0.544462
βέλος bow-tip 0.0030334
προφερής mightier 0.335504
ἀνέλκω dissent 0.107163
θάλαμόνδε store-chamber 0.392498
τανύω strung 0.0201359
ἆρα dissent 0.00252351
ἐπέλπομαι effort 0.192732
μεθίημι relaxed 0.0176603
ἵστημι orderly 7.62188e-05
εὔκοσμος orderly 1
εἷς dug 2.6515e-05
διά dug 0.00234771
φοινικόεις erect 0.163933
τίθημι erect 0.00105221
ἠμί scarlet 0.00715675
οὔτι mycene 0.033518
νῦν excuses 0.000204335
ἆθλον excuses 0.00719147
φαίνω excuses 0.00168239
ὄρνυμι dishonoring 0.00128541
ἀτιμάω dishonoring 0.0368049
μέλλω taste 0.00843208
μνήμων remember 0.635147
κατά decisive 0.000141001
ἐξέρχομαι decisive 0.00647565
ἄλλως lies 0.123794
κατείβω boors 0.091467
φρονέω boors 0.00326132
ἀγροιώτης boors 0.074805
ἄλλοτε neatherd 0.0149884
ἆρα eumaeus 0.0084555
ἀλλά desiring 5.56868e-05
μῦθος desiring 0.000391497
ἐμμενής its 0.883409
ἐμμενής without 0.00114981
χράω2 beset 0.0916285
ἀέθλιος battle-gear 0.453767
ὄγκιον chest 1
μάλα wept 0.00087356
αὖθι case 0.0203963
περίκειμαι surrounded 0.264493
αἴνυμαι peg 0.0570652
πετάννυμι key 2.27938e-05
θύρετρα bellowed 0.02576
ἠύτε meadow 0.0148865
ὀχεύς bolts 0.102428
δαίνυμι undisturbed 0.00615451
ἀπολύω handle 0.0857191
μιν memorial 0.000118992
φορέω memorial 0.00707448
αὐτοῦ memorial 0.00196667
ξενοσύνη loving 1
ἆρα eurytus 0.00734084
πρίν eurytus 0.0031796
ἐρῶ asking 0.0114645
ἐπιίστωρ stout-hearted 1
μέγας stout-hearted 0.000172881
ἵημι pounce 0.00066034
οἷος excuses 0.00098118
παιδνός youth 2.60009e-05
παιδνός embassy 0.370081
πολύς embassy 6.88566e-09
νομεύς shepherds 0.08808
ὀφέλλω owed 0.00637532
χρέος collect 5.29944e-06
μετά collect 0.00137352
δαίφρων ortilochus 0.0116286
Μεσσήνη messene 1
ἐν ortilochus 2.69678e-05
ἐπιείκελος eurytus 0.0915441
ἐπιείκελος iphitus 6.4011e-06
Εὐρυτίδης iphitus 1
τυγχάνω iphitus 0.0404319
ἐνέζομαι groanings 3.86312e-06
κειμήλιος treasures 0.81275
ἔσχατος remote 0.392594
θάλαμόνδε store-room 0.607502
ἔπειμι handle 1.02515e-05
κώπη handle 0.189877
εὐκαμπής key 0.769209
ἑός stairway 0.000109969
προσβαίνω stairway 1.13884e-05
εἰσίημι resting-place 1
μέλλω graceless 0.000760713
ἀχάριστος graceless 0.125741
ἱερεύω beasts 0.0390535
ἄντηστις icarius 0.994361
προσδέρκομαι watched 0.719491
ἀλφάνω sicilians 0.103085
Σικελός sicilians 0.211385
εἰς sicilians 1.42308e-05
βάλλω sicilians 0.000307598
ἀνίστημι prophesy 0.0012253
ἔμπαιος works 0.592237
ἐπίμαστος filthy 1
ἔχις filthy 1
ἄλλος unlucky 0.000211308
τις unlucky 0.000104711
ξένος2 guests 0.201644
Πείραιος piraeus 0.116344
εἰς piraeus 2.28766e-05
ἔξειμι insult 0.664254
ὀπάζω guides 0.0129431
θύραζε convey 0.00953351
ὄρνυμι servants 0.00185924
ἐκπέμπω convey 0.221076
δόμος convey 0.00447529
αἶψα convey 0.00484955
θυοτε hovers 1.05138e-05
ἀχλύς hovers 0.0539138
ἐξαπόλλυμι hovers 0.239738
Ἔρεβόσδε hasten 0.999985
ἵημι ghosts 0.00264643
πλέος ghosts 1
τοῖχος rafters 0.00270236
ῥαίνω rafters 0.168376
οἴομαι spirits 0.00759825
αἱμοφόρυκτος bedabbled 1
ἀλλότριος bedabbled 0.0158598
γναθμός bedabbled 0.0732711
νόημα awry 0.0221168
παραπλάζω awry 0.212586
δίεμαι compulsion 0.283692
ἀέκων ashamed 0.0089407
νέμω heritage 0.0190186
χαίρω enjoy 0.00908901
ἴσχω restrained 0.0119632
τόφρα restrained 0.00561247
δόμονδε restrained 0.0425272
πολύφρων restrained 0.0328235
φημί perchance 0.00162053
ἐάω die 1.76435e-06
δυσμενέων wills 0.447073
ἐρύκω restrain 0.0107335
ἀεικία warn 0.83332
ἐνθάδε instead 0.00171975
ἀμφιπονέομαι instead 0.259522
ἀντί instead 0.0337269
ἄν instead 2.54562e-07
σαρδάνιος grim 1
ἦκα smile 0.101229
παχύς hoof 0.0151534
πούς hoof 0.00332461
ῥίπτω hoof 0.0375168
λουτροχόος bath-woman 0.294315
αὐτός bath-woman 0.000174672
δίκαιος rob 0.000353406
ἀτέμβω rob 1.21291e-05
ἐπέοικε meet 0.284828
μεταυδάω haughty 0.00269123
μνάομαι wooed 0.12697
θεσπέσιος wooed 0.0213474
Κτήσιππος ctesippus 1
λαγχάνω received 0.0209099
πέρ received 0.000363548
παύω silenced 0.0098737
ἤδη silenced 1.99669e-07
ἀγορεύω threatens 0.00206361
ἀπειλέω threatens 0.510338
μάλα threatens 0.000444348
θυοτε arise 9.77123e-05
μή rebukes 1.08887e-07
ἵνα rebukes 0.00149224
ἐπίσχω rebukes 0.205849
ἀπέχω blows 0.0400063
κερτομία revilings 0.673777
οἰνοποτάζω lords 0.447673
ἀεικής stool 0.00676291
εὐσταθής well-built 0.908861
νωμάω stool 0.0178708
Μελανθεύς melanthius 0.737221
νέμω handed 0.0391275
συνθέω liking 0.000182024
συνθέω ours 0.999818
τρήρων timid 0.0629552
θυοτε obey 1.07899e-05
ἐκτελέω ended 0.0210416
ἐπιβουκόλος cattle 0.356335
ἐπιβουκόλος herdsman 0.467296
κοιρανέω here 0.223891
ὁρμαθός bats 1
ἐπί confirm 4.85367e-05
ἵκω confirm 0.00496314
γιγνώσκω seemest 0.00524671
βουκόλος neatherd 0.662643
θυοτε neatherd 0.000176853
θυοτε scattering 2.26116e-05
ἀλλότριος charge 0.0856849
ἐπιδινέω revolving 0.100448
ὄπις tremble 0.239762
μέγαρον tremble 0.00111589
εὐρυμέτωπος broad-browed 0.0340264
ἄλλως broad-browed 1.15054e-05
ἀθέσφατος broad-browed 0.0378288
γίγνομαι broad-browed 0.000715004
τυτθός boy 0.0261979
λαῖφος beholds 0.44963
τοιόσδε beholds 0.00883695
οἴομαι beholds 0.00233829
ἰδίω sweat 0.000162155
λευγαλέος pains 0.000769853
μίγνυμι misery 0.00681483
μίγνυμι bringest 0.000359254
γείνομαι bringest 0.0135017
ἦ therewith 0.00170859
ὀιζύς threads 0.0338688
δυάω far-wandering 0.663503
βασιλεύς royal 0.00882045
αὖτε questioned 0.00205761
διάγω ferrymen 1
γε ferrymen 0.000480994
ὁ ferrymen 1.30868e-08
ἄρα ferrymen 0.000245254
πορθμεύς ferrymen 1
Φιλοίτιος philoetius 1
θυοτε feasts 0.000103502
κόσμος decent 0.0250668
πέρ begging 0.000519884
πάντως tis 0.851669
θύραζε begone 0.00929174
ἔξειμι2 begone 0.21536
καταδέομαι tethered 0.395365
λώβη vengeance 0.0753941
κατάγω boars 0.107574
σίαλος boars 0.179044
δρηστήρ acheans 0.00270203
δρηστήρ serving-men 0.169571
εἰς serving-men 3.36948e-05
θυοτε feast-day 3.36794e-05
ἑορτή feast-day 0.328927
ἐπεί feast-day 0.000130415
ἄπειμι absent 0.0204039
κρήνηνδε spring 1
ἀμφικύπελλος mixing-bowls 0.023891
καθαίρω sponges 0.103129
τάπης sprinkle 0.0976152
θρόνον sprinkle 0.0907696
ῥαίνω sprinkle 0.277745
κορέω sprinkle 1
ἐφίζω flung 0.274981
ἐθέλω blankets 0.00126081
ὑποστορέννυμι strew 1
δέμνιον strew 0.0628896
πεινάω hunger 0.325422
θυοτε blame 6.34193e-09
ἀτιμάω unhonored 0.0193751
τε unhonored 9.95612e-05
γε honours 0.000687392
ἐμπλήγδην honours 1
πινυτός mothers 0.251579
αὔτως uncared 0.00390721
ἦ uncared 0.000321821
εἶπον eurycleia 2.29791e-05
εὐνῆθεν rose 0.429501
ἀνακαίω kindling 0.166097
κατά kindling 1.17422e-06
δειπνέω sup 0.0718315
ἐλύω barley 0.096365
θυμαλγής latest 0.0408526
ἐρατεινός latest 0.017684
ποθι nowhere 0.0182443
τεύχω weakest 0.00147664
ἀλέω weakest 0.0736969
ἧμαι mills 0.00175888
ἕ mills 5.31252e-05
ἀλετρίς mills 1
τέρας omen 0.0745971
φήμη awaking 0.12371
λίαν awaking 0.00508065
κακόω afflicted 0.0995715
ὑγρός awaking 0.0143479
πῆχυς gazed 0.0976151
συναιρέω fleeces 0.677363
ἤδη mused 0.00137855
κατά mused 9.03116e-05
δοκέω mused 0.00948544
ἔπειτα mused 4.61812e-09
συντίθημι wept 9.47919e-07
ὕπαρ last 0.742556
ἀμφικαλύπτω envelops 0.0159933
ἦτορ distressed 0.00896941
νόημα gladden 0.00886164
εὐφραίνω gladden 0.0357288
ἀφικνέομαι gladden 0.00329591
ὄσσομαι gladden 0.0409802
ἀμφιπολεύω erinyes 0.293168
ἀμμορία haplessness 1
τέλος accomplishment 0.0131926
αἰτέω accomplishment 0.0578658
κακός cost 0.00252644
κόρη storm 0.00737917
ἐργάζομαι handiwork 0.119261
μῆκος chaste 0.592817
ἀναιρέω pandareus 0.0377197
αὐτίκα fix 0.00490746
εἴθε fix 0.0242131
λυσιμελής loosens 1
μάρπτω loosening 0.0139195
εὖτε while 0.253103
θυοτε perils 3.30064e-05
ἤδη perils 0.00109478
ὑποδύομαι perils 0.0654455
κακός perils 0.000450506
πάννυχος perils 0.0442241
λόχος troops 0.0184426
πέρ troops 0.000204982
ἐξαναφανδόν openly 1
σχέτλιος obstinate 0.0152357
θυοτε obstinate 8.22742e-05
ὑπεκπροφεύγω bane 0.433885
μέγας harder 0.000473506
ʼὀδυσσεύς wiles 1.25318e-05
ἔλδομαι anyone 0.0605216
ἐγρήσσω wakeful 0.728779
ἔνθα paunch 0.000369718
οτηερ turns 0.000790135
καρδία steadfastly 0.0104622
πεῖσα steadfastly 1
ἦτορ chiding 0.00539452
καθάπτω chiding 0.041286
ἐξάγω thoughtest 0.0271387
ἐσθίω cyclops 3.48437e-06
ἀγαίομαι growled 1
μέμονα growling 0.0716459
ἀγνοέω bitch 0.0289428
κύων bitch 0.00129462
ὑλακτέω growled 0.876636
ἔνδον growled 0.00692529
τεύχω deal 0.00507447
παρέχω merriment 0.0168381
εὐφροσύνη merriment 0.0561161
ἀλλήλων merriment 0.000731506
πάρος merriment 0.00125672
ἐγρηγορόων sleepless 1
ἱερεύω fleeces 1.148e-05
ἱερεύω undressed 0.0167616
στορέννυμι undressed 0.000402054
βοείη ox-hide 0.462055
εὐνάζω fore-hall 0.0810839
θυοτε bedstead 0.000284398
φύρω bedewed 0.230011
παρήμαι couldest 1
ἐγώ couldest 2.45576e-05
θυοτε couldest 4.41447e-05
ἐντανύω strung 0.126651
ὅδε wiles 0.000744077
θυοτε contest 0.000345633
πέρ dreams 0.00106686
νοσφίζομαι forsake 0.0770936
ἕπομαι forsake 0.00354819
ἑξῆς props 0.0218844
αἰνός strange 0.00792025
ἐντεῦθεν thence 1
ἔτυμος issues 0.0841395
ἆρα issues 0.00336461
θύραζε issues 0.00433314
πριστός sawn 0.230769
ἄν sawn 6.75972e-05
γίγνομαι meaning 0.00283253
ἀμήχανος baffling 0.038365
ὄνειρος baffling 3.62267e-06
ἀποκλίνω meaning 1
ὑποκρίνομαι wrest 0.0710656
ἧχι trough 0.0551255
ὕπαρ vision 0.257444
ἕζομαι roof-beam 2.95189e-05
κατά checked 0.000300066
ἀθρόος heap 2.4184e-06
ἄγνυμι beak 0.0221443
κατά beak 0.000146032
ἰαίνω warms 0.010352
σφεῖς warms 0.000119579
κτῆσις prays 0.0640008
ἀράομαι prays 0.0159532
χαλίφρων marry 0.69555
ἕως furthermore 0.026587
ἀπερείσιος notes 0.0133028
πόρω notes 0.00179481
μέγαρον notes 0.000453707
μνάομαι notes 0.0109211
ἄριστος notes 0.000649394
ἕπομαι trilling 0.000591488
ἔμπεδα sways 0.10846
ἀποπέμπω unhonored 0.00748422
ἔνθα sways 0.000202713
ὄρνυμι sways 0.000672483
δίχα sways 0.0258585
διά unwittingly 0.00172612
χαλκοῦς itylus 0.0199851
Ἴτυλος itylus 1
πολυηχής notes 0.222087
χέω trilling 0.000626181
θαμά trilling 0.0222515
ὅς trilling 2.28053e-05
πυκινός trilling 0.0066756
καθίζω trilling 0.00334907
ἵστημι leafage 0.00120152
ἔαρ greenwood 0.666666
ἀηδών greenwood 1
χλωρηίς nightingale 1
ἐρέθω disquiet 0.146521
ὀξύς disquiet 0.00272426
κῆρ disquiet 9.67376e-07
πυκνός crowding 0.00792527
ἀμετρητος measure 1
ὥρα pleasant 0.0239751
ἡδύς pleasant 0.0400629
ἕλκω nearer 0.00737309
πᾶς spilled 2.71376e-06
ποδάνιπτρον water 0.0489
θυοτε issue 0.000151251
σιγή matter 0.158369
καταλέγω ones 0.0353516
στερεός stone 0.0324499
στερεός unyielding 0.0569903
ὅτε unyielding 0.000625077
ἔχω unyielding 0.000546457
ὁπότε serving-women 0.00408979
ἀπέχω serving-women 0.0158962
ἆσσον closer 0.0174215
φάρυγξ feeling 0.496755
ἀμφαφάω handled 0.0993243
γιγνώσκω handled 0.00265164
γε handled 0.000578895
ἐκχέω spilled 0.197822
ἑτέρωσε tilted 0.0780111
ἄψ vessel 0.00116189
χαλκός vessel 0.00112615
κνήμη vessel 0.0184149
προσαίσσω clasp 2.45976e-06
θηρεύω hunting 1
πάσχω got 0.0174981
ὅστις story 0.00989664
οὐλή story 0.100878
εὖ healed 0.00330305
ἐπαοιδή skilfully 1
ἀμφιπένομαι carcase 0.110926
μηκάομαι cry 0.27876
διέρχομαι clear 0.181736
ἀντικρύ clear 0.0702802
οὐτάω aim 0.00880939
ἀίσσω gash 0.00362955
λικριφίς gash 0.192073
ὗς sideways 0.00224362
ἐλαύνω sideways 0.000744196
μιν charging 1.0645e-05
αὐτός bay 0.000131749
ἆρα bay 0.00252519
δέρκομαι bay 0.0203538
ἀντίος lair 0.000388075
ἔπειμι2 chase 0.134254
ἐπάγω chase 0.00145663
ἐπάγω pressed 0.415665
ἔνειμι plenty 0.0900622
κατακείω lair 0.0708424
λόχμη lair 1
ἐρευνάω scent 0.401829
αὐτός tracking 0.000255103
ἐπακτήρ glade 0.413423
εἰς beaters 7.26771e-05
πτύξ hollows 0.190577
ἔκτοσθε noise 0.000109344
προσβαίνω climbed 0.334822
προσβαίνω forests 0.0122026
ἠμέν hunt 0.0160854
εἰς hunt 2.39023e-08
Ἀμφιθέη mothers 1
τε amphithea 0.000321855
πόρω autolycus 0.0110662
πού parnassus 0.00482885
μητρῷος grown 1
ἡβάω grown 0.0454511
ὁπότε grown 0.00714602
ἐπώνυμος named 0.218496
πολυβότειρα fruitful 0.126329
ἱκανόω inasmuch 1
ὀδύσσομαι inasmuch 0.049203
τίθημι childs 0.000171665
εὑρίσκω childs 0.00169207
θυοτε autolycus 0.000297089
παύω finishing 0.00275188
φίλος finishing 0.000253343
ὀπαδέω befriended 0.0809901
ἅμα befriended 0.000304756
πρόφρων befriended 8.06223e-07
ἕ befriended 8.05305e-05
τε thievery 0.000218388
Παρνασός parnassus 1
ἔργον foreboding 0.00143527
οὐλή scar 0.899122
ἐγχέω plenty 0.291029
ἐξαπονίζω cold 1
παμφανόων wherefrom 0.0726198
ἐπιφρονέω note 1
Πηνελόπεια penelopes 0.00936337
ἅμα penelopes 0.000376847
αἶσχος insult 0.0701941
ἑός virtue 8.36247e-05
ξένος mock 0.0042112
ἐκεῖνος mock 0.00317578
ἀφαιρέω returning 0.0604896
ἕως prayers 0.0166152
ἀράομαι gavest 0.0247698
ἔχω god-fearing 0.000158335
θεουδής god-fearing 0.0592156
ἀμήχανος naught 0.000158818
ἀμήχανος can 0.2184
ὀλοφυδνός uttering 0.247228
ἐκβάλλω hot 0.0638139
κατέχω hid 0.05904
καταγηράσκω fortune 0.668207
βροτός fortune 0.00392863
περίφρων eurycleia 0.0831413
ἔμπας weak 0.0117783
ὀλιγηπελέων weak 0.217895
πρῶτος weak 0.0025854
ἔχω lovingly 0.00025267
π͂ας discreet 1
εὐφραδής discreet 1
ὧδε discreet 0.000827122
οἶδα true-hearted 0.00402423
ἐπιήρανος baths 0.999938
δῖος bright-throned 0.000369327
εὔθρονος bright-throned 0.0373131
ἀναμένω bright-throned 1
ἄω bright-throned 0.0629654
