kind	?????	1.83E-05
thee	??????	4.10E-08
thee	????????	8.28E-08
blood	???????	3.43E-08
herald	?????	2.65E-07
ctesippus	????	1.78E-05
is	???????	3.15E-09
for	????????	2.43E-09
yourselves	????	1.09E-06
entrails	?????	6.98E-06
answer	???????????	2.72E-08
might	????	1.97E-08
even	?????	5.72E-09
she	??????	3.02E-08
she	???????	2.39E-08
foot	???	7.73E-07
on	????	5.97E-09
i	??????	1.36E-08
going	????	7.69E-06
how	??????	3.83E-08
son	????	2.09E-07
it	?????	2.83E-08
home	????????	5.32E-08
hast	??????	1.66E-07
wake	?????	5.59E-06
nudging	?????	7.46E-06
summer	?????	4.91E-06
as	?	4.06E-08
again	???	8.72E-08
goes	????	9.11E-07
they	??????	4.79E-09
much	?????	2.86E-07
suffered	????	2.14E-06
hast	????	4.20E-07
me	??????	6.58E-09
did	????	1.72E-08
other	????	2.43E-07
body	??????	4.64E-07
dead	???????	7.84E-08
stored	???????	6.23E-06
stored	???????	1.98E-05
who	???	1.79E-07
me	?????	5.46E-09
yea	??????	3.01E-06
hereafter	????	3.29E-07
possesses	???????	1.55E-06
up	???????	2.95E-07
had	??????2	4.69E-09
at	?????	1.23E-08
me	??????	8.78E-09
whether	????	5.44E-08
fell	???	1.10E-07
render	????	5.48E-06
us	?????????	4.16E-08
woes	?????????	9.41E-08
lag	?????	0.000433161
out	?????	1.90E-07
ask	??	2.52E-06
by	????	7.00E-08
spread	???????	9.03E-07
lay	??	7.96E-08
lay	?????	2.05E-07
lay	?????	7.74E-08
do	???????	8.41E-09
enclose	?????????	4.55E-06
come	??	5.13E-06
after	?????	2.73E-07
this	????	3.24E-08
trees	??????	1.34E-06
beholds	????	1.21E-05
thou	????	1.72E-08
tales	???	6.89E-06
strive	??????	1.51E-06
your	???????	7.35E-08
—	???????	1.10E-07
yea	???	3.51E-05
she	??????	2.64E-08
accomplish	?????	6.47E-06
whomsoever	?????	3.55E-07
thee	????????	1.43E-09
gate	????????	5.29E-07
will	??	2.08E-07
hermes	????	3.39E-06
thou	????	4.51E-09
shall	?????????	3.36E-08
bed	?????	2.70E-07
i	??????	1.34E-08
me	??????	5.03E-09
an	??	6.75E-07
herald	?????	2.57E-07
herald	??	7.53E-06
dawn	?????	2.45E-08
weaving-rod	????	4.56E-05
then	???????	1.43E-09
crush	???	1.86E-05
thy	??????????	1.80E-09
thou	????????	5.29E-09
were	?????	8.16E-09
bound	??????	7.05E-08
and	???????????	2.02E-10
in	???????????	1.18E-09
no	???????	3.23E-09
but	??????	8.97E-10
herbs	????????	2.91E-05
wailed	??????	6.53E-07
to	????	1.22E-06
caught	?????????	1.95E-06
tumultuous	????	5.88E-06
with	??????	6.91E-09
glorious	??	4.81E-08
affright	????????	5.12E-06
rim	??????	6.55E-06
they	???????	6.30E-09
him	??????	3.72E-09
that	??????	5.72E-09
with	?????	7.42E-09
into	?????	2.75E-08
hast	???	7.29E-06
will	???????	5.87E-09
him	??????????	2.33E-09
should	?????	5.21E-07
mayest	??????????	6.37E-08
stood	??????????	2.59E-08
hath	?	5.09E-06
cast	?????	8.21E-08
of	??????	5.49E-09
smote	??????	4.52E-07
of	??????	1.27E-08
hills	?????	1.60E-06
horses	????	1.48E-08
all	??????2	5.05E-09
missiles	?????	1.89E-06
fell	??	1.49E-06
helm	????????	1.08E-07
for	??????	6.33E-09
didst	??????	6.07E-08
even	????	3.88E-08
methinks	????	3.87E-05
methinks	???	1.26E-06
methinks	??	7.91E-05
methinks	???????	1.00E-06
glorious	??????	7.47E-08
excelled	??????	1.30E-05
sea-faring	?????	2.79E-05
zeus	????????	1.81E-08
of	????????	5.86E-09
thereof	?????	1.16E-06
by	????	1.82E-08
war—	???????	3.89E-05
let	????????	1.50E-08
and	?????	5.20E-09
wont	?????????	1.29E-07
quelled	??????	1.61E-05
fore-most	??????	1.91E-05
him	???????	4.24E-10
it	??????	8.25E-09
cometh	???????????	2.58E-07
they	???????	6.85E-09
one	?????	9.52E-09
beside	???	7.52E-07
yet	?????????	7.17E-09
captive	????	2.33E-06
until	???	3.22E-07
strive	???????	3.11E-06
lo	????	1.22E-07
lo	???????	5.28E-08
lo	??????	6.76E-08
lo	????	5.34E-06
but	???	1.51E-08
spake	??????	2.68E-08
profit	???????	1.32E-06
it	??????	1.48E-08
lot	?	3.71E-05
glance	????	2.28E-06
care	????	2.66E-07
lo	NULL	1.33E-05
clad	???	3.29E-07
or	???	2.21E-08
forth	???????	7.26E-08
forth	????????	2.62E-08
life	????	1.41E-07
whether	???	3.24E-07
lived	????	2.62E-06
them	???	1.37E-08
amid	???	9.74E-07
mine	??????	2.20E-07
late	?????	2.97E-06
thy	???	2.09E-07
kings	?????	1.34E-06
come	??????2	1.32E-08
may	??????2	8.07E-08
come	??????	1.48E-08
we	???	3.09E-08
but	????	2.92E-09
therewith	?	3.18E-05
when	???????	1.34E-07
for	????	4.67E-09
me	???????	8.84E-09
span	???	2.93E-05
span	???????	1.46E-05
span	??	0.000899793
span	???	0.000248549
span	????	4.21E-05
span	????	0.000572848
span	??????	1.44E-05
span	NULL	0.00152292
for	??????????	3.96E-09
here	?????	3.88E-08
whomever	??	0.000396358
had	??????	1.86E-07
hold	????	4.97E-06
it	????????	2.89E-08
coverlets	?????	0.0611777
shall	?????	9.86E-08
will	??????	3.07E-08
thou	?????????	3.74E-08
to	?????	2.22E-08
bear	???????	7.76E-07
may	???????	4.02E-08
may	?????????	4.40E-08
or	????????	2.55E-08
on	?????	2.70E-08
great	??????	2.44E-07
great	????	5.98E-08
too	????	1.79E-06
too	????????	5.06E-06
drawing	????	0.212353
bow	????	0.0140337
with	????	3.61E-06
matter	????	0.0723367
if	????	0.00215655
bow	????	0.00765549
yea	????	0.0658697
issue	????	0.129074
gifts	????	1.28E-07
that	?????????	6.92E-09
kinsmen	?????	1.05E-05
as	???????	4.48E-08
making	?????	9.86E-07
him	????????	2.56E-08
wilt	????	1.29E-07
far	?????	2.03E-06
far	????????	7.80E-06
she	????	1.36E-08
they	???????	2.44E-08
so	????????	2.89E-09
marked	????	3.93E-05
marked	????????	2.75E-06
yet	?????	7.68E-08
said	????	1.31E-07
might	????????	3.47E-08
come	?????????	2.60E-08
threatened	???????	7.39E-06
men	????	2.74E-08
them	?????	3.15E-08
have	??????	6.49E-08
shall	????????	2.61E-08
our	????????	1.77E-07
at	???????	1.47E-07
fling	????	2.12E-06
kindly	????	1.57E-06
place	??	8.99E-07
raised	???	0.000825744
raised	?????	2.48E-05
took	???	5.86E-07
back	???????	9.06E-08
way	?????	1.51E-07
in	?????	3.03E-09
will	??????	5.59E-08
tops	?????	4.76E-05
on	????????	1.94E-08
we	????	1.03E-06
thine	???????	3.47E-07
two	????	4.33E-07
spread	?????	7.51E-05
my	???	5.10E-08
had	?????	1.46E-08
her	??????	1.35E-08
other	????????	0.000774985
accursed	???	3.38E-06
thou	?????	2.37E-09
will	????????	5.73E-08
for	?????	6.81E-09
home	????	1.83E-07
it	?????????	2.55E-08
cauldron	?????	2.21E-06
this	????	2.36E-06
her	??????????	2.30E-08
come	?????????	1.09E-07
come	??????	1.45E-06
saying	?????????	2.21E-08
may	?????	7.46E-08
cleansed	?????	7.87E-05
that	?????????	1.57E-08
toward	?????????	1.10E-05
toward	????	2.06E-07
then	???????????	1.20E-09
then	????????	9.12E-05
then	??	2.14E-07
cloth	?????	1.44E-05
thou	????	6.61E-08
pray	?????????	2.18E-07
above	??	1.29E-06
above	??????	9.85E-07
above	?????	5.77E-07
this	?????	6.97E-09
wife	???	9.79E-07
my	???2	4.91E-08
our	??????	5.33E-07
not	?????	6.24E-09
would	????	5.90E-08
them	?????	2.47E-07
part	???	1.16E-05
me	???	8.88E-09
but	?????	4.85E-09
strangers	??????	6.62E-07
peisistratus	??????????	7.51E-06
possessions	??????	1.53E-06
long	?????????	4.39E-07
after	????	2.36E-07
for	???????	1.82E-08
spoke	?????	1.25E-07
thy	??????	3.26E-08
gazing	???	2.77E-05
good	???2	4.61E-08
were	????????	1.79E-07
them	????	1.64E-08
was—forget	???????	0.00742994
fare	??????	0.000133879
fare	???????	3.35E-05
my	????	5.10E-08
for	????????	9.38E-09
unto	????	1.38E-07
shall	??????	1.01E-08
set	???????	4.60E-08
weaving-rod	??????	0.000494289
saying	?????????	9.08E-08
way	????	4.40E-07
way	?????	1.23E-05
themselves	??????	3.13E-07
no	???????	2.34E-08
end	??	6.76E-06
menelaus	???????	1.14E-07
do	????	3.22E-07
they	??????	4.50E-08
groan	????????	1.26E-06
bear	????????	2.02E-07
did	????????	1.41E-06
straight	?????	4.63E-07
thee	???????	1.13E-06
place	????	5.92E-07
me	??????	2.54E-08
yet	????	2.23E-08
gods	?????	1.87E-07
then	?????	1.52E-08
ye	?????	9.34E-07
ye	????	9.61E-08
others	????	7.27E-08
one	??????????	3.96E-07
or	??	9.95E-07
furious	???????	8.33E-07
by	??????	4.35E-08
rim	??????	3.86E-06
outermost	??????	1.58E-05
hath	?	7.38E-07
likewise	??????	1.59E-06
hurt	??????	4.14E-06
Nay	???	6.49E-07
thy	?????	3.19E-08
keen	????	0.000132847
not	??????	4.44E-06
homes	?????	7.93E-06
homes	?????	3.00E-06
tender	?????	2.04E-06
mighty	????????	5.42E-07
even	???	2.09E-08
thy	???????	1.12E-08
it	???????	8.05E-08
hosts	????????	3.54E-07
reason	?????	9.33E-07
fury	?????	1.77E-06
substance	?????????	1.86E-06
quit	????	0.000114729
company	?????????	4.38E-07
case	??????	1.83E-06
fleetness	????	7.76E-06
fleetness	??????	3.78E-05
bootlessly	?????	7.65E-05
mind	?????	7.62E-08
avoided	????????	1.41E-06
withal	??????????	2.04E-06
unto	?????	1.31E-07
dalliance	???????	2.13E-05
stood	?????	1.44E-07
end	???	1.01E-05
argives	???	4.88E-08
things	?????	2.12E-07
this	?????????	5.70E-08
had	?????	9.43E-09
then	????	2.77E-08
she	????????	2.08E-08
fall	?????	1.85E-07
sight	?????????	1.60E-07
thou	?????????	1.25E-08
man	????2	2.32E-08
cretans	??????	1.18E-06
cretans	?????	0.00595049
dread	???????	2.05E-07
may	???????	2.61E-08
may	????????	1.11E-08
are	??????	8.53E-08
spake	???????????	3.41E-08
evil	???	5.59E-07
he	?????	1.87E-08
grasped	??????	5.57E-06
grasped	???????	1.43E-05
should	???	1.52E-07
might	???????	4.91E-08
by	???????	4.48E-08
conquered	??????	0.000119723
their	????	2.88E-08
against	????	5.07E-07
flood	???????	4.75E-07
you	?????????	1.57E-07
surety	??	4.49E-06
chose	?????	1.65E-05
doth	?	2.40E-06
he	????	4.45E-08
their	???????	1.41E-08
their	????	1.44E-08
face	???	1.04E-07
continually	???????	6.94E-07
my	??????????	8.22E-09
fiery	????	4.30E-05
out	????????	5.26E-08
not	??????	3.85E-08
so	????	1.47E-07
your	?????	1.33E-07
me	??????	1.54E-07
minds	???????	1.20E-05
swiftships	???????	2.56E-05
sayeth	?????	0.000180364
recketh	???	2.37E-05
come—sore	????	0.000123753
come—sore	?	0.000152729
me	???????	1.21E-08
of	????????	2.11E-08
them	??????	9.93E-07
lot	???	5.37E-05
even	??????	1.78E-08
there	????????	2.20E-08
abide	NULL	2.20E-05
prowess	??????????	9.54E-06
many-benched	????	1.49E-05
seamen	?????	1.03E-05
were	?????????	4.43E-08
thy	?????	4.33E-08
shone	?????	3.84E-06
shone	?????	1.47E-05
season	???????????	1.36E-05
who	????????	1.50E-08
disobedient	??????????	0.000164013
beside	?????	3.42E-07
or	???????	2.80E-07
or	??????	2.87E-06
or	?????	1.04E-07
or	????????	0.000858043
days	????????	5.87E-07
reared	?????	8.72E-07
host	???	1.26E-07
as	???????	2.97E-08
what	??????	6.43E-08
no	??????	4.72E-08
relax	??	0.000164587
relax	???????	8.47E-05
if	??????	4.88E-08
holding	?????????	7.87E-08
them	?????	3.22E-08
here	????	7.76E-08
has	????	8.45E-08
beam	????	2.06E-05
but	???	3.70E-09
all	????	1.94E-08
be	??	2.14E-08
straight	???????	4.98E-07
stirred	?????	3.66E-07
or	NULL	1.87E-05
himself	??????	6.67E-08
her	???????	1.02E-07
provide	?????	1.57E-05
who	?????	3.07E-08
betwixt	????	4.52E-05
hold	???	2.95E-05
hold	???	0.000470355
thee	?????	1.05E-05
sprang	?????	4.04E-05
son	????????	1.64E-06
came	?????	4.58E-08
might	???????	9.83E-07
wast	??????	1.21E-06
fill	????	7.36E-07
salt	???	1.65E-06
yourselves	????	2.51E-06
clothing	???????	2.40E-05
dost	?????	2.94E-06
mean	?????	1.28E-05
she	?????????	1.36E-07
has	???????	6.81E-07
our	????????	3.51E-07
full	??????????	1.54E-06
make	???????	5.58E-08
ladys	??????	6.13E-05
rule	????	1.48E-05
slay	?????	1.37E-07
like	????	8.83E-07
wooers	????????	6.44E-05
fellow	????	7.11E-05
dead	??????	7.42E-07
then	??????	5.68E-08
are	??????	1.26E-07
had	???	6.85E-09
hast	????????	1.65E-05
made	????????	2.31E-05
made	???	4.56E-05
might	???????	1.01E-07
shouldest	?????	1.01E-05
not	????????	8.71E-08
glade	?????	0.0310458
some	???????	2.04E-07
nay	????	5.82E-08
far	?????	1.14E-06
him	??????	2.35E-08
chambers	???	1.19E-05
chambers	????	1.64E-05
here	????????	1.07E-05
doorpost	???????	0.00077253
for	????	3.92E-08
aye	????	1.37E-05
will	?????	3.72E-08
into	?????	1.32E-07
him	?????????	9.62E-09
there	???????	5.14E-08
man	??	4.37E-07
man	????????	9.65E-07
me	?????	9.97E-09
for	??????	2.31E-07
too	????	5.24E-07
paused	??????	6.67E-05
somewhat	??????	1.32E-05
never	?????	4.62E-07
action	????	2.41E-05
action	???	0.000731787
now	????	1.51E-08
has	???	1.34E-07
townsfolk	????	0.00968893
lead	???	0.000116766
lead	?????	4.65E-07
meanwhile	?????	6.43E-07
meanwhile	???????	1.69E-06
meanwhile	???????	1.18E-05
meanwhile	???????	0.00381563
as	??????	7.25E-08
may	????	7.99E-08
their	????????	1.63E-08
with	????	5.58E-08
before	?????????	1.48E-05
return	?????	6.07E-06
return	?????	0.000743188
return	???	0.00840314
taken	???????	3.75E-06
as	????	1.31E-07
thy	??????????	1.66E-08
these	?????	1.22E-07
thy	??????	0.000235931
break	???	1.18E-06
obtained	?????	6.22E-05
had	??????????	5.99E-07
spirit	?????	1.71E-07
abides	????	7.18E-06
sped	??????	8.89E-07
us	?????	7.52E-07
side	???????	1.39E-07
might	???????	4.64E-07
subdue	?????	3.92E-06
often	????	6.90E-06
binds	?????	2.84E-05
—	?????	4.66E-07
their	???????	5.17E-07
my	???	1.80E-08
speak	?????????	5.21E-06
thy	?????	1.90E-08
sea	????????	9.82E-09
us	?????	3.84E-07
pasture	?????	0.000607093
a	?????	5.65E-08
thy	????	3.13E-08
even	????????	1.21E-08
stake	??	8.07E-05
would	??????	1.11E-07
unsown	????????	0.00325302
sought	?????	4.20E-06
by	???????	2.11E-05
but	????????	6.00E-09
as	??????	3.00E-07
from	??????	2.28E-08
somewhere	??????	7.56E-06
somewhere	???????	3.14E-05
things	?????	0.000118882
mock	??????	1.12E-05
his	?????	3.91E-08
with	?????	2.53E-08
thither	???????	2.95E-07
far	????	5.16E-07
saw	?????????	2.05E-07
passed	??????????	2.17E-06
erectheus	?????	0.000153097
thy	??????	2.76E-08
there	????	1.61E-06
there	??????????	1.45E-07
lies	?????	4.97E-06
behind	????	1.46E-06
is	??????	5.04E-06
greatly	?????	3.32E-06
prayer	????	4.77E-05
thought	???	9.90E-06
thy	???????	3.41E-08
by	????	6.68E-07
way	?????	1.92E-07
door	???????	7.68E-06
grief	?????	1.90E-06
would	??????	2.40E-08
quest	????	4.86E-05
our	?????????	1.65E-06
one	??????	6.61E-08
waiting	????	3.32E-06
trusted	???????	5.46E-06
kept	?????	3.01E-06
him	????????	7.38E-06
himself	?????	1.02E-07
show	????	2.43E-06
beside	??????	1.03E-07
me	?????	1.10E-07
night	NULL	1.49E-05
wave	????	2.11E-07
her	?????	1.49E-07
gear	??????	4.91E-05
meat	?????	3.06E-05
go	?????	5.44E-07
get	??????????	4.46E-07
weaving	??????	0.000359896
gathers	??????	0.00360974
have	???????	6.48E-07
nay	???	1.87E-06
which	?????	1.99E-08
as	??????????	2.59E-08
speakest	???	4.38E-06
thus	????????	6.45E-08
were	????????	1.51E-07
therein	????2	6.84E-06
homecoming	??????	0.491889
but	?????	3.77E-09
had	?????	1.58E-08
had	????????	7.75E-08
great	???	2.16E-08
our	????	7.03E-07
were	??????	5.37E-07
but	????????	1.42E-08
an	????	2.18E-06
whom	??????2	0.00147241
things	??	3.04E-06
at	??????	6.34E-07
sendeth	??????	2.30E-05
hectors	??????????	8.98E-05
men	????	3.36E-07
meet	???	6.13E-05
slay	???	1.41E-06
and	????	1.03E-07
our	??????????	9.75E-07
gift	?????	3.21E-06
another	???????	1.77E-07
to	??????????	5.50E-09
moment	?????	1.35E-06
folk	????	1.20E-06
by	?????	1.35E-07
dead	???????????	1.94E-05
beyond	????	1.90E-06
tender	???????	3.31E-05
against	??????	3.32E-07
were	??????	1.79E-08
was	?????	8.78E-08
himself	??????	5.92E-05
under	????	4.35E-05
under	????	5.86E-06
thee	?????	3.97E-08
should	????	1.09E-06
crouched	?????????	4.97E-05
fleeing	??????????	4.62E-06
upon	????	2.18E-08
strode	??????	7.39E-07
achilles	???	8.59E-08
deemest	?????	0.000103379
all	?????????	3.02E-08
do	?????????	1.79E-07
her	??????	9.90E-08
fight	??????	4.26E-06
time	????	1.77E-06
grasped	?????????	0.00152329
from	?????	1.39E-08
be	?????????	5.26E-08
nowise	????????	0.00352034
wax	????	3.56E-06
rouse	?????	4.49E-07
wrists	??????2	0.000672036
fashioned	?????????	2.48E-06
them	??????	4.36E-08
wrought	?????	5.47E-07
had	??	2.05E-07
unto	?????	1.21E-06
hour	????	1.11E-05
while	????	2.47E-06
bride	???	2.67E-05
i	????????	2.42E-08
their	?????	3.60E-08
sorry	?????	1.73E-05
was	??????	3.03E-07
grazing	?????????	2.61E-05
giving	?????	1.57E-05
giving	????	8.07E-06
head	???????	7.69E-08
may	?????????	1.99E-07
eyes	????????	5.61E-07
had	???????	4.10E-08
slew	?????????	4.70E-06
them	?????????	2.37E-08
thereby	??????	8.44E-05
deeds	?????	5.03E-06
seeing	NULL	1.85E-05
stout	????????	5.26E-06
of	????????	1.34E-09
drew	??	1.16E-07
loose	???????	2.76E-06
were	????	1.31E-07
cast	???	4.85E-06
saw	???????	2.36E-06
each	???????	3.31E-07
enter	????	1.59E-06
hand	?????	4.90E-07
whether	????	1.84E-06
maketh	??	0.000490537
now	????????	4.21E-09
within	???????	2.50E-07
as	???????	1.99E-08
again	??????	1.22E-07
even	?????	1.10E-07
up	????	8.53E-08
had	?????????	4.70E-07
had	????	1.05E-07
sittest	??????	0.000611029
sittest	????	0.000321853
teil	?????	0.000380265
upon	??????	7.87E-08
lain	????	4.40E-05
gold	???????	2.33E-06
they	????	3.19E-07
upon	?????	3.63E-07
there	????	6.91E-08
not	??????	1.25E-08
around	????????	2.04E-07
doom	????	4.52E-06
like	??	1.57E-06
neither	??????	0.00225815
make	??????????	3.48E-06
make	????	1.27E-06
measure	???????	5.88E-07
resteth	?????????	0.0276917
resteth	???	0.960285
call	??????	4.65E-07
still	????????	4.97E-07
you	???	2.86E-06
were	???	1.46E-06
in	?????	9.24E-08
whensoever	?????	2.05E-05
yet	??????	9.95E-08
should	?????	1.31E-07
men	?????????	5.08E-08
not	???	1.47E-06
or	???????	7.26E-08
driveth	????	5.23E-06
were	????????	3.92E-07
it	??????	0.00132238
was	?????????	5.87E-07
on	???	1.83E-08
straight	??~???	1.80E-05
abundant	????	2.18E-06
and	??????	1.08E-08
my	???????	4.87E-07
spoils	?????	3.13E-06
neither	??????	7.19E-08
thou	??????	3.79E-08
even	?????	4.12E-08
fiery	?????	0.00293214
urgeth	?????	1.47E-05
set	??	1.17E-07
way	?????	8.30E-08
they	???????????	2.91E-08
aye	??????	1.54E-06
renown	??????	7.60E-06
life	????????	5.76E-06
yet	????	3.31E-08
shamelessness	?????????	0.000763791
and	???????	5.61E-09
behold	?????????	1.13E-06
abundance	????	7.55E-05
myself	???	1.00E-06
she	????	2.80E-07
did	?????	7.03E-07
did	??	6.99E-07
thwart	????	3.33E-05
those	?????	1.14E-07
some	???????	5.22E-07
battle	??????	6.85E-07
now	?????	3.51E-08
now	??????	1.19E-06
upon	????	1.76E-07
thereat	????	1.87E-05
thyself	?????????	4.91E-08
utterly	?????????	1.09E-05
she	?????	5.35E-07
against	??	3.27E-06
to	???????	3.17E-08
it	???????????	1.76E-05
wouldest	???	2.45E-05
his	?????????	3.97E-07
yet	????	1.10E-05
forth	??????	0.000966396
who	????????	3.81E-07
amphius	??????	0.150124
selagus	????????	3.94E-05
forth	???????	0.000658006
great	???????	2.41E-06
out	?????	5.28E-07
him	???????	3.14E-08
pray	NULL	9.58E-05
while	????	4.55E-07
thy	????????	3.04E-08
thrust	?????????	2.83E-06
to	??????????	2.62E-07
were	??????	2.88E-08
him	????????????	1.32E-06
him	???????	3.06E-05
multitudes	?????	5.20E-05
come	????????	5.15E-06
amid	??????	5.10E-08
man	NULL	1.73E-06
footmen	????????	0.000943983
arrayed	?????	1.67E-05
them	???????	3.27E-07
relax	???????	0.212802
here	?????	1.63E-06
all	???	2.16E-07
heras	???	0.000254605
howbeit	???	1.46E-06
we	?????	9.86E-08
shall	??	2.90E-06
thee	??????????	6.14E-08
aloud	???????	1.41E-06
bowl	???????	1.96E-06
mounted	?????	4.62E-06
fair	??????	9.45E-07
noble	????????	4.48E-06
alexanders	??????????	0.000464553
come	?????	1.30E-08
got	???	0.000317589
neither	??????	3.90E-05
neither	???	1.98E-05
or	???	2.96E-05
idly	???	3.07E-05
our	???	2.50E-05
‘thou	????	6.06E-05
wish	?????	1.49E-06
word	NULL	1.17E-05
meanwhile	NULL	4.92E-05
your	?????	9.76E-07
shall	??????	4.30E-08
back	?????	4.11E-07
me	?????	4.58E-07
provide	?????	0.000268752
she	????	1.39E-08
constantly	???	0.000411061
by	???	8.52E-08
quick	?????	2.70E-06
front	???	0.00025985
men	????	7.31E-07
sad	?????	0.000847892
other	?????	1.01E-07
others	???	0.00649911
from	??????	3.25E-06
set	???????	8.99E-07
upon	?????	1.40E-06
came	???????	8.95E-07
nor	??????	0.000913991
men	?????	9.48E-06
so	??????	3.66E-07
evil	?????	3.07E-07
evil	?????	3.65E-07
evil	???????	0.00222748
out	???????	0.000783627
after	??????	9.19E-07
things	?????????	0.000244295
have	???????	3.14E-08
thee	??????????	6.10E-09
love	?????	4.56E-07
thee	??????	1.46E-08
time	???????	1.74E-07
gods	?????	0.000847422
gods	?????	3.65E-05
abroad	???????	1.30E-05
way	???????	0.002358
thy	???	9.32E-08
mean	????	4.48E-05
well	?????	0.00887754
has	??????	0.00440938
our	?????	5.85E-05
she	??????	7.76E-05
wail	??????	2.24E-05
back	????????	0.00172657
back	?????	6.87E-08
women	??????	3.40E-07
odysseus	????	1.23E-05
odysseus	?????	0.00145666
beneath	????	0.00200141
didst	?????????	0.00427582
their	???	1.33E-08
at	?????????	1.02E-07
at	???????	0.000946536
befits	????????	0.000519952
crimes	????	0.000477756
marked	???????	8.73E-05
by	???	3.99E-07
his	?????????	4.89E-07
in	?????????	9.17E-09
held	?????????	3.98E-06
women	?	0.000102824
strung	??????	6.81E-05
nay	????	6.98E-05
had	?????????	0.000113314
had	???	1.45E-05
while	?????	3.62E-06
fearing	?????	4.33E-05
my	?????????	3.22E-08
midst	?????????	2.95E-06
great	?????	0.000545939
not	?????	0.000247429
were	?????????	3.44E-06
put	??????	0.00385264
mother	??????	0.00269084
need	??????	0.0194761
know	??????	0.00227045
mainland	????	0.14503
turn	??????	0.00774374
more	??????	0.00268554
trial	???	0.0333518
would	???	0.00145016
long	???	0.0043526
whose	??	4.52E-05
laughing	???????	9.13E-06
on	??????	2.38E-07
things	???????	5.21E-07
understand	???????	2.96E-05
thy	?????????	7.03E-05
there	?????????	7.04E-08
then	????????	8.54E-08
wrath	??????	8.66E-08
wherewith	??????	0.000192515
may	???????	0.000287595
over	???????	6.19E-06
even	???????	2.22E-06
upon	?????????	3.92E-06
sees	??????	5.18E-06
my	??????	3.41E-05
upon	????	1.77E-08
back	?????	9.45E-08
toward	??????	5.28E-06
any	????	1.61E-07
nay	????????????	1.13E-06
nay	??????????	0.000132202
my	???????	1.03E-05
our	?????	0.00152762
seem	??????	1.24E-05
household	?????	0.000155674
all	????????	1.48E-05
ask	??????????	0.000135138
it	????????	4.05E-07
will	?????	4.98E-05
rooms	?????????	7.22E-05
rooms	??????????	0.000862789
rooms	????	0.347623
rooms	???????	0.00450375
at	?????????	8.85E-05
at	????	1.80E-05
it	??????	4.65E-06
else	???	3.00E-05
chambers	????	0.0071006
them	???????	4.03E-08
heretofore	???????	0.000172697
she	??	2.96E-06
wooers	???	8.22E-06
chamber	???????	0.0398307
meaningless	?????	0.000163161
amphinomus	?????	0.000104178
which	???	1.47E-07
which	????????	1.23E-05
as	?????	2.78E-08
odysseus	?????	6.69E-08
rise	????????	0.045216
there	??????	1.80E-06
are	?????	0.00124599
things	??????	0.00045921
methinks	??????????	0.000661261
man	????????	1.43E-07
feel	?????	0.000632219
nay	?????	6.74E-07
most	????	0.0243509
most	????	5.74E-07
led	???????	8.94E-08
seen	????????	0.000192644
action	?????	0.790042
strange	?????	0.00143268
till	???????	1.64E-05
hound	?????	0.00347932
for	??????????	7.11E-08
many	??????	0.000505019
their	????????????	5.63E-05
lead	????	1.39E-05
island	????????	4.33E-06
grievous	?????	4.29E-06
my	???????	1.07E-05
seeing	??????	4.41E-06
seeing	??	7.59E-06
seeing	??????	4.09E-06
did	???????????	3.36E-06
she	??????	7.65E-09
surely	??	5.57E-06
wealth	????????	0.000640659
harm	?????	9.98E-05
out	????	3.01E-06
gain	??????	0.00479308
behold	?????	3.36E-06
me	??????????	3.77E-06
no	???	2.99E-06
beseems	???????	0.0099242
do	????????	1.64E-08
me	???	0.000273985
me	?????	0.000310083
it	???????	0.000150842
droves	??????	6.18E-06
kindness	????????	4.03E-05
my	??????	3.29E-07
safely	??????	0.000291949
live	?????	7.11E-07
said	????	3.38E-06
even	???????	3.71E-07
meal	??????	1.53E-06
ye	???????	3.09E-05
send	???????	2.73E-05
have	???????	3.13E-05
fleeing	??????	0.0230411
same	?????????	5.15E-06
bid	?????	7.06E-06
them	???????	1.59E-07
we	??????	7.26E-08
keep	?????	1.40E-07
comest	????	1.26E-05
appeared	????	1.16E-06
maia	?????????	0.000572049
did	???????	9.80E-07
fatted	????	0.00031965
who	???	1.89E-07
haply	???	0.000249128
warded	???	0.00583323
delivered	????	7.04E-06
put	??????	0.000458949
straightway	??????	8.16E-06
at	????????	0.000344505
yet	????	1.15E-06
spirit	????	7.07E-06
old	??????	1.79E-05
has	?????	2.58E-07
questions	???????	0.000542618
sees	????	4.98E-05
indeed	???	0.0278425
been	???????	2.98E-06
two	?????????	8.94E-06
hecatombs	????	4.22E-06
offer	????	1.50E-05
weariness	?????????	0.000119948
one	??????	1.07E-07
heard	?????	0.00865008
which	?????	1.15E-05
are	???	2.11E-06
us	??????	1.53E-06
then	?????	5.48E-09
sink	??????	0.00026277
which	????	0.00199815
down	????????	0.000673079
shine	????	0.505368
then	??????????	1.52E-07
remaining	????	0.00212451
thy	?????	2.90E-08
writhing	??????	4.98E-06
on	?????	2.12E-05
driving	?????	0.0370147
sirens	???????	0.00276269
dim	?????????	1.34E-05
snatches	???????	0.975267
these	??????	1.22E-08
might	???????????	0.000389842
might	??????	4.00E-07
forth	????	0.00218809
some	???????	4.81E-06
no	????????	0.00151639
tower	?????	3.51E-05
aye	?????????	0.00835308
aye	????????????	4.53E-07
often	????????	5.13E-06
thee	???	1.10E-05
whereby	????	0.000918843
she	??????	6.24E-07
felt	??????????	0.215947
felt	???????	0.00612682
up	????	4.03E-07
up	?????	0.000380543
pray	????3	1.06E-05
pray	????	0.0278053
depend	??	0.000945116
moreover	????	0.000987865
high	?????	0.00755957
saw	?????????	2.39E-06
me	????	1.64E-07
up	???	0.000197389
when	???????	1.77E-06
ye	????????	1.48E-06
all	????????	9.46E-09
went	????	8.68E-07
mounts	??????	0.0226477
put	???	1.50E-06
another	???????	5.53E-06
spirit	?????	0.00643957
gavest	????????	0.0967297
last	???	2.09E-06
pondered	????	8.76E-05
one	??????	1.44E-07
comelier	?????	0.000676087
away	???	0.0106067
fell	?????	8.58E-06
their	?????	3.43E-08
some	?????	1.14E-06
render	??????	0.00317408
render	????	0.349048
begone	???????	0.000210487
me	??????	0.00017565
me	???	2.01E-05
me	?????????	8.18E-09
me	???????	1.07E-07
mixed	????????	8.76E-05
spoke	????	2.65E-06
give	?????????	0.00071468
give	????????????	5.48E-08
together	??????	1.67E-06
ships	??????	1.01E-07
now	????	8.96E-07
were	??????	1.66E-08
had	??????????	1.57E-06
outside	?????	5.81E-06
yet	???????	0.000924616
cheer	??????	2.21E-05
why	????????	4.42E-06
sea	????	6.54E-06
sea	?????????	0.00111433
sea	????	6.17E-06
thine	??????	0.00970938
pasture	?????	0.000109983
death	????	2.63E-07
flame	?????	0.0254892
eye	??????	9.92E-05
stake	????	0.0457587
verily	????????	0.00048502
meal	??????	0.000120935
twenty	??????	9.54E-07
lid	?????????	0.00028789
out	?????	0.0005842
among	???	7.59E-07
out	???	2.27E-07
at	?????	9.49E-07
are	????????	1.36E-08
halls	?????	3.24E-07
my	?????	1.33E-07
there	????????	5.67E-06
lie	???????	0.0146184
are	???????	7.53E-08
me	????????	0.000220015
me	???	5.82E-07
longer	?????	0.0116032
alike	?????	0.00165875
sailing	?????	0.138781
led	?????	0.00381244
mayest	???????	9.07E-07
when	????????	2.80E-05
odysseus	?????	5.45E-06
bade	????	3.38E-05
ask	??????	2.01E-05
are	????	1.02E-07
cytherea	????????	0.0160681
but	?????	6.52E-05
so	??????	1.08E-06
tale	?????	1.54E-05
now	?????????	0.000500538
by	???	9.40E-07
raising	???????	8.38E-05
foot-race	????	0.00233849
were	?????????	0.000379478
both	??????	6.23E-07
rooms	?????	0.610379
verily	?????	1.05E-05
said	???????	1.05E-06
ever	???????	0.000103334
would	????	8.95E-06
abundant	??????	3.31E-05
abundant	??????	0.0435855
keel	?????	1.86E-05
trusty	??????	0.0483396
her	??????	1.97E-08
either	????????	6.59E-07
who	???????	1.36E-08
meanwhile	??????	2.32E-05
passed	???????	0.0108356
runs	??????	1.45E-05
courtyard	????	0.00827637
end	??????	1.47E-05
no	????	3.48E-07
nor	???????	1.25E-07
about	????????	3.00E-07
about	????????	0.00179563
while	?????	2.83E-07
did	????????	0.00133314
smote	???????????	1.80E-07
there	????	3.45E-05
there	???	6.85E-06
houses	????	0.0392835
thou	?????????	8.08E-07
thing	????????	1.70E-06
has	??????	6.90E-07
men	????	6.38E-07
around	????????	2.86E-05
only	????	6.31E-05
only	????	0.00215396
craft	???????	0.000396361
greatly	?????	2.91E-05
she	????	1.09E-08
enter	????	1.04E-06
midst	????	1.78E-06
they	????????	6.24E-07
when	????	8.39E-08
which	???	3.39E-07
which	???????	0.00114411
heaped	??????	2.91E-05
o	?????	2.00E-06
toward	????	0.00142555
lest	???????????	7.73E-06
were	??????	5.14E-07
from	??????????	0.00014068
pondered	?????	2.69E-07
by	???????	3.95E-07
midst	??????	1.58E-06
as	??????	4.17E-06
should	??????	6.62E-07
art	???????	3.85E-08
unwilling	????	0.000807596
welcomed	?????	4.80E-05
above	?????	7.87E-06
and	????	1.45E-08
guidance	?????	0.000431684
guidance	??????	9.68E-05
grievous	????????	9.44E-06
abode	????	1.33E-05
hast	????	3.76E-06
hast	????	3.75E-06
whatever	????	0.0803339
abide	???	0.000300824
above	????	3.50E-06
impelled	??????	0.004596
she	???	1.20E-05
pray	??	9.31E-05
act	??????	0.000440477
displeasure	?????	4.21E-05
honor	??????	0.000116781
honor	??????	4.25E-06
wife	?????	0.000342673
had	???	6.18E-07
row	?????	0.000358118
free	????	0.000174071
so	????	2.22E-08
did	?????	9.99E-07
my	?????	3.97E-09
chiefs	???????	5.03E-05
things	??	0.000747867
things	??	0.000400919
things	???	0.0131776
ye	?????	0.000496467
have	????	4.27E-07
when	?????	1.54E-07
beyond	?????	2.06E-05
thought	????	0.0136441
heart	?	1.20E-06
were	???	5.75E-08
thrice	??????????	0.00045149
everlasting	?????	8.83E-06
everlasting	??	0.581762
everlasting	????????	0.249265
sight	???????	1.41E-06
two	??	1.10E-05
host	?????	3.80E-06
beside	????????	0.00300973
clear	?????	0.0655418
men	????	7.28E-08
beside	?????	7.67E-05
bade	?????	6.71E-07
me	??????	7.25E-05
marvelled	????	0.00026162
night	???	4.62E-06
part	??	0.000480488
have	?????	9.29E-07
death	?????	1.40E-07
men	?????	2.14E-05
at	???????	9.84E-08
thy	?????	9.85E-08
died	????????	1.94E-05
has	?????	3.21E-07
made	?????	3.20E-07
carry	????????	4.18E-06
gear	?????	2.95E-05
wine	?????	0.0002745
goes	????	0.00229947
flaying	??????	0.656448
within	????????	0.000188978
stout	??????	0.0801403
stout	?????	0.00153715
thine	?????2	2.58E-05
seawater	???????	0.000405256
you	??????	0.00202044
my	?????????	2.27E-07
case	???????	1.89E-05
odysseus	???????????	0.000710122
odysseus	????????	5.52E-09
odysseus	???????	5.46E-07
long	?????	0.00205917
especially	???????	0.000719706
what	?????	3.92E-07
answer	?????	1.01E-07
thronging	???	0.000305026
you	?????	2.39E-07
he	????	5.34E-08
has	?	2.21E-06
have	????????	5.72E-07
mourning	??	0.00300654
telemachus	???	3.04E-05
however	????	0.216416
let	??????	0.00023138
longing	????????	1.28E-05
even	?????	5.27E-07
will	???????	1.62E-05
might	???	0.00329329
child	??	4.28E-05
cruel	???????	4.15E-05
rolls	???????	0.00478376
another	?????????	0.000189718
at	????????	5.20E-07
these	??????	7.97E-07
himself	????	9.60E-07
own	????	1.08E-07
keeps	????????	0.000649179
therein	????	0.002429
due	????????	1.55E-06
toils	?????	0.000774296
me	??????	9.61E-07
ere	??????	1.51E-05
died	??	2.70E-05
howbeit	????????	5.08E-06
arm	?????	0.0491886
others	????	2.30E-05
great	??????	4.05E-05
ransomed	??????	0.000522593
ransomed	?????	0.000508923
ransomed	???	0.939412
ransomed	???	0.000150336
answer	????????	7.18E-06
knowest	???	0.0518153
knowest	????	7.50E-07
wish	????	2.50E-06
lusty	????	0.0684439
back	?????	1.81E-07
own	????	2.18E-07
be	?????	1.13E-06
own	?????	5.03E-08
me—that	???2	0.000505492
from	??????	1.91E-06
from	????	8.88E-07
from	????	1.24E-08
life	????	5.90E-07
bring	??????	2.05E-05
him	?????	1.49E-07
him	???	2.81E-06
him	?????	3.19E-07
him	?	3.00E-08
him	??????	4.23E-05
am	????????	4.14E-06
remembering	????????	8.40E-05
win	???	1.65E-05
these	??????????	8.30E-09
(three	????	0.273068
hut	??????	2.36E-06
thee	???????	4.22E-06
take	???????	1.64E-07
unto	????	1.45E-06
from	??????	3.57E-07
by	?????	6.50E-08
ye	????	8.63E-08
ye	?????????	0.00248488
ye	????	1.17E-06
then	????	2.46E-07
at	????????	8.66E-05
cup	???????	2.81E-05
took	????????	0.0012918
but	????????	4.20E-08
touching	??????	0.0128911
sayest	????	2.99E-05
hath	?????	1.07E-06
for	???	1.22E-05
upon	??????	4.05E-07
covered	?????????	0.0178442
way	???	1.94E-05
rose	?????	0.0107851
bare	?????	3.58E-06
swiftness	????	8.78E-05
even	????????	5.16E-09
me	???????	1.61E-06
gift	???????	0.000142978
these	??????????	3.10E-08
by	??????	9.47E-08
light	??????	6.13E-06
will	??????	8.76E-07
things	????2	4.11E-07
gaze	???????	5.26E-06
spy	?????	0.000178691
was	?????	1.41E-06
was	?????	5.71E-08
>lest	???	0.00156131
>lest	??	0.0585399
off	???????	0.00261904
peerless	??????	0.00634822
twain	??????	1.97E-06
soon	?????	0.000721903
soon	??	0.00117989
soon	??	0.0268424
soon	?	0.000903103
did	????????	4.73E-07
thereon	??	0.00840164
dead	???????	0.00118163
had	?????????????	3.03E-05
waelthy	????????	0.00117265
waelthy	?????	0.000166356
achilles	???	0.000165603
achilles	??????	3.03E-07
folk	??????	6.75E-07
themselves	???	6.03E-05
by	?????	1.54E-05
art	??????	1.80E-07
man	????	4.17E-07
man	??????	2.34E-06
naught	??	0.0184877
yet	????????	0.002793
will	????????	7.64E-06
hie	????????	0.0026937
made	???????	0.00176034
so	???????	4.61E-05
this	??????????	1.64E-08
thee	??????????	0.000473603
my	??????????	7.41E-07
yet	??????????	0.000670246
known	??	6.75E-05
do	???????	2.00E-06
unto	????????	5.10E-06
do	????????	3.67E-06
latest	???????	0.0061548
slay	??????	4.01E-06
upon	????????	2.80E-08
mightiness	????	0.00195556
them	?????	1.89E-07
foe	???	4.30E-06
hadst	???????	0.000118574
hast	????????	9.25E-08
for	?????????	1.26E-06
stood	?????	8.59E-06
she	?????	1.70E-07
she	?????	3.51E-07
bearest	?????	0.00180752
bearest	?????????	0.174548
plea	??????	0.0275161
plea	NULL	0.370027
tamarisks	??????	1
then	?????????	5.94E-08
against	???????	1.28E-06
against	???	0.00823215
made	??????????	2.12E-05
twain	???	0.000108709
been	??????	8.00E-07
None	?????	0.00279954
None	???	0.00150053
for	????	4.39E-07
backward	????	0.000462626
slay	??????	1.02E-06
robbed	????	0.010144
had	????	5.09E-08
robbed	?????	0.0165099
had	?????	8.28E-08
had	????	2.54E-05
for	?????????	8.78E-07
while	?????	9.84E-06
crouched	??????	0.344471
upon	??????	4.88E-08
has	??	0.00359161
exceeding	?????	6.02E-06
exceeding	????	0.0108477
thus	?????	9.32E-05
thrown	???	0.00513215
or	?????	5.39E-06
whirled	????	7.36E-05
before	??	5.31E-08
upon	?????????	8.92E-08
said	???	4.59E-08
achilles	?????	2.04E-05
among	??????	4.97E-05
fell	???2	5.60E-07
him	?????	5.05E-07
valour	??????	2.68E-05
but	????????	2.77E-09
turn	???????	0.000147982
wondrous	?????	6.99E-06
am	??????????	3.98E-07
thiat	???????	0.98077
parents	????	1.24E-05
slayest	??????	0.000397445
aeneas	?????????	1.08E-06
howbeit	????	1.23E-05
is	???????	3.75E-08
when	??????	1.35E-07
shouted	???????	0.00114513
loud	????	6.18E-05
may	???????	7.45E-06
my	????	1.04E-07
die	???	0.0102293
there	????	3.56E-05
many-ribbed	????	0.00463076
drave	???	2.92E-06
which	???????	1.91E-07
albeit	???????	4.03E-06
up	???????	1.88E-06
stout-builded	???????	0.244143
poured	?????????	3.80E-05
gone	??????	1.30E-05
were	?	3.66E-05
comforted	????	0.72679
husband	?????	0.0131651
tore	?????	2.28E-06
herd	??????	9.66E-06
proud	??????	0.0227104
them	??????	7.03E-08
Never	??	0.000393142
body	?????????	3.06E-05
took	??????	0.00096668
upon	??????	1.57E-08
while	????????	9.12E-06
between	????????	0.0649372
between	???????	1.99E-06
between	??????	1.12E-06
commandment	??????	1.90E-05
midst	?????	0.00115589
robbed	??	0.000169235
her	?????	5.43E-07
are	????	1.92E-07
bringeth	???	0.223743
they	??????	4.19E-08
forth	????	5.03E-08
thereon	??????	6.45E-05
these	????????	3.01E-07
howbeit	????????	0.000373453
howbeit	?????	3.92E-05
coming	?????????	0.000447927
each	????	2.41E-07
toward	?????????	6.41E-05
these	?????	1.31E-05
nigh	???????	3.36E-06
gathered	?????	2.56E-06
upon	??????????	1.28E-06
wheels	?????	0.0129644
wheels	???????	2.09E-05
wheels	??????	0.00340528
then	???2	1.04E-07
your	?????????	1.39E-06
us	???????	1.90E-06
upon	???	1.74E-07
aloof	????	0.000235768
it	????????????	3.59E-07
give	??????	1.15E-06
backward	??????	1.78E-06
never	????	1.27E-05
would	????	2.81E-07
there	?????	4.67E-07
for	????	4.34E-07
man	?????????	0.000157772
man	??????	6.27E-07
bride	??????	4.54E-05
they	???????	4.07E-07
holding	???????	5.58E-07
be	?????????	0.000484276
toward	??????	0.000273142
great	?????????	0.000439014
great	????????	0.00131718
their	????	4.31E-08
fleet	?????	0.00999573
saying	????????	1.09E-07
shafts	?????	9.05E-06
self	??????	3.65E-05
cut	??????????	0.000467153
aegis	????	4.69E-07
aegis	??????	0.000602748
vouchsafeth	?????	0.00581432
hearten	????????	8.97E-05
swooping	?????	0.00118376
swooping	?????????	0.0608106
brightness	????	0.0142758
destruction	?????	5.23E-06
it	????	5.16E-07
were	????????	4.22E-06
them	?????	5.35E-07
folk—	????	0.000853422
unto	????????	0.000307321
wax	????????	0.00141475
heartened	?????????	0.00884032
heartened	???????	0.0167107
heartened	?????????	0.116814
crying	?????????	0.0951662
crying	???????	0.000253047
for	???????	3.83E-05
whose	???????	1.58E-06
didst	?????????	2.10E-06
at	??????	1.46E-06
fighteth	????????	6.71E-06
warrior	??????	1.02E-07
hitherward	???	0.0100662
forth	????????	2.31E-06
forth	???	0.000201961
from	?????	5.32E-09
flowing	?????	6.15E-05
hath	?????	3.94E-07
sapling	???????	0.000120639
unheedful	?????????	0.507691
not	?????????	1.41E-06
then	???????	1.38E-06
him	??????	6.12E-06
while	?????????	5.45E-08
though	???	9.91E-08
thee	??????	8.01E-08
cars	??????	1.27E-05
cars	?????	0.103397
against	?????????	4.63E-06
hold	????????	5.48E-07
held	????????	5.23E-05
hold	???????	5.56E-07
bringeth	??????	6.43E-06
fated	???	0.000133164
didst	???????	2.51E-06
even	???????	0.000295368
gave	??????	0.00109127
should	?????	1.60E-05
rake	?????	0.00216601
thee	????????	0.000275968
therefrom	?????	0.00120304
therefrom	???	0.0171444
waged	????	0.000640496
drew	???	0.000354587
sarpedon	?????	0.000186923
defence	????	8.97E-05
cast	????	0.000213002
cast	??????	1.05E-07
cloud	???	0.0121037
many	??????	2.89E-05
crest	?????????	0.000505984
smote	??????	1.31E-06
having	??????	7.17E-05
each	?????	0.00304662
achilles	????	0.00302963
do	???????	2.82E-07
am	????????	0.000308042
am	?????	9.64E-06
other	???	0.000125561
other	?????	1.90E-06
hills	?????	0.000380143
away	??????	5.82E-05
horses	???	3.16E-06
heand	?????????	0.00909754
heand	????	0.0151314
was	????????	4.63E-06
at	???????	4.05E-07
still	????????	0.000215173
did	???????	1.29E-06
them	????	1.21E-07
fell	????	9.86E-05
fell	??	0.000186133
so	????????	2.21E-05
thee	?????	4.40E-08
thee	??????????	0.000254295
springeth	?????	0.000342636
dye	??????	0.321445
device	???????	7.48E-06
overpowered	??????	3.78E-05
hector	?????	0.00100668
were	???	0.000869728
maketh	???????	0.00276019
mindful	????????	1.94E-06
lo	???	3.88E-05
against	??????	8.34E-08
verily	?????????	5.07E-06
quiet	??????	0.00095535
domain	????	2.20E-05
then	???????	1.69E-05
zeus	???????	3.60E-07
zeus	???	2.76E-06
upon	???????	7.28E-07
she	?????	1.03E-06
Nay	???????	0.000806078
thee	??????	0.000447005
be	?????????	0.000204781
while	????	3.59E-05
stood	????	0.00288113
onset	????	0.00287028
exchange	??????	0.00638222
so	??????	1.56E-06
largest	??????	0.000119051
argives	???????	5.58E-07
argives	???	5.46E-07
couch	????	8.80E-07
again	?????????	2.63E-08
him	??????	2.50E-07
not	????????	1.88E-07
worthy	???????	1.09E-05
wilt	????????	3.38E-07
about	?????	6.12E-06
Now	???????	1.39E-06
you	??????	5.19E-05
thus	??????	2.82E-05
truth	?????	2.31E-06
yea	???????	0.0180753
no	??????	1.69E-06
no	???????	2.01E-07
no	????????	3.71E-06
no	???????	3.71E-08
arm	????	3.38E-05
even	??	2.28E-07
me	?????	2.34E-09
me	????????	5.84E-06
fighting	??????	1.93E-06
with	????????	1.20E-05
not	????????	9.55E-06
twain	?????	2.18E-05
fly	???????	1.07E-05
from	???????	2.84E-08
this	?????	4.95E-06
your	????	0.000123194
her	???	3.27E-08
exulted	????	0.000272263
also	????	6.62E-05
also	????????	0.000213741
joints	?????	6.12E-06
comeliest	????????	0.0751885
clad	???	0.0475119
sight	???????	4.19E-07
eagerness	?????????	2.14E-05
centre	?????	0.274162
get	?????	6.49E-05
in	???	2.26E-09
my	???????	1.06E-05
may	????????	3.39E-05
up	????	0.000497088
with	?????	7.51E-08
loss	?????????	0.000162407
stand	???????????	2.74E-05
him	????????	3.92E-07
myself	??	0.000306154
are	????????	2.68E-06
heart	?????	2.01E-08
dawned	???????	0.00116518
these	?????	4.50E-06
himself	?????	0.00227053
himself	???????	7.56E-08
wondrous	?????????	0.000383183
before	????????	0.000228227
apart	???????	2.80E-06
grasped	??????	0.0375469
fling	??????	4.51E-06
were	??????	8.30E-07
had	??????	0.000164942
soon	????	1.38E-05
might	?????	3.34E-08
could	?????????	1.31E-06
Now	????	2.04E-07
fear	??????	1.10E-05
aside	??????	0.000321777
fates	??????	5.85E-07
not	??????	0.000207823
nowise	??	1.17E-06
at	???	1.07E-05
down	??????	1.23E-05
they	???	3.66E-08
defense	????	0.0224422
defense	?????	0.420355
forward	????	0.0868837
not	????????	1.02E-06
were	???????	5.85E-08
driveth	???????	0.134275
lives	??????	0.00528516
drave	??????	3.95E-05
toward	????	0.00174422
toward	?????	1.95E-06
fleeing	???????	0.000287278
after	??????	0.000289965
swept	????????	0.00018789
helms	?????????	0.0685855
abundant	NULL	0.000294139
gods—	????	0.000437063
let	??	2.39E-05
them	???????	3.15E-07
Neleus	?????	0.0387382
between	??????	1.20E-06
between	??????	6.30E-06
sprang	???????	0.000152966
old	??????	2.38E-07
when	??????	5.05E-08
lodged	?????	0.0161781
hath	?????????	1.07E-05
on	???????	5.37E-08
thy	??~???	1.29E-07
up	?????	2.54E-06
up	??????	0.00113192
and	????	1.30E-08
beheld	????	4.87E-07
odysseus	???????	1.84E-06
on	????	6.98E-08
from	????????	4.66E-06
from	???????	7.51E-06
from	?????	1.64E-07
again	??????	0.00110483
towards	????2	0.031305
flow	????	1.15E-06
from	???????	6.68E-06
fore-most	????????	0.000149657
were	???????	6.63E-09
invincible	??????	6.58E-07
did	?????	3.87E-06
she	????????	8.67E-06
had	?????	8.35E-07
twain	????	0.00139957
love	????????????	0.0193807
doth	?????	3.74E-05
doth	?????????	2.65E-06
entering	???????	0.484527
tydeus	??????	6.73E-05
attending	????	0.000609492
attending	?????	0.00879348
returning	?????????	0.162091
thy	??????	4.62E-06
hard	????	2.12E-05
twain	?????	2.68E-06
spoils	?????	0.00324858
thee	???????	6.16E-06
good	???????	0.000219776
no	???????	1.39E-07
me	??????	2.67E-06
me	??????	0.00044117
me	?????	9.46E-06
keepeth	???????	1.64E-05
holding	????	0.00544298
as	???	1.52E-07
now	?????	1.25E-07
about	????	4.95E-07
spy	??????????	7.12E-06
brother	?????	0.000269603
had	???????	1.50E-06
as	???????	2.19E-08
themselves	???	1.96E-06
sake	????	0.0379917
sake	?????	5.38E-07
reverent	???	0.697969
carpet	???????	0.000109591
awaken	????????	0.000489798
those	?????	7.82E-07
those	???????	2.75E-06
myself	???	0.000126385
make	?????????	0.00710122
also	????	0.00299031
gladly	????	3.19E-05
me	????????	1.94E-07
thy	????????	1.45E-08
others	????????	0.000146244
others	??	0.00144423
others	???	4.50E-06
were	????	2.43E-06
by	????????	5.96E-08
Now	????	2.62E-06
yesterday	????	0.000156597
myself	?????	0.00257023
offereth	???	0.000150887
my	????	1.57E-06
make	????	5.51E-07
may	?????	1.27E-07
of	???????	0.00014181
some	????	2.45E-05
me	???????	1.03E-07
and	??????	2.85E-08
hideth	?????	0.000997954
hideth	??????	0.124013
hideth	??	0.00138611
precious	?????????	0.00361077
do	???	9.50E-07
thee	????	4.97E-05
our	???????	5.04E-08
distraught	?????	0.00027159
distraught	???????	0.000323654
furiously	????????	8.52E-05
soul	?????	1.44E-06
midway	?????	0.000733801
make	???????	0.00014233
wise	????????	0.000474156
people	????	0.00335948
take	?????	1.75E-07
ye	????	1.49E-06
yet	???????	1.70E-08
ever	????????	9.99E-05
such	????	2.64E-06
thy	????????	1.85E-08
shall	?????????	0.000522975
toward	???????	2.11E-06
hearts	??????	3.22E-07
howbeit	??????????	2.71E-07
time	???????	1.77E-05
guided	???	0.327371
but	??????	4.79E-07
thy	??????	1.38E-06
meats	????	3.04E-05
betook	????	0.000563171
did	??	0.0044606
them	????2	1.26E-07
shout	????????	4.59E-06
on	????????	0.000326069
those	??????	3.78E-05
settled	??????	5.12E-05
those	????	0.00749817
stay	??????	0.0126968
stay	????	5.88E-05
should	????	9.80E-08
seek	????	9.55E-05
until	???????????	1.33E-06
should	?????	1.79E-07
ships—	????	0.00645194
good	????	0.00598278
amid	???????	3.95E-05
are	??????	1.08E-07
well	NULL	1.01E-05
moreover	???	1.95E-05
vouchsafe	?????	0.000195835
vouchsafe	??????	3.45E-05
rejoiceth	?????	2.27E-05
even	?????????	5.59E-08
saileth	????	0.502934
upon	??????????	1.68E-06
is	????????	3.86E-07
one	????	0.00112258
seemeth	????	0.0034695
seemeth	?????	0.033085
stay	NULL	0.00739473
seamen	??????	0.000172121
seamen	???????	0.00884363
badest	??????	0.00135034
grieve	????	0.000577026
aloud	??	1.98E-05
be	?????	3.87E-07
in	??????????	7.19E-05
but	??	2.78E-09
Neither	???	0.000483448
speedily	?????	8.82E-07
if	???	5.76E-06
if	?	1.87E-06
if	?????????	1.89E-05
against	????	8.63E-08
away	??????????	0.0012525
thus	??????	1.67E-07
which	?????	5.20E-07
his	???????????	1.88E-05
bring	???????	1.28E-07
bring	?????	1.98E-07
bring	????	0.00489012
shunning	??????	0.211335
lady	?????	0.000678331
at	???	1.91E-06
one	???	8.57E-08
lived	???	0.0992866
about	???	3.58E-08
from	???????????	0.000426516
oft	???	0.75091
oft	?????	0.0176252
ares	???	2.23E-07
saying	??????	1.80E-07
everything	??????	0.0258902
everything	?????	0.0739811
about	???	4.54E-07
having	?????	0.0515642
hours	???	5.73E-05
golden	?????????	0.00383168
golden	?????????	4.54E-07
failed	?????	2.99E-06
was	????	1.98E-06
ware	??????	0.0027457
tlepolemus	??????	0.0432004
by	??????????	1.15E-07
their	?????	2.85E-07
greatsouled	?????????	0.0206516
lives	?????	0.000238609
whenso	????	0.0346055
threshing-floors	????	1
anothers	???????	0.00474921
beware	????????	5.23E-06
bitter	????	0.000524775
hands	????	0.00267121
could	????	6.92E-06
undone	???	0.0637503
those	NULL	0.000287235
win	?????	2.07E-06
their	???	8.82E-07
will	????????	2.07E-06
forth	???????	1.88E-08
as	????	2.11E-05
along	???	0.000121087
did	?????	1.04E-06
had	?????	4.65E-08
did	????????	0.00219334
led	??????	9.88E-06
might	NULL	5.30E-06
into	????	9.72E-06
passed	????????	1.96E-05
she	??????????	6.56E-06
on	??????	1.07E-06
if	?????	0.000420306
great	?????	7.02E-08
if	??????	4.68E-06
strong	???	1.62E-07
strong	?????	2.52E-07
strong	??????	7.23E-06
strong	?????????	2.26E-06
hath	?????	0.001679
doth	????	1.28E-05
such	???	0.000537879
heart	?????	4.17E-05
may	???	6.95E-07
rot	??????	7.06E-05
come	??????	6.96E-08
yet	??	1.99E-07
yet	??	9.59E-06
not	??????	7.04E-07
he	??????	5.68E-08
bear	?????????	1.39E-05
thou	?????????	3.78E-08
renown	?????	0.00472369
thou	??????????	2.97E-06
wise	???????	1.07E-05
still	????	6.27E-05
ox-eyed	??????	7.50E-05
at	????	6.33E-05
shall	???	0.000275651
argive	???	0.00875835
nay	NULL	0.000100312
thereon	????	2.96E-05
amazement	??????	5.79E-05
strode	?????	2.23E-05
strode	???????	0.000775299
then	???????????	6.33E-05
then	????2	1.80E-06
when	???????	7.43E-08
yonder	???	0.000347825
are	?????	0.00137316
she	???????	1.79E-07
her	?????	3.32E-05
deeming	?????	9.43E-05
ye	??????	0.00272052
win	????	2.02E-06
by	?????????	0.000200276
even	?????2	0.000225072
there	????	1.99E-05
a	?????	2.76E-07
march	??????	0.000349871
march	???????	0.00944717
joy	???????	6.99E-07
waters	???????	0.0453887
other	??????	1.18E-07
other	???	0.00248681
fearless	??????	0.00325875
anything—	????	0.000826998
olympus—	????????	3.68E-05
unto	NULL	4.79E-05
even	????????	2.83E-07
or	???????	2.61E-08
deed	???????	6.26E-06
odysseus	NULL	8.07E-06
hath	???	6.89E-06
cries	????	0.00166972
would	NULL	5.73E-06
saying	NULL	2.59E-05
our	?????	5.14E-07
shouting	??????	2.62E-06
forth	NULL	1.04E-05
hath	??	1.19E-05
its	??????	0.0134057
its	NULL	0.00186482
agamemnon	???????	0.000132246
took	???	0.00355766
took	???????	0.000138472
divided	????	8.27E-06
for	????	1.32E-06
do	???????	1.70E-05
do	??????	2.03E-06
shall	????????	1.07E-07
whether	??	3.45E-06
spoke	??????	0.000129126
upbraids	?????	0.000433619
word	????????	0.000119972
magnify	????	6.96E-05
brought	????????	5.46E-06
yet	NULL	1.25E-05
life	???????	0.00303651
zeus	???	6.81E-06
by	??????	1.46E-07
come	?????	3.61E-06
has	NULL	3.71E-05
all	?????	2.19E-06
did	????	2.95E-05
broke	????????	0.000701516
either	??	3.87E-06
away	???????	0.00232176
away	?????????	2.17E-05
away	NULL	1.55E-05
way	??	3.65E-07
gift	????????	5.11E-07
myself	NULL	0.00022345
yours	????	0.0377914
by	?????????	2.08E-08
back	?????	1.75E-07
sack	?????????	0.00184422
give	???	2.42E-06
give	???	4.78E-06
spoke	?????	0.00200925
destructive	?????????	8.15E-05
are	?????	1.26E-05
bid	????	0.000720231
beware	???	1.13E-05
men	??????	6.32E-07
among	????	0.00024905
her	????????	1.10E-07
or	?????	0.000115767
wisdom	??????	6.64E-05
at	???	1.57E-06
side	???????	6.32E-05
it	????	0.000130054
pray	?????	0.000194604
pray	????????	1.33E-06
before	????	0.00191689
hereof	????	1.23E-05
car—	????	0.0001288
spoken	????	0.000458301
speedily	????????	4.44E-05
did	????????	4.84E-07
soul	?????	0.000229685
hector	?????????	8.83E-08
land	??????	7.16E-07
from	?????	9.94E-09
amid	???????	0.00246119
saving	?????	0.597417
toiling	????	0.000134537
Neither	??	0.000444756
over	???????	0.000740823
opened	?????	2.74E-06
she	????????	1.32E-07
fearless	??????	0.00214845
too	????	2.45E-05
gives	??????	0.000536095
befits	?????	0.056287
—	????????	5.66E-07
sovereign	????	0.0100738
our	???????	2.60E-07
a	???????	0.00101434
verily	?????	2.69E-07
might	????	4.79E-07
honor	?????	6.67E-05
she	????????	7.49E-06
pain	?????	1.97E-06
mare	???	0.174951
of	????????	0.00028368
therefore	??	1.04E-05
raging	??????????	0.0510251
shrill	????	0.0211671
tomb	???????	6.94E-05
by	???????	1.40E-08
gifs	?????	4.27E-05
achaeans	????	4.99E-07
is	??????	3.45E-08
man	???????	8.95E-07
other	????	0.00187519
your	?????????	7.99E-05
though	?????	4.49E-06
yet	?????	0.000796289
do	????????	0.00120771
whom	??????????????	6.98E-07
whom	??????????	0.00105205
rams—	????????	1
grant	????	9.65E-06
it	?????	1.21E-08
have	????????????	4.84E-05
had	???????	4.38E-08
thy	?????????	1.09E-05
hopes	????	0.287843
back	?????	6.40E-07
weapons	??????	0.0106476
me	??????	9.91E-07
are	????	6.11E-07
shall	???????	0.000384917
be	?????	3.69E-06
my	???????	8.45E-05
kine	????	0.0121006
thy	???????	8.83E-06
wouldest	????	0.000874204
going	????	0.0692511
thy	???????????	7.00E-06
like	?????????	0.000499857
some	???	0.000513756
abides	??????	0.000107045
abides	????	0.000312556
thy	???????	1.23E-08
house	?????????	3.08E-08
some	?????	7.69E-07
seawater	???	1.46E-05
back	??????????	3.89E-08
have	???	0.00169606
thereon	??????	0.000106933
touching	????	0.000651669
when	????????	0.000279512
them	????????????	9.99E-08
host’	????	0.343195
brought	????	6.69E-05
not	??????????	0.0004806
who	??????	1.46E-07
ye	???????	1.72E-05
ship—	????	1
haughty	??????	0.237504
our	?????	1.55E-05
rolled	????????	0.211259
chieftain	????????	0.000359542
when	????????????	0.00022979
meanwhile	????	0.000590281
thine	??????????	4.09E-06
among	??????	0.000476909
or	?????????	0.000611357
strewed	???	5.73E-05
one	??????????	0.000239674
were	???????	5.29E-07
yet	????????	1.62E-08
this	?????????	0.000283691
this	????	4.84E-08
dwells	????	4.64E-06
but	?????	0.000250971
gods	?????	2.10E-07
after	?????????	0.00302139
art	?????????	0.00021763
is	????????	2.83E-05
are	??????????	0.000485581
were	???????	0.000288589
were	???	1.94E-05
board	???????	0.000617351
serve	???	0.000204919
chieftains	?????	0.0417171
nay	????	0.00590853
our	??????????	0.00266833
she	?????????	0.000140211
did	???	0.0037385
hast	????	1.15E-05
was	????	5.13E-06
thy	????	4.49E-08
pitifully	??????????	0.000565704
never	??????????	2.88E-07
work	??????	0.00995545
pallas	??????	0.00442738
bestride	??????????	0.240351
waged	????	4.19E-05
man	????	0.000761245
upon	???????	5.45E-09
smite	???????	2.07E-07
cast	???????	2.22E-07
which	???	3.38E-07
wherein	???????	0.0792794
leaving	?????	0.400253
forth	????	0.00186054
offered	?????	0.000173433
thine	??	7.63E-06
her	????	1.97E-05
side	???????	6.05E-06
agamemnons	?????????	0.41981
my	?????????	1.05E-07
therefore	????	9.92E-05
things	?????	0.0144058
though	???????	1.44E-06
aid	?????	6.59E-05
shed	????	0.009052
steadfast	??????	0.0274531
way	????	0.00415336
apart	??????	0.013529
praise	??????	0.152814
itself	??	0.272482
dark	????	0.0151904
sacred	????	1.03E-06
ithaca	????	0.00898969
like	????	0.0132844
yon	???	0.0589963
yourselves	????	0.0734856
wax	?????????	0.0266437
because	???	0.038904
well	????	0.005418
ever	??????	0.00229853
buying	????	0.996201
her	????????????	0.000143227
aught	???????	0.0399454
destruction	??????	0.0111725
puts	????????	0.507084
though	?????????	0.00069247
had	???????	1.13E-06
wants	?????	1
sir	?????	0.000423691
indeed	??????	1.67E-07
feats	???????	0.479652
midday	????	0.708325
towering	????????	0.267335
slain	?????	0.00801199
swerved	?????	0.261009
man	??????????	0.000493762
hector—	?????	0.0115902
achilhes	????????	1
‘hector	?????	1
range	?????	0.0421406
hearts	????????	4.95E-07
her	?????????	0.00111128
long	NULL	0.000473676
ye	?????	0.00399685
awe	?????	0.0680185
fierce	????2	0.0215857
by	????	0.000837753
wherefrom	?????	1.58E-05
did	?????	0.0022455
hindereth	????????????	1
upon	??????	0.000207801
fight	???????	0.00604975
always	?????????	0.048834
drag	????????	0.0329796
newly	??????	0.0267231
one	???????	2.02E-07
one	???	0.00121309
yet	????	1.03E-06
nowise	??????	0.028484
is	???????	0.000337499
scamander	????????	0.0741534
went	??????????	0.00138388
are	???	6.28E-07
not	?????	7.48E-07
goodly	????	0.00292646
priam	????	0.0167269
making	??????	6.03E-05
combat	???????	0.0953361
this	????	0.000308282
uttered	?????????	0.0221647
yea	NULL	0.000209218
if	NULL	0.000670007
may	?????	0.00246013
ah	?????????	0.00483271
into	??????	0.00212787
Nay	??	1.15E-05
save	????	0.0286943
thereat	????	0.0409639
our	?????	0.00176859
roused	?????????	7.82E-06
give	?????	0.00191518
span	???	0.241615
brief	???????	0.168367
myself	?????	0.00523497
order	???????	1.24E-05
enduring	???????	0.328099
firmly	????????	0.0775567
besides	?????	4.09E-06
shown	?????	0.421937
corn	??	0.448779
runs	??????	0.212799
same	????	0.215061
ere	????	0.017018
unscathed	?????	0.16596
pierced	?????????	0.0183042
black	????????	0.00279025
wholly	?????	0.0751308
passing	???????	0.116803
accomplish	?????	0.123035
put	????????	0.00337983
put	NULL	1.92E-05
gone	????????	0.0120824
fro	????	0.154415
ungentle	???	0.568388
labour	??????	0.0684968
sons	?????	0.00374505
thereon	????	0.0250044
feed	???	0.26517
fatal	?????????	0.641848
terror	???????	0.0955071
wild	???????	0.0375424
sorrow-laden	??????	1
low	????????	0.0256914
brought	????????	0.00391674
waelthy	???	0.998661
speedily	???????	0.0211355
most	????	0.0136349
song	??????	0.0692548
grazing	?????	0.200149
crooked	????	0.222458
whole	?????	0.0518647
fearlessly	???	1
bane	???????	0.0240537
midmost	???????	0.532563
sport	????	0.294157
blow	?????	0.0378065
coursing	??????	0.402229
aloud	?????	0.0050285
thundereth	??	0.388392
burnished	??????	1
resteth	????	0.0120235
knee	???	0.800973
wondrous	?????	0.0268572
its	?????	0.0215562
nowise	?????	4.47E-06
transgresseth	?????????	1
father-slayer	???????	1
revilings	???????	0.101802
spear	????	0.00382972
captive	????	0.664156
sayest	?????	0.0393942
light	?????	0.0132909
sacred	????	0.0173758
hated	????	0.183852
time	???	0.0136948
betake	????	0.844743
shelter	???	0.460975
vaingloriously	????	1
wives—	??????	1
themselves	?????	0.00288742
fling	?????	0.0423364
putting	?????	0.0926705
shrink	??????	0.0895866
declaring	????	0.808469
dry	??????	0.079796
No	???	0.0983398
upsprang	?????	4.35E-05
ah	????	0.0118315
Neither	??	0.00143558
Not	????	0.0299832
whereas	????	0.0884619
whereas	??	0.0556268
let	?????	0.00290445
willfully	??????????	1
shall	????????	0.00111324
mans	??????	0.0534533
nurse	???????	0.0206732
dies	??????	0.564983
thee	?????????	0.000456463
affliction	?????	0.63088
seat	??	0.0654041
albeit	??????	0.0405597
power’	???	1
abundantly	???	1
None	?????	0.804655
regards	?????	1
cried	????	0.076382
withal	????	0.0555364
play	?	0.631379
whereas	???	0.0459332
get	???????	0.0616037
saying	????	0.00277438
midst	???	0.0176697
gives	?????	0.120629
claims	???????	1
betwixt	??????????	0.10278
covenant	??????????	0.372183
time	??????????	0.00363392
sire	???????????	0.0297367
turned	??????	0.00741965
they	??????	0.00011989
one	??~?	0.000419923
terror	??~?	0.0326135
you	????????	0.000772755
from	???????	7.02E-05
off	???????	0.00116583
cut	???????	0.00286807
slain	???????	0.00085426
have	???????	0.000192225
about	??????	0.0013164
aloft	???????????	0.0688327
hurl	????????	0.0489824
thy	???????????	0.000335122
aloft	???????????	0.0772051
raise	???????????	0.0371498
one	?????	0.000260288
vying	?????	0.181231
my	??????	0.00061824
bringing	??????????	0.0203533
present	??????????	0.0202876
house	??????????	0.000511562
upon	??????????	0.000217098
trial	??????????	0.00769948
having	??????????	0.0160691
learn	??????????	0.0136052
shalt	??????????	0.00299981
perforce	?????????	0.0163056
grey-headed	?????????	1
themselves	??????	0.00486462
them	??????	0.000505525
drawing	???	3.90E-06
whether	?????????	0.00269539
abound	??????	0.5268
us	???????	0.000300366
days	???????	0.00212872
all	???????	6.14E-05
oath	???????	0.00382269
bring	???????	0.0027366
more	?????????	0.00238281
remained	??????	0.0448454
rest	??????	0.00404057
cries	????????	0.046941
brought	??????????	0.00114337
wickedness	?????	0.466303
monstrous	????????	0.0399308
saw	?????	4.30E-06
scaring	????	1
seemed	??????	0.0393318
nay	????????	0.00286121
their	?????2	0.000493304
hold	??????	0.00207546
for	???????	5.14E-05
then	???????	2.22E-09
sons	??????	0.00119566
slayers	??????	0.234391
we	??????	0.000489121
goes	??~??	0.0374127
fellow	??~??	0.0266758
return	????????	0.00338446
has	??~??	0.00146679
again	??~??	0.000676307
others	??~??	0.00167266
heavy	???????	0.00866804
arose	????????	0.0138818
placing	??????	0.281101
brought	??????	0.000583469
gathered	??????	0.00240052
once	??????	0.0019329
at	??????	0.000153177
all	??????	6.13E-05
terrible	????	0.00889695
telling	????	0.0454337
rumor	????	0.26507
gathered	??????	0.0138836
knows	???????	0.0290344
see	????	0.000762872
thought	????	0.00204473
ran	??????	0.0159413
your	?????????	0.00154666
dinner	??????????????	0.0443555
food	?????????	0.00553682
hands	?????????	0.000722325
set	?????????	0.000780284
about	?????????	0.000271305
were	?????????	0.000146999
nericus	???????	1
forever	???????	0.0467043
handmaid	???????	0.0409979
might	????????	0.000872432
messengers	????????	0.243357
send	????????	0.00838506
us	????????	0.00109228
caught	???????	0.0267382
where	??????	0.00154296
are	???????	0.000648836
times	??????????	0.0246744
ripened	??????????	0.318374
which	??????????	0.000264951
say	??????????	0.0014077
thou	?????	0.000219505
fig-trees	?????	1
thou	????????????	0.000246606
asking	?????	0.0865716
gavest	???????	0.0427071
give	?????	0.00127646
when	??2	0.000103869
maybe	?????????	1
taken	???????	0.00734838
have	???????	0.00033704
great	??????	0.000840278
grief	????????	0.00578054
pang	??????	0.770837
shot	??????	0.0583335
laertes	??????	0.0146566
set	?????	0.0022877
eperitus	????????	1
polypemon	?????????????	1
son	?????????????	0.000627759
depart	???????	0.0259088
passenger	???????	1
as	???????	0.000171308
thou	???????	0.000199596
many	???????	0.000549524
we	??????????	0.000200361
for	??????????	4.92E-05
sure	????????	0.0145672
years	??????	0.00786343
begins	??????	1
due	??????	0.00461012
thou	???????	0.000142465
didst	???????	0.00510884
possess	????????	0.0148311
reckless	????????	0.0646299
handiwork	?????????	0.00659536
skilled	?????????	0.00457322
meet	???????	0.0874337
beside	?????????	0.0016184
over	????????	0.00053692
dost	???????	1.24E-06
slave	????	0.252469
form	????????	0.00899831
either	????????	0.0034869
thy	??????	0.000147124
surely	??????	0.00159313
therewith	??????	0.00758949
up	??????	0.000444385
fig	?????	0.160703
naught	?????	0.00688213
is	??????	1.34E-08
nay	?????	0.00110654
about	???????????	0.000345368
digging	???????????	0.388687
his	???????????	1.50E-05
holding	???????????	0.00337132
whether	??????????	0.00145978
tears	?????	0.00318988
tree	???????	0.0292105
tall	???????	0.00986264
still	???????	0.00240123
great	???????	0.000351558
age	?????	0.00933841
old	?????	0.000948547
worn	?????	0.145575
saw	?????	0.00136192
odysseus	?????	0.000276252
goodly	?????	0.000470681
when	?????	0.000148128
because	?????	0.0151987
guard	??????	0.00678117
stitched	??????	0.818181
about	????????	0.000543183
into	????????????	0.000508653
did	????????????	0.000643716
now	????????????	0.000141055
quest	??????????	0.0502607
quickly	??????????	0.00335575
sicilian	???????	1
pleasure	?????	0.00767984
sat	????????	0.0021253
well-ordered	?????	0.155295
depths	??????	0.0718126
womankind	???????	1
all	???????	6.98E-05
bring	???????	0.000788452
doth	?????????	0.00854824
repute	?????????	1
regarding	?????	0.118939
devise	?????????	0.00838678
honor	?????	0.0303173
pleasant	?????	0.0875127
shall	?????????	0.000820222
mindful	?????????	1.62E-06
bodies	??????	0.0301671
mans	???????	0.0163654
our	???????	0.00468455
glaring	?????	0.107176
hen	???????	1
fell	????????	0.00178996
stretch	?????	0.134532
pelted	??????	0.580584
we	????	0.000675189
planned	??????	0.102161
too	????????	0.00344078
nay	??????????	0.000553809
devising	????????	0.0917111
will	?????	0.000247725
us	?????	0.000415987
took	?????	0.000442941
defence	?????????	0.00795457
you	?????????	0.000450287
pick	????2	1
one	????2	0.000875857
you	??????	0.000976135
befallen	?????????	1
host	??????	0.00362756
been	??????	0.00703811
recognized	????????	0.232816
two	??????	0.00112481
leading	??????	0.0276232
hadst	??????	0.114876
games	?????	0.206813
present	????????	0.012357
been	????????	0.00129996
hast	????????	0.000587575
mingled	?????	0.0139536
bones	?????	0.00548929
given	??????????	0.00752109
end	????	0.00576246
unguents	???????	1
well-fatted	??????????????	0.747416
we	??????????????	0.00118749
bewail	????	0.489328
did	????	0.0023509
hearts	????????	0.00159767
deeply	????????	0.0330097
but	?????????	4.24E-05
couldst	?????????	0.0675565
voices	??????	0.206894
with	??????	0.000160947
replying	??????	0.277793
look	???????	0.00837014
sea-nymphs	?????	1
part	??????	0.0125596
our	??????	0.000895548
thy	????????	0.00100065
body	????????	0.0109167
wast	??????????	0.0117546
fortunate	??????	1
decreed	????????	0.41864
seems	????????	0.0277184
days	??????	0.00737254
wouldst	??????	0.0376007
hadst	??????????	1.51E-05
master	??????????	0.00666781
wast	??????????	0.00753819
which	??????????	0.000566192
avoids	????	1
early	????	0.028099
all	????	0.000202716
come	????	0.000423061
doom	????	0.0099905
too	????	0.00514923
heroes	?????????????	0.073499
other	?????????????	0.000604204
deemed	?????????????	0.0145538
who	?????????	0.000403842
mead	?????????	0.262499
the	??????	3.40E-09
which	???????	0.000259824
off	???????	0.00106727
from	???????	0.000113531
has	???????	0.00057617
about	????????	0.000900787
flit	????????	0.809323
spirits	?????	0.0228401
forth	???????	0.0010049
called	???????	0.00408232
meanwhile	???????	0.0162487
swiftly	??????????	0.00544067
there	????????????	0.000480695
therefore	???????	0.00576852
concerning	?????	0.0297196
abroad	?????	0.0692176
will	?????	0.000268049
folds	???????	0.0382491
myself	???????	0.000857578
wealth	???????	0.00422693
thou	???????	9.68E-05
have	?????????	0.000709521
have	??????????	0.000439299
home	?????????	0.00173874
troublous	?????????	1
over	?????????	0.000429534
gave	?????	0.00118201
judged	????	1
end	????????	0.00406143
tended	?????	0.0902979
alone	??????	0.00250653
together	??????	0.0013183
unscathed	??????	0.0434462
rocks	????????	0.0316171
unceasingly	????????	0.0646884
gone	???????	0.00712598
laid	??????	0.00414454
destroyed	????????????	0.0294188
eaten	?????	0.142032
overcame	???????	0.207244
how	?????????	0.00220195
till	????????	0.017841
brought	?????	0.00140457
had	?????	0.000397317
recounted	?????	0.279482
store	?????	0.00802071
beasts	?????	0.0965478
endured	?????????	0.073423
told	?????	0.00500809
stayed	????????	0.00682403
theirs	??????	0.0639566
of	??????	7.79E-05
place	??????	0.00150257
couch	???????	0.00488661
on	???????	0.000139486
bedchamber	???????????	1
maiden	???????????	0.0213593
nurse	???????????	0.0162172
ready	?????	0.0104925
find	????????	0.004395
wilt	????????	0.00172777
happier	????????	1
about	????????	0.000252189
me	??????	0.000219874
am	????2	0.00261784
due	??????	0.00934813
my	???????????	9.77E-05
fan	???????????	1
winnowing	???????????	0.200007
from	?????	0.000345156
till	??????	0.00574101
bearing	??????	0.00330785
teiresias	??????	0.0285243
none	??????	0.0100774
concerning	???????	0.165912
concerning	?????	6.93E-06
enquire	???????	0.0139651
foretell	?????????	0.62736
did	??????????	0.00042583
fulfil	?????????	0.0148836
hereafter	?????????	0.00387836
her	??????	0.00149421
end	??????	0.00192071
she	??????	7.37E-05
taken	????	0.0310766
arisen	????????	0.152403
go	?????	0.000919625
could	?????	0.00543988
case	???????	0.0380947
crusted	????	1
bodies	????	0.0366364
are	????	0.000777635
thickly	????	0.663561
men	????	2.91E-05
convince	??????	1
actor	???????	0.0395836
tokens	?????????	0.120106
folly	?????????????	0.0285699
thought	?????????????	0.00490853
mind	?????????????	0.00154785
case	??????	0.0855455
known	?????????	0.0461838
another	?????????	0.00218095
lain	?????????	0.140114
devices	??????	0.0573126
beguile	????????	0.0471045
come	????????	2.36E-06
should	????????	0.0014745
dread	????????	0.00295853
full	????????	0.00138478
was	????????	0.000281616
enjoy	???	0.425869
should	?????	0.00258945
else	????????	0.0088174
vexed	????????	0.0331875
which	???????????	0.00138693
melted	???????????	0.0339448
sat	???????????	0.00212641
ox-hide	??????	0.129644
finished	????????	0.0524268
beginning	????????	0.0371788
fashioning	?????	0.216859
with	????????	0.000295929
i	???????	0.00013527
close-set	?????	0.0795503
till	?????	0.0038517
round	?????????	0.00272437
girth	???????	1
fashioned	???????	0.0127105
wrought	???????	0.00310182
token	???????	0.0673516
place	???????	0.00241205
from	???????	0.000146512
it	?????????	0.000390561
pry	?????????	1
lives	?????????	0.0172666
is	???????	0.000230899
unless	????	0.104833
never	????	0.00421478
has	??????	0.00199989
bedding	????	0.388755
thy	????????????	0.000394707
wentest	???????????	0.2078
wast	???????????	0.00602839
greatly	???????	0.0119362
thee	???????????	0.000167246
do	???????	0.000321453
strew	??????????	0.894249
dwellers	?????????	0.16365
making	??????	0.0114032
abundant	??????	0.0403982
meanwhile	????????	0.0357114
dancing	????????????????	0.0835358
all	????????????????	9.20E-05
their	??????????	0.000235864
may	?????????	0.00100963
advantage	?????????	1
whatever	?????????	6.62E-06
afterwards	??????	0.29029
there	??????	1.44E-07
rumor	???	0.306935
around	???????????	0.00135266
passer-by	??????	1
our	???????????	0.000432327
put	???????	0.00245275
yourselves	???????	0.0223673
quote	??????	1
combines	??????	1
wrongly	??????	1
treebank	??????	1
say	?????	0.00822131
very	????	0.00337318
have	????	0.00045068
we	????	5.75E-09
kindred	????	0.531082
exile	????	1
into	????	0.000802271
goes	????	0.0397968
avenge	????	0.111022
admit	?????	0.650663
cast	???????	0.00234808
test	???????	0.0929899
alone	??????	0.00321073
signs	??????	0.279442
certainly	?????	0.159657
shall	?????	0.000239988
speak	??	0.00262079
power	??	0.0525492
than	???????	0.00439201
harder	???????	0.188396
back	????????	2.75E-07
husband	????????	0.0151877
her	????????	1.70E-07
her	????????	0.00142704
side	????????	0.000841613
mother	????????	0.00061169
face	?????????	0.00152237
by	????	0.000343768
wall	????	0.00195062
beside	????	0.00119968
she	?????????	0.000516011
clasp	?????????	0.0472899
go	?????????	0.000856651
should	?????????	0.00270245
art	?????????	0.000394296
thou	?????????	0.00014888
wise	?????????	0.000533704
forever	?????????	0.0230893
purple	??????	0.0416162
shouldest	??????????	0.0283967
deceive	??????????	0.111961
very	???????????	0.00153363
speak	??????????	0.0024776
me	??????????	0.000200053
would	??????????	1.08E-08
heart	??????????	0.000389193
great	??????????	0.000476699
laid	??????	0.00470987
while	???????	0.00177478
i	???????	0.000420229
this	???????	0.000155022
would	??????	0.000702771
own	??????	0.0015867
sight	????????	0.00345762
with	????????	4.61E-09
them	????????	0.000273275
loudly	????????	0.111957
boast	????	0.087397
been	?????	0.00404218
you	?????????	0.00183402
has	??????	0.00172101
bodies	???????	0.0191942
hard	???????????	0.00229346
all	???????????	9.23E-05
they	???????????	9.92E-09
hour	????????	0.110449
shut	????????	0.086996
terror-stricken	????????	0.446677
us	????????	0.00270643
about	?????????	0.000265153
her	?????????	0.000424747
penelope	?????????	0.00179745
should	??????????	0.000813483
hid	??????????	0.0189023
dishonor	??????	0.0782674
here	??????	0.00171719
very	??????	0.00413901
bring	???????	0.00236241
wise	???	0.000705247
sorry	???	0.0545831
straightway	????????	0.00170837
roused	????????	0.00416875
slumber	????????	0.124044
tale	??????????	0.0079863
wild	??????????	0.00628697
sorrow	??????????	0.00383737
full	??????????	0.000729879
mock	??????	0.255777
dost	??????????	0.00684757
heretofore	???????	0.0430484
seem	????????	0.0379727
one	??????????	0.000201452
been	???	0.0041231
coming	???	0.0134126
beneath	??????????????	0.00029292
wail	???????	0.0842764
seized	??????	0.00632191
embraced	?????????	1
thronged	?????????	0.0425322
back	????	0.000701233
purged	????????	1
sulphur	?????	0.124298
wrapped	?????	0.107886
very	???????	0.00591127
done	???????	0.0573155
piteously	?????????	0.103177
laid	??????	0.0026591
bethought	???????	0.0699469
nooses	??????	1
women	????????????	0.00475556
stout	????????	4.23E-05
is	???????	0.00019834
fall	?????	0.0036973
by	???????	0.000365141
order	?????????	0.0133556
set	?????????	0.000648403
threw	??????	0.223573
work	?????????	0.00332245
gave	?????????	0.00110855
propping	???????	1
down	???????	0.00107245
them	???????	0.00107308
which	?????????	0.000901884
swords	?????????	0.0311441
dome	?????	1
lead	??????????	0.00570404
order	????	0.0433571
order	??????????	0.0177876
set	??????????	0.000863572
have	??????????	0.000512258
past	??????????	0.0132234
wake	??????????	0.259848
whom	????????	0.00246179
word	?????????	2.31E-05
bear	?????????	0.00193676
do	?????	0.00033922
women	?????	0.001191
which	????????	0.000771262
name	????????	0.00802211
it	?????	0.000226796
aloud	???????	0.00326502
out	???????	0.000704255
own	???????	0.000583501
checked	????????	0.046025
wrought	???????	0.00224555
been	???????	0.00164849
what	???????	0.00100064
joy	???????	0.00488989
cries	???????	0.0291768
loud	???????	0.0106539
utter	???????	0.0054942
stained	???????	0.344356
all	??	0.000169469
on	????	0.000278364
feeding	????	0.115174
comes	????	0.0159839
servants	??????????	0.0815469
all	??????????	0.000204566
hast	??????????	0.00151808
wife	??????????	0.00237216
aged	??????????	0.0701333
shaking	?????	0.45608
mind	??????????	0.00260329
their	?????	0.000724076
takes	?????	0.19414
from	????	0.000187508
their	???????	0.000212003
there	????????????	0.000161098
was	????????????	7.99E-05
see	????????????	0.0007655
about	????????????	0.00020074
finished	?????????	0.0371993
songs	?????????	0.34602
many	?????????	0.000193143
outside	?????????	0.02005
than	?????????	0.00113041
how	?????????	0.000600087
delivered	?????????	0.0403193
avoid	?????????	0.000112322
seeking	?????????	0.0269106
ox	?????????	0.0188762
an	?????????	0.00108942
had	?????????	1.65E-07
crouching	?????????	0.125695
also	?????	0.0124457
us	?????	0.00174805
being	????????	0.0121581
mine	??????	0.00341319
how	??????	0.00129043
bear	??????	0.00142476
eager	??????????	0.00258134
be	??????????	4.81E-07
i	????????	0.000138592
lays	????	0.818195
slayest	??????	0.387819
clasped	?????????	0.012808
clasp	?????????	0.0406565
forward	?????????	0.0607141
court	???????	0.00269092
slip	???????	0.143386
when	???????	6.97E-08
fall	??????????	0.00396578
which	??????????	0.000486756
near	??????????	0.00342638
shalt	?????????	5.25E-06
removed	????????	0.233482
thyself	????????	0.00134469
declare	????????	0.0038683
dost	????????	0.00335786
aftertime	???????	0.115647
TRUE	?????	0.077107
laid	????????	0.0023531
shall	????????	0.000251274
wrong	????????	0.084192
have	????????	0.000299831
sought	????	0.0355387
word	?????????	7.32E-06
by	?????????	0.000678485
through	????????????	7.84E-05
right	????????????	0.00302119
smite	????????????	0.00357121
set	????????????	0.000500786
chase	????	0.120235
escape	????	0.00333801
or	????	0.000271418
defence	????	0.0140211
vultures	????	0.0361381
beneath	????	0.000459381
flying	????	0.116605
scour	????	1
forth	???????????	1.28E-05
along	?????	0.0280601
upon	???????	1.68E-05
like	????????	0.00153359
the	?????	1.22E-09
mortals	?????	0.0049257
held	????????????	0.00133636
groin	??????????	0.660692
went	???????	0.000806139
gavest	???????	0.123076
hoof	???????	0.25176
welcome	???????	0.0167521
big	?????????????	0.0212451
more	????????????	0.000845946
thou	????????????	0.000221368
boasted	?????????	0.734837
tore	??????	0.0359921
them	???????	8.43E-07
forward	???????	0.0288407
euryades	??????	1
anothers	??????	0.153248
smote	????????	0.000457923
man	????????	0.0015526
all	???????	0.000194241
made	???????	0.00115131
struck	????	0.0648141
hurl	??	0.131925
there	?????	0.000160622
are	?????	0.000215125
has	?????	0.0011188
low	??????	0.0140465
laid	??????	0.00484546
guise	???????	0.19196
smoky	????????	1
herself	?????????	0.00806694
made	?????????	5.88E-08
course	?????????	0.0121265
is	?????????	0.00035702
falls	???????	0.20364
playing	??????????	0.355361
white	??????????	0.00370665
thou	??????????	0.000358511
large	??????	0.0231416
dwell	??????	0.00407576
thy	??????	0.000565846
minded	????	0.0074953
deeds	????????	0.00627642
beguile	?????????	0.0677051
athena	????????????	0.00264745
shouted	???????	0.016508
deeming	????????	0.135324
befriended	???	0.513002
those	????	0.00856578
when	?????	8.08E-05
she	???????	0.000300375
befits	???????	0.942827
much	???????	0.00883715
terror	??????	0.00869583
straps	????	1
by	????	0.000172546
laid	????	0.00149745
shield	???	0.00200735
standing	???????	0.0136143
lay	???????	0.00235482
torment	?????	0.275629
keep	?????	0.00258029
till	????????	0.0209955
twisted	???????	0.203215
boards	?????	1
tie	?????	0.317329
bend	?????	0.096627
has	???????	0.00698445
crimes	?????????	0.999522
fellow	?????????	0.0248019
hither	????????	0.00348794
going	???????	0.0197452
suspect	???????	0.544884
we	???????	0.000657493
whom	???????	0.00191709
fellow	???????	0.0333857
close	???????	0.00718655
haply	?????????	0.00386198
against	?????????	0.00162798
rousing	?????????	0.152714
task	?????	0.352592
them	?????????	0.000670243
horsehair	??????????	0.611439
bar	?????	0.136331
is	?????	1.54E-07
straightway	??????	0.000711983
wooers	???????	0.00265849
for	??????	3.76E-05
postern	???????	0.464931
passage	?????	0.794476
level	??????	0.330009
wave	?????????	0.0132456
four-fold	?????????????	1
side	????????????	0.00321395
on	????????????	0.000278152
helmets	?????	0.910184
took	????????	1.47E-07
thrust	????????	0.00419599
they	????????	0.000150728
yet	????????	0.000416727
armour	???????????	0.00159952
be	???????????	0.000181254
by	??????????	0.000382155
standing	??????????	0.016268
started	??????????	0.113722
corpse	?????????	0.00361619
stooped	?????????	0.0557774
blow	?????????	0.0143327
deal	?????????	0.0313822
stab	?????????	1
as	?????????	0.000142847
fixed	?????????	0.0282421
leaving	???????	0.0217525
hope	?????????	0.0224573
over	??????????	0.000357944
writhing	??????????	0.063642
fall	??????????	0.00308074
struck	??????????	0.0178468
let	??????????	0.00115285
odysseus	?????????	0.000729584
two-edged	???????????	0.0859333
fellow	?????????	0.0611522
hold	??????	0.000891452
slays	?????????	0.26797
until	?????????	5.19E-07
got	??????	0.0939745
see	??????	0.00337342
open	??????????	0.0387342
you	??????????	0.00105838
transgression	?????????	1
henceforth	????	0.216124
ye	?????	0.00147318
add	?????	0.295185
worth	???????????	0.0117036
himself	???????????	0.000318593
eaten	??????	0.0355311
been	??????	0.00185697
go	???????????	0.000306138
due	????????	0.0206401
settled	????????	0.0685663
desire	??????	0.0151137
through	??????	0.000995528
on	???????	0.000139144
regarding	???????	0.0958321
just	???????	0.0613311
sayest	???????	0.0240166
home	?????????	0.00287259
thereat	??????	0.0458874
hereafter	??????????	0.0129023
full	?????????	0.000404368
lived	??????????	0.0144149
force	????????????	0.0141208
by	????????????	0.000229484
lay	????????????	0.00113184
my	??????????	0.000130297
wasted	?????????	0.111613
seeing	?????????	0.00159495
come	??????????	0.00042808
thought	????????????	0.0030668
themselves	??????	0.00174105
shalt	??????	0.00537077
thou	?????????	3.31E-05
cost	?????????	0.105482
at	???????	0.000379809
railed	???????	0.40449
befouled	??????	0.0985583
were	??????	0.000488079
food	?????	0.0077383
all	?????	0.000239812
spilled	?????	0.313771
quickly	???????	0.0109418
jet	?????	1
aim	??????	0.0580501
took	??????	0.000959663
himself	????????	0.00114775
bring	????????	0.00280751
how	????????	0.00240127
at	????????	0.000620088
strike	???????	0.219617
ended	??????	0.336629
is	??????	0.000178765
at	??????	0.000312538
off	?????	0.0060402
armed	??????????	0.124308
fathers	??????????	0.00380682
at	??????????	0.000251479
grasp	??????????	0.0285389
girt	??????????	0.110295
while	????????	0.00065958
be	????????	8.00E-05
labour	??????	0.0154408
or	??????	0.00023121
upon	??????	0.000154021
shame	??????	0.00487045
brings	??????	0.0356981
sits	??????	8.05E-07
handle	????????	0.050131
end	????????	0.00576208
bridge	??????	0.110805
laid	??????	0.00159796
lay	??????????	0.00189072
omen	???????????	0.049247
signs	??????	0.127592
shewing	??????	0.331039
tone	???????	1
which	???????	5.45E-08
tried	?????	0.696464
scanned	???????	1
lifted	???????	0.00963734
soon	???????	0.00520867
as	???????	0.000490207
profit	??????	0.00852531
rascally	???????	1
turns	??????	0.00286453
stored	???????	0.0411134
has	??????	0.00123844
afar	??	0.00305778
its	??	0.00273945
eaten	??	0.0247828
it	??????????	0.000308025
gazed	???????	0.153038
made	????????	0.000834686
case	??????????	0.0380883
thee	???????	0.000358917
am	?????????	0.0019698
—	?????????	0.00365215
heed	?????????	0.0287747
giving	?????????	0.0279686
rue	?????????	0.354705
—	?????	0.00669094
bow	????	0.00361834
rear	?????	0.0131089
thyself	?????	0.000853852
finished	?????	0.0472957
man	????????	0.000154228
pray	????????	0.00430665
whither	????????	0.0149111
cried	???????	0.113911
taken	????????	0.020637
outright	???????	0.0800232
witness	??????	0.0677733
right	????????	0.00305553
born	???????	0.00173497
declares	???????	0.0176176
well-built	???????	0.00224359
make	???????	0.00166342
you	???????	0.00101463
do	???????	0.000512395
then	???????	7.67E-05
why	???????	0.00590908
report	???????	0.0664447
good	???????	0.000964736
there	???????	5.88E-09
reproach	???????	0.15987
iron’	???????	1
should	?????	0.000644513
fellow	?????	0.015258
base	?????	0.0159905
hereafter	?????	0.00579081
talk	?????	0.0508872
dread	?????	0.00129319
we	?????	0.000300891
home	??????	0.0089085
lead	??????	0.0175351
escape	????	0.0134699
shalt	????	0.0100464
shalt	?????	1.12E-05
hands	?????	0.00118768
whose	?????	0.0111033
being	???????????	0.00899508
between	?????????	0.00423776
arose	?????????	0.00265692
with	????????	0.000118967
bearing	????????	0.00227351
shorn	????2	0.31563
when	????2	0.000182052
been	?????????	0.00574997
lapithae	???????	1
went	???????	1.57E-05
greathearted	?????????	1
even	????????	0.00018282
works	??????	0.0245489
wounds	????????	0.0788958
hearest	?????	0.0788738
thou	??????	0.000288337
wit	??????	0.024231
waxed	??????????	0.0255477
wanderings	?????????	0.0190898
present	????????	0.0238202
aside	???????	0.041838
off	???????	0.00404165
bend	???????	0.180334
—	?????	0.00468282
shall	?????????	3.40E-07
truth	????????	0.00595751
mourn	???????	0.0376614
some	????????	0.00127374
am	????????	0.00190865
greatly	????????	0.0275603
verily	?	0.000184783
are	????	0.00207388
rush	?????????	0.0920338
hears	???????	0.253832
them	???????	0.00105128
rest	????	0.00572856
let	????	0.00314582
another	????????????	0.00150814
within	????????????	0.00191573
aside	??????????	0.0154216
drew	??????????	0.00196692
went	????????	0.000535707
assured	??????	0.537695
also	?????????	0.00522838
this	????????	0.000156488
than	????????	0.00290043
nay	????????	0.00141757
give	?????	0.000891902
will	?????	0.000401746
two	???????	0.00125077
desired	?????	0.111834
coming	?????	0.00778762
thralls	?????	1
all	?????	0.000145697
two	?????	0.00105891
truth	????????	0.00909951
these	???????????	0.000178057
keep	?????	0.00738176
something	????????	0.632723
you	????????	0.00249597
odysseus	????????	2.46E-07
gone	???????	0.00499348
two	???????	0.00157822
those	???????	0.0047717
now	????????	0.000669521
far	????????	0.00238567
beaks	???????????	0.748709
youths	?????	0.00977099
is	?????????	0.000736779
it	?????????	0.00114118
destroyed	?????????	0.0171337
because	???????	0.00507263
forsooth	???????	0.0590091
angered	???????	0.0347789
penelope	?????	0.00608129
expectantly	???????????	1
let	?????	0.00389228
shall	?????	0.00184059
delicate	????????	0.0523915
grew	????????	0.00648673
hands	????????	0.000271904
his	????????	0.000129144
full	??????	0.00153386
were	??????	0.000342128
soothsayer	????????	0.2725
then	???????	0.000191093
around	???????????	0.00202945
beginning	?????????	0.0215541
left	?????????	0.000778365
from	?????????	0.000132143
you	?????????	0.000477317
seat	??????	0.0846662
bow-tip	?????????	1
arrow	?????????	0.00994902
hard	??????	0.0231933
mightier	????????	0.0171899
you	????????	0.000883673
i	??????	0.000103043
come	??????	0.000169162
checked	???????	0.0387567
dissent	???????	1
nodded	???????	0.108232
string	?????	0.392825
up	??????	0.0023338
draw	??????	0.0346852
sought	??????	0.0551668
might	??????	0.00290567
effort	?????????	0.310548
relaxed	?????????	0.217698
saw	????????	0.000962584
stamped	?????	1
back	??????????	0.00137533
off	??????????	0.00828426
scarlet	??????????	0.146791
their	?????????	0.000443549
am	?????	0.0041937
lord	??????????	0.00233234
has	?????	0.00380842
though	??????	0.00189719
remember	??????	0.0274505
things	?????????	0.00121592
only	?????????	0.00359966
boors	?????????	0.984627
boors	?????????	0.0153728
foolish	?????????	0.139883
shewn	?????	0.37526
only	?????????	0.00259923
plea	?????????	0.206158
has	???????	0.00167811
master	???????	0.00891035
its	???????	0.00639592
since	???????	0.00220453
beset	???????	0.0676268
have	???????	0.000512641
a	??????	3.04E-09
her	???????	0.000322081
company	?????????	0.0102129
case	?????	0.129084
surrounded	???????	0.182529
hand	??????????	0.00510745
which	??????	0.000990487
floor	?????	0.0644605
stepped	?????	4.08E-06
by	???????	0.000550673
bellows	????????	0.112948
handle	????????	0.0334208
loosed	????????	0.00222978
stepped	???????	0.00858189
as	?????	0.00017552
home	?????	0.00176892
would	?????????	0.000235442
forth	?????????	0.000335986
going	?????????	0.00917931
bow	?????????	0.00120442
never	???????	0.0074314
loving	?????????	0.144277
death	?????????	0.000896527
at	?????????	0.000247812
bear	???????	0.00252067
wont	???????	0.00922912
asking	???????	0.111903
while	???????	0.00253542
kept	??????????	0.0148169
ruthlessly	???????	0.142307
stout-hearted	????????????	1
bring	???????	0.00124782
search	??????	0.0951597
come	??????	0.000357356
part	??????	0.011912
quest	??????	0.0287864
embassy	??????	0.547825
was	??????	0.000113783
whole	?????	0.0256956
unto	??????????	0.00411174
once	?????????	0.00267631
odysseus	?????????	0.000417346
which	??????	0.000703656
—	????????	0.00393015
bow-string	??????	0.0637085
treasures	?????????	0.0374275
remote	???????	0.371177
far	?????????	0.00133337
store-room	?????????	0.0617017
handle	??????	0.250445
supper	?????????	0.0074206
than	?????????	0.00113207
graceless	?????????	1
more	?????????	0.000658557
been	?????????	0.00100886
have	?????????	0.000170493
meal	?????????	0.00348326
could	?????????	0.00101375
never	?????????	0.000934054
beasts	??????	0.129085
one	?????????	0.00038321
midst	???????	0.00537229
watched	????????????	0.171409
fitting	??????	0.0486483
fellow	??????????	0.0485561
mere	?????	0.0275605
war	????	0.000493406
skilled	?????????	0.0076385
always	????	0.0128869
vagabond	???????	0.428651
vagabond	????	0.18997
filthy	????	0.137153
than	?????????	0.00148198
is	?????????	0.000128715
guests	?????2	0.121624
went	?????????	0.00082577
insult	??????	0.826313
upon	??????	0.000241889
coming	??????	0.00774212
will	??????	0.000422422
these	??????	0.000152782
meanly	??????	0.75872
finds	?????	0.243228
all	?????	0.000211729
rafters	???????	1
sprinkled	?????	0.0622514
are	?????	0.00140428
you	?????	0.00223987
all	????????????	6.95E-05
with	????????????	0.000153635
her	??????	0.000332194
ashamed	??????	0.0567975
nay	??	0.00220417
must	?????????	0.00802439
though	?????????	0.00131628
restrained	???????	0.44682
ground	???????	0.0022713
would	?????	0.000882871
wills	?????????	1
harm	?????????	0.0120307
while	?????	0.00494703
deeds	?????	0.00979046
these	?????	0.000471282
see	?????	0.00578099
leapt	????2	0.00433987
still	?????	3.54E-06
wast	????	5.17E-05
make	??????	0.00173529
you	??????	0.00101227
busied	????????????	0.0152507
through	????????????	0.00031492
struck	????????????	0.0128773
have	????????????	0.000229856
more	?????????	0.00292748
struck	????????	0.0415728
hoof	????????	0.293263
oxs	????????	0.357086
smile	?????????	0.104938
grim	?????????	0.0550254
where	??????	0.00291982
nay	????????	0.00147446
either	??????????	0.00322375
present	??????????	0.0199503
comes	???????	0.0534618
guests	???????	0.340663
due	???????	0.0464984
well	??????	0.00288393
an	???????	0.00227709
been	?????	0.00277546
wooed	?????	0.422973
boundless	?????	0.0526268
trusting	?????	0.0260941
ctesippus	?????????	0.999982
into	???????	0.000606278
deeper	???????	0.620535
sink	???????	0.14654
might	???????	0.00058568
received	???????	4.77E-06
archer-god	???????	1
shady	???????	0.737824
ye	??????	0.00147212
part	??????	0.0128059
blows	????????	0.0498041
revilings	????????	0.145457
drink	??????????	0.00309947
lords	??????????	0.0346052
here	????????	0.000261744
placed	????????	0.00419391
well-built	????????	0.116122
made	????????	0.000419823
thought	????????	0.00230067
run	??????	0.00596071
clutching	????????	0.401215
meanwhile	?????	0.0120484
pray	?????????	0.0212019
obey	???????	0.0238634
mine	???????	0.00876641
cattle	???????????	0.0449696
of	???????????	0.000600843
words	??????	0.000661352
confirm	??????	1
understanding	??????	0.00851851
hast	??????	0.000821626
an	??????	0.0010886
neatherd	????????	0.979703
not	????????	9.97E-05
back	????????	0.000520822
might	????????	0.000418749
longed	????	0.0265822
still	?????	0.00215063
this	?????	0.000106949
matter	????????	0.0471586
drive	??????	0.0150557
mortal	???????????	0.00539262
better	????????????	0.00214133
yield	????????????	0.00891056
speech	???????	0.00771285
boy	????????	0.0810011
are	????	0.000241875
wretched	?????????	0.0211087
birth	?????????	0.0247605
greeting	???????????	0.242248
stretching	???????????	0.0757696
odysseus	???????????	0.000452069
near	???????????	0.00532423
therewith	???????????	0.0177121
far-wandering	????????????	1
carefully	??????????	0.0830029
beasts	??????????	0.0573394
by	?????	0.000196722
from	?????	8.03E-05
brought	?????	0.000750811
besides	?????????	0.0376959
made	???????????	0.000778814
here	?????	0.00314132
fists	??????	0.448199
anothers	??????	0.0337097
company	??????	0.0101506
tis	??????	0.0728913
begone	??????2	0.156656
taunting	?????????	0.33097
he	??????????	0.000527595
goats	??????????	0.0102608
herd	??????	0.0009897
logs	?????	2.80E-05
acheans	???????	1
serving-men	???????	1
fashion	???????????	0.162579
skilful	???????????	1
themselves	??????????	0.00291656
busied	??????????	0.0378776
others	??????????	0.0021997
here	????????	0.000610894
it	????????	0.000162528
double	???????????	0.0197026
wipe	???????????	0.142867
let	???????????	0.000448393
sweep	?????	0.0664344
saying	??	0.00240807
with	?????2	0.000101534
over	?????	0.0015579
flung	?????	0.0414392
we	?????	8.66E-06
his	?????????????	0.000114345
maidens	?????????????	0.00968345
she	?????????????	0.000135146
had	??????	0.000159547
without	????????	0.00489718
who	????????	0.000269948
her	????????	1.84E-08
shouldest	????????	0.0271023
matter	????????	0.0168317
unhonored	??????	0.999988
she	?????????	0.000130013
she	???????	0.000471066
way	???????	0.000986535
or	??????	0.000629236
our	??????	0.00353507
ye	????	0.00276025
put	???????	0.00169361
from	???????	0.000121415
guilty	???????	0.240376
labour	????	0.0489414
bitter	????	0.0215947
have	????	0.000813166
glad	?????	0.011221
art	?????	0.00088609
surely	?????	0.00651056
any	????	0.00231849
sky	???????	0.0985634
loud	???????	0.0234382
for	????	0.000174302
now	????	0.000269151
all	???????	0.00014414
alone	????	0.000772427
ground	????	0.000777443
for	????	5.17E-05
making	??????????	0.0328328
tasks	??????	0.0350824
set	???????	0.000287863
were	???????	0.000216932
by	???????	0.000229487
hard	???????	0.00228625
uttered	???????	0.0108072
at	???????	0.000153124
grinding	???????	0.537851
awaking	????????	1
those	???????	0.0044072
sore	????	0.00456142
have	????????	0.000256088
ye	????????	0.000736255
good	????????	0.000763713
your	????????	0.00172098
lying	??????	0.0140959
was	??????	0.000243658
gathered	????????	0.010798
mused	?????	1
her	??	0.00105832
lay	???????????	0.000905594
there	???????????	0.000192655
envelops	???????	1
things	???????	0.0022939
one	???????	0.000373743
well	???????	0.00348881
well	???????	0.00151934
this	???????	0.000203497
holds	??????	0.139232
pass	??????	0.00319487
might	??????	0.000430383
sight	??????	0.00206753
from	??????	9.39E-05
blot	??????	1
would	??????	0.000474478
snatched	???????????	0.0368073
things	???????	0.0019754
maidens	???????????	0.0132257
while	??????????	0.000758492
famous	?????	0.0412379
stature	?????	0.0655507
them	?????	0.00155087
tended	?????	0.11264
pandareus	??????	0.887336
daughters	??????	0.02012
thy	?????	0.000265211
its	?????????	0.00807084
she	???????	1.38E-08
sleep	?????????	0.00145149
perils	?????????	1
shalt	???????	0.00727691
shouldest	?????	0.0779194
us	??????????	0.00150826
stand	??????????	0.00184893
troops	?????	1
thee	???????????	2.88E-08
end	?????????	0.0120699
am	???????	0.00232122
trust	???????	0.0663192
bane	????????????	0.00779234
should	????????????	7.20E-07
thyself	?????	0.00170736
harder	?????????	0.273347
might	???????	0.00213631
wakeful	???????	0.339597
thou	???????	8.08E-07
tossed	??????	0.067942
odysseus	??????	0.00019381
is	??????	0.000127115
tossing	??????	0.412507
chiding	???????	0.254186
until	??????	0.00224055
does	????	0.0137407
sees	??????	0.285224
when	????????	0.000121211
stands	??????	0.17277
bitch	??????	1
rush	????????	0.0320424
themselves	?????????	0.00343893
merriment	?????	1
before	?????	0.000481576
for	??????????	6.41E-05
pondering	??????????	0.031612
an	????????	0.00309535
ground	????????	0.0019936
gone	????????	0.00779533
let	???????	0.00154927
strewn	???????	0.164182
bedewed	????	0.420495
proper	????????	0.650905
appointed	????????	0.0321285
forever	??????	0.0338151
should	??????	0.00113758
possible	??????	0.0395164
never	???????	0.00105949
give	???????	0.00044564
sit	???????	0.00192836
shot	?????????	0.0346816
it	???????	0.00216052
thy	????????	0.000251884
life	???????	0.00786721
house	???????	0.00150095
forsake	??????????	1
through	?????????	0.00227883
most	???????	0.00881431
before	?????	0.00235031
afar	?????????	0.00270227
would	?????????	0.000175273
like	???????	0.000572548
wont	???????	0.00268281
which	???????	0.00172449
shall	?????	0.00176739
off	?????	0.00343117
cut	?????????	0.00362707
which	?????????	0.000352548
morn	?????????	0.0548389
on	?????????	0.000130403
is	?????????	0.000282266
have	????????	1.43E-05
ah	????????	0.00313811
sees	??????	0.197745
issues	??????	0.383825
TRUE	??????	0.0323809
bring	?????	0.00551139
gate	?????	0.0476132
those	?????	0.0105231
wilt	??????2	0.0035019
deceive	???????????	0.0996267
dreams	???????????	0.0400232
one	??????	0.000841697
shadowy	????????	0.0189729
find	???????????	0.00628026
they	???????????	0.000154229
do	???????????	0.000408994
wise	???????????	0.000531359
meaning	???????????	0.165482
unclear	???????????	1
baffling	???????????	1
are	???????????	0.000387043
silenced	????????	1
give	????????	0.000713445
wrest	???????????	0.727082
possible	???????????	1.56E-06
feed	??????	0.0099887
been	??????	0.00130834
before	??????	0.000422673
am	?????	0.00328044
verily	????	0.000296686
TRUE	????	0.0216889
no	????	0.000423244
roof-beam	????????	1
perched	???????	0.319388
because	???????	0.0152254
borne	?????	0.0195561
strewn	??????	0.155782
have	???	0.000993803
midst	?????????	0.00272544
vexed	??????	0.0913525
being	??????	0.0151806
lo	??????	0.0034163
marry	????????	1.47E-05
would	????????	0.000284474
doubt	?????	0.305288
sways	?????	1
sword	???????	0.00961424
shouldst	?????????	0.0890416
day	??????	0.000632183
itylus	????????	0.720767
forth	?????	0.000253568
close	???????	0.00269711
hold	???????	0.00103772
mourning	????	0.166649
measure	?????????	0.0293123
is	?????????	0.000222878
least	??????	0.0253278
further	??????	0.0438223
nearer	????	0.299508
his	???????????	1.54E-07
guiltless	???????	0.142216
are	???????	0.000276732
hard	???????	0.00102989
close	?????????	0.00485808
as	?????????	8.75E-06
though	??????	0.00342441
eurymachus	??????????	0.00751873
found	?????	0.00432573
nurse	??????	0.0325937
wilt	???	0.0183213
mother	????	0.00686301
closer	??????	0.274578
throat	??????	0.0619631
womans	??????	0.0567347
for	??????	0.00015462
thoughts	?????	0.0786223
glance	?????	0.0233419
handled	???????	0.463197
joy	????	0.0161828
spilled	?????	0.686229
vessel	???????	1
into	???????	0.000320754
touch	??????????	0.0385601
had	??????????	0.000237517
scar	??????????	0.130442
while	??????	0.000738423
truth	??????	0.00246929
got	?????????	0.0442992
how	?????????	0.00188772
story	?????????	0.124753
matter	???????	0.0174374
him	??????	0.000126226
checked	???????	0.0273856
carcase	???????????	0.260142
clear	?????????	0.0722786
gash	????????	1
long	????????	0.000656759
tore	????????	0.0276693
tusk	????????	0.056448
upon	????????	0.000141907
charging	????????	0.434805
likewise	??????	0.00625234
have	?????????	0.00023142
flashing	?????	0.00349441
on	?????	0.000167936
pressed	?????	0.0207956
they	?????	0.000151494
boar	??????	0.0212767
lair	?????	0.0643849
thick	?????	4.74E-06
followed	??????	0.00389545
scent	???????	0.507799
hollows	????	1
climbed	?????????	0.477304
too	?????????	0.0043319
distributed	??????????	0.707126
which	????	0.00119171
call	?????	0.0139015
her	???????	0.000499983
in	???????	6.08E-08
took	???????	0.00143945
amphithea	?????????	1
greeted	?????????	0.0682698
at	???????	0.000172273
man	???????	0.000119815
named	????????	0.10708
let	????????	0.00045345
fruitful	???????????	0.210731
go	????????????	0.00061194
angered	??????	0.0231862
prayed	??????????	0.00561696
been	??????????	0.00141896
be	??????????	8.89E-05
childs	?????	1
find	?????????	0.000185127
laid	?????????	0.0105807
finishing	?????????	1
new-born	?????????	0.368217
once	?????????	0.0107353
acceptable	??????	0.270413
skill	?????	0.072535
gone	??????????	0.00138683
tusk	????	0.499921
manifest	???????	0.173416
truth	???????	0.0138018
once	??????????	0.00193248
away	??????	0.00374399
poured	?????	0.00468382
say	?????????	0.00246083
these	????????	0.000232922
thine	??????	0.00631914
penelopes	????	0.541351
both	????	0.00374216
bidden	???????	0.136921
taunts	???????????	0.114755
off	????????	0.00408723
cut	????????	0.0100551
mightest	???????	0.0369716
prayers	???????	0.117164
like	????????	0.000916072
gavest	???????	0.1042
turns	??????	0.0947604
already	?????????	0.0207643
hadst	???????	0.0245502
though	???????	0.0013537
can	????????	0.00768454
do	???????????	0.000682879
with	??????	1.26E-06
like	??????	0.00220937
one	??????	0.000243038
weak	???????????	0.217518
shall	???????????	0.000355942
day	???????????	0.00158736
arms	???????????	0.00370507
her	???????????	0.000279087
words	????	0.000824873
welcome	?????????	0.0131624
strangers	?????????	2.74E-06
such	??????	0.00244549
has	???????	0.00131167
give	?????????	0.000717485
rest	??????	0.00217487
past	??????	0.00847252
time	??????	0.00288069
day	????	0.00220893
eyes	???????	0.00307045
hateful	???????	0.0174116
became	???????	0.0295758
do	??????????	0.00102225
short-lived	???????????	1
prudent	???????	0.0582348
fierce	??????	0.0112449
thereafter	??????	0.00289983
pain	??????????	0.0251851
soul	??????	1.92E-06
mans	??????????	0.0161216
—	???????	0.00309147
feet	???????	0.00306403
still	???????	0.00105063
forebode	???	1
shall	???????	0.000340827
month	???????	0.0990549
halls	???????	0.00189124
tale	??????	0.0198784
truly	??????	0.0108609
wide	????????	0.00140905
mind	????????	0.000649183
unscathed	?????????	0.0172424
journeyed	????????	0.155952
begs	??????	1
